svm_type c_svc
kernel_type linear
nr_class 2
total_sv 82
rho -2.82322
label 1 -1
nr_sv 40 42
SV
0.1803921024746613 0:0.0810811 1:0.0440252 2:-0.245283 3:0.182609 4:0.314286 5:0.0493827 6:0.174825 7:-0.267176 8:-0.146444 9:-0.0472727 10:0.31401 11:0.0545455 12:0.416149 13:-0.538462 14:-0.0232558 15:-0.388889 16:-0.435484 17:-0.299145 18:-0.0638298 19:0.163265 20:0.0727273 21:-0.146497 22:0.21466 23:-0.386207 24:0.28 25:0.293413 27:0.0446429 28:-0.411765 29:0.0894309 30:-0.00854701 31:0.174825 32:-0.253968 33:-0.158537 34:-0.00598802 35:-0.355372 36:0.38843 37:1 38:-0.139785 39:-0.219512 40:-0.16129 41:0.15493 42:0.0225564 43:0.489362 44:0.0748299 45:-0.226131 46:0.151515 47:-0.28 48:0.0447761 49:-0.342466 50:-0.423077 51:-0.433962 52:-0.138686 53:0.252033 54:-0.229358 55:-0.222222 56:-0.251613 57:-0.234973 58:-0.271186 59:-0.256757 60:-0.360294 61:-0.889318 62:-0.990768 63:-0.921211 64:-0.953479 65:-0.765136 66:-0.974395 67:-0.998179 68:0.0539349 69:-0.978961 70:-0.962221 71:-0.966946 72:-0.990722 73:-0.670528 74:-0.988721 75:-0.457245 76:-0.958368 77:-0.952468 78:-0.865223 79:-0.990615 80:-0.827575 81:-0.971348 82:1 83:-0.983277 84:-0.780272 85:-0.996748 86:-0.930417 87:-0.940937 88:-0.942524 89:-0.953524 90:-0.974713 91:-0.543386 92:-0.917725 93:-0.99175 94:-0.91057 95:-0.961397 96:-0.999094 97:0.316774 98:-0.977372 99:-0.998793 100:-0.205082 101:-0.988185 102:-0.83137 103:-0.97647 104:-0.623096 105:-0.998019 106:-0.891962 107:-0.989262 108:-0.962305 109:-0.986435 110:-0.883633 111:-0.970458 112:-0.829788 113:-0.971873 114:-0.951888 115:-0.866785 116:-0.99287 117:-0.931882 118:-0.867065 119:-0.949691 120:-0.993325 121:0.0240704 122:-0.000818388 123:-0.111042 124:-0.10381 125:-0.279985 126:0.340337 127:0.391273 128:0.407389 129:0.412264 130:0.322402 131:0.427333 132:0.4192 133:0.382617 134:0.377269 135:0.0620919 136:0.219602 137:0.118441 138:0.0708268 139:0.00574346 140:0.218447 141:0.0167517 142:0.050107 143:0.0137883 144:-0.0849601 145:-0.157593 146:-0.217809 147:-0.0905673 148:0.26485 149:-0.255565 150:-0.309146 151:0.122739 152:0.0769269 153:-0.0580295 154:-0.0576651 155:0.199816 156:-0.0747303 157:-0.134875 158:-0.194311 159:-0.0205139 160:-0.0586028 161:-0.289022 162:-0.189053 163:-0.0358236 164:-0.0245561 165:-0.117594 166:-0.106969 167:0.0250073 168:-0.00482445 169:-0.00627659 170:-0.0438206 171:-0.038343 172:-0.0770378 173:0.0029773 174:-0.0414283 175:0.0112303 176:0.00929198 177:-0.0183053 178:-0.185198 179:0.00236806 180:-0.0445981 181:-0.0153146 182:0.0670282 183:0.0858946 184:0.049513 185:0.0205804 186:-0.109691 
0.8249364837439437 0:0.0810811 1:0.245283 2:-0.245283 3:-0.0956522 4:0.208163 5:-0.148148 6:0.356643 7:-0.0687023 8:-0.146444 9:-0.258182 10:0.285024 11:0.290909 12:0.254658 13:-0.0909091 14:-0.0232558 15:-0.0925926 16:0.0322581 17:-0.435897 18:-0.0638298 19:0.428571 20:0.309091 21:0.0573248 22:-0.424084 23:-0.496552 24:-0.0285714 25:0.293413 26:0.597015 27:0.1875 28:0.0147059 29:-0.121951 30:-0.230769 31:-0.00699301 33:-0.317073 34:0.341317 35:0.355372 36:0.123967 37:0.345794 38:-0.139785 39:-0.219512 40:-0.16129 41:-0.0704225 42:0.218045 43:0.64539 44:-0.142857 45:-0.386935 46:-0.121212 47:0.152 48:-0.358209 49:0.273973 50:0.134615 51:-0.232704 52:-0.0948905 53:0.252033 54:0.00917431 55:-0.0777778 56:-0.251613 57:-0.377049 58:-0.271186 59:-0.256757 60:-0.0661765 61:1 62:-0.973804 63:-0.919858 64:-0.993656 65:-0.66215 66:-0.99278 67:-0.8498 68:-0.939731 69:-0.976203 70:-0.965599 71:-0.748707 72:-0.962976 73:-0.994251 74:-0.0692983 75:-0.970263 76:-0.973561 77:-0.727913 78:-0.981603 79:-0.934542 80:-0.826229 81:-0.95721 82:-0.98658 83:-0.477528 84:-0.535308 85:-0.991433 86:-0.998542 87:-0.787335 88:-0.777696 89:-0.989288 90:-0.919856 91:-0.901248 92:-0.943066 93:-0.919722 94:-0.906622 95:-0.966603 96:-0.992393 97:-0.969801 98:-0.979123 99:-0.728445 100:-0.979207 101:-0.826554 102:-0.934501 103:-0.985462 104:-0.956753 105:-0.988825 106:-0.942668 107:-0.852178 108:-0.998694 109:-0.92135 110:-0.958294 111:0.48982 112:-0.998354 113:-0.935536 114:-0.966299 115:-0.85278 116:-0.985007 117:-0.943838 118:-0.942849 119:-0.979056 120:-0.908781 121:-0.482337 122:-0.0491621 123:-0.0508325 124:0.746519 125:-0.230293 126:0.488912 127:0.553339 128:0.574092 129:0.581396 130:0.531962 131:0.583039 132:0.631735 133:0.582621 134:0.547534 135:0.312157 136:0.346202 137:0.235612 138:0.126933 139:0.165156 140:0.191706 141:0.090182 142:0.198585 143:-0.0385919 144:-0.214804 145:-0.099135 146:-0.144953 147:-0.121752 148:-0.27843 149:-0.674679 150:-0.708273 151:-0.429406 152:-0.179118 153:-0.249389 154:-0.294846 155:-0.229296 156:-0.369528 157:-0.391268 158:-0.293357 159:-0.21097 160:-0.251673 161:-0.115697 162:-0.115697 163:-0.0766277 164:-0.146699 165:-0.14374 166:-0.133429 167:-0.0193342 168:0.153009 169:0.294747 170:0.083192 171:-0.0129737 172:-0.0365308 173:0.0376416 174:-0.153163 175:0.152222 176:0.0568774 177:0.0299843 178:-0.191431 179:0.0516746 180:0.0560851 181:0.0734463 182:0.0520346 183:0.0700008 184:0.0188492 185:-0.0569623 186:0.000132477 
0.1021943175342979 0:-0.0810811 1:0.245283 2:0.0566038 3:-0.0956522 4:0.412245 6:0.174825 7:-0.267176 8:-0.246862 9:-0.163636 10:0.275362 11:0.0545455 12:0.416149 13:-0.0909091 14:-0.209302 15:0.12963 16:-0.370968 17:-0.435897 18:-0.0638298 19:-0.0816327 20:0.0727273 21:-0.0955414 22:-0.287958 23:-0.662069 24:0.417143 25:0.293413 26:0.179104 27:0.1875 28:-0.352941 29:0.0894309 30:-0.213675 31:0.00699301 32:-0.190476 33:-0.0121951 34:0.0419162 35:-0.0909091 36:-0.0743802 37:0.102804 38:0.11828 39:-0.219512 40:-0.16129 41:-0.0704225 42:0.203008 43:0.262411 44:-0.142857 45:-0.145729 46:0.151515 47:-0.28 48:-0.134328 49:0.0958904 50:-0.115385 51:-0.232704 52:0.0948905 53:0.252033 54:-0.229358 55:-0.0888889 56:-0.406452 57:-0.36612 58:-0.271186 59:-0.256757 60:-0.183824 61:-0.954953 62:-0.919591 63:-1 64:1 65:-0.993943 66:-0.869265 67:-1 68:0.960431 69:-0.972138 70:-0.935853 71:-0.922111 72:-0.939853 73:-0.899135 74:-0.992589 75:-0.773443 76:-0.97858 77:0.0251919 78:-0.990939 79:-0.953407 80:-0.604761 81:-0.961093 82:-0.995618 83:-0.836537 84:-0.48103 85:-0.993626 86:-0.766878 87:-0.977704 88:-0.711286 89:-1 90:1 91:-0.482409 92:-0.998615 93:-0.802643 94:-0.600466 95:-0.999782 96:-0.982127 97:1 98:-0.984663 99:-0.936861 100:-0.916332 101:-1 102:0.0859888 103:-0.978104 104:-1 105:1 106:-0.974799 107:-0.968737 108:-0.942115 109:-1 110:1 111:-0.986311 112:-0.496154 113:-0.983891 114:-0.944004 115:-0.901838 116:-0.97661 117:-0.921683 118:-0.931092 119:-0.967027 120:-0.999378 121:-0.181908 122:-0.146812 123:0.0236772 124:-0.260217 125:-0.324763 126:0.338927 127:0.473547 128:0.566524 129:0.490015 130:0.522449 131:0.514272 132:0.453171 133:0.463965 134:0.472337 135:0.375098 136:0.399994 137:0.213879 138:0.193964 139:0.234461 140:0.344565 141:0.31866 142:0.263136 143:0.0450624 144:-0.058759 145:-0.107174 146:-0.252034 147:-0.211324 148:-0.167791 149:-0.61036 150:-0.506224 151:-0.286886 152:-0.179315 153:-0.249601 154:-0.29511 155:-0.141908 156:-0.362536 157:-0.385187 158:-0.286754 159:-0.0468581 160:-0.161048 161:-0.115948 162:-0.115948 163:-0.156796 164:-0.146942 165:-0.21884 166:-0.133679 167:-0.106452 168:0.0503926 169:-0.0422511 170:-0.0953555 171:-0.114322 172:0.0233598 173:0.0888936 174:-0.0861332 175:0.0605555 176:0.0503337 177:0.0799718 178:-0.096091 179:0.0515054 180:0.00223696 181:0.112035 182:0.0948178 183:0.115353 184:0.0132125 185:-0.0104444 186:-0.0561701 
1.22565528643149 0:0.351351 1:0.333333 2:0.00628931 3:0.026087 4:0.314286 5:-0.148148 6:-0.104895 7:-0.78626 8:0.138075 9:-0.163636 10:0.0241546 11:-0.0727273 12:0.329193 13:0.188811 14:0.0852713 15:-0.351852 16:-0.0645161 17:-0.435897 18:0.319149 19:0.979592 20:0.8 21:-0.286624 22:-0.570681 23:-0.310345 24:0.28 25:0.209581 26:-0.492537 27:0.0714286 28:0.117647 29:0.414634 30:-0.230769 31:0.0769231 32:-0.428571 33:-0.487805 34:0.101796 35:0.68595 36:-0.206612 37:-0.401869 38:0.139785 39:-0.105691 40:-0.16129 41:-0.169014 42:0.0225564 43:0.0780142 44:-0.414966 45:-0.316583 46:0.292929 47:0.04 48:0.149254 50:-0.25 51:-0.735849 52:-0.109489 53:0.691057 54:0.761468 55:2.22045e-16 56:-0.767742 57:-0.311475 58:-0.389831 59:-0.0810811 60:-0.161765 61:-0.962927 62:-0.874667 63:-0.948827 64:-0.989865 65:-0.842371 66:-0.983318 67:-0.964077 68:-0.938095 69:-0.98724 70:-0.850609 71:-0.91192 72:-0.930819 73:-0.971906 74:-0.889027 75:-0.954362 76:-0.966808 77:-0.762178 78:-0.787473 79:-0.984713 80:-0.709565 81:-0.95432 82:-0.99001 83:-0.822911 84:-0.862076 85:-0.976844 86:-0.958073 87:-0.957008 88:-0.907335 89:-0.974269 90:-0.955003 91:-0.948629 92:-0.959352 93:-0.896427 94:-0.88085 95:-0.985723 96:-0.98879 97:-0.938943 98:-0.98686 99:-0.851753 100:-0.908356 101:-0.942355 102:-0.861786 103:-0.985753 104:-0.979904 105:-0.968793 106:-0.930171 107:-0.982298 108:-0.954369 109:-0.983386 110:-0.932793 111:-0.316249 112:-0.964088 113:-0.959553 114:-0.992062 115:-0.845814 116:-0.97278 117:-0.981919 118:-0.929554 119:-0.871088 120:-0.995287 121:-0.12946 122:0.270843 123:0.75109 124:0.214357 125:-0.414485 126:0.207132 127:0.34073 128:0.417602 129:0.393195 130:0.361344 131:0.362095 132:0.208267 133:0.0741503 134:0.145294 135:-0.151998 136:-0.278499 137:-0.382371 138:-0.312903 139:-0.160498 140:0.0812024 141:-0.0624095 142:0.0155136 143:-0.275843 144:-0.197122 145:0.136371 146:0.526871 147:0.395555 148:0.248605 149:-0.215039 150:-0.163036 151:0.23861 152:0.100563 153:-0.163142 154:0.0784785 155:0.364459 156:0.0890728 157:-0.0274428 158:-0.088549 159:0.0119382 160:-0.110076 161:0.156087 162:-0.0135892 163:-0.140114 164:-0.0481712 165:-0.0017616 166:-0.0319029 167:-0.000358645 168:0.0796915 169:-0.0188298 170:-0.241382 171:-0.3386 172:-0.185015 173:0.0539635 174:0.0118287 175:0.129133 176:0.107394 177:-0.0144952 178:-0.232398 179:-0.0507865 180:0.149312 181:0.203567 182:0.0617468 183:0.130984 184:0.0623647 185:0.109531 186:0.0783931 
1.092622368597786 0:-0.0405405 1:0.597484 2:-0.0188679 3:-0.443478 4:0.297959 5:-0.148148 6:0.944056 7:-0.0992366 8:-0.238494 9:-0.112727 10:-0.0338164 11:-0.618182 12:0.36646 13:-0.174825 14:-0.193798 15:0.111111 16:-0.0645161 17:-0.358974 18:-0.304965 19:-0.102041 20:0.145455 21:-0.0318471 22:-0.287958 23:-0.42069 24:0.234286 25:0.317365 26:-0.298507 27:0.267857 28:-0.176471 29:-0.0243902 30:-0.230769 31:-0.132867 32:-0.111111 33:-0.268293 34:0.269461 35:-0.305785 36:-0.123967 37:0.0654206 38:-0.0537634 39:0.382114 40:-0.16129 41:-0.15493 42:0.0526316 43:-0.134752 44:-0.142857 45:-0.296482 46:0.30303 47:-0.28 48:0.104478 49:0.0136986 50:-0.5 51:-0.0188679 52:0.19708 53:0.252033 54:-0.192661 55:-0.177778 56:-0.483871 57:-0.234973 58:-0.152542 59:-0.0540541 60:-0.117647 61:-0.839083 62:-0.941327 63:-0.868234 64:-0.983719 65:-0.66643 66:-0.997754 67:-0.946197 68:-0.928593 69:-0.98388 70:-0.897376 71:-0.948814 72:-0.947158 73:-0.903126 74:-0.958648 75:-0.92738 76:-0.740685 77:-0.950834 78:-0.924589 79:-0.986507 80:-0.896909 81:-0.881576 82:-0.996398 83:-0.455869 84:-0.895825 85:-0.98995 86:-0.896147 87:-0.90641 88:-0.935321 89:-0.920354 90:-0.978887 91:-0.890991 92:-0.942507 93:-0.889411 94:-0.965265 95:-0.985325 96:-0.978131 97:-0.926957 98:-0.972626 99:-0.963344 100:-0.918952 101:-0.952743 102:-0.873837 103:-0.990632 104:-0.978067 105:-0.931468 106:-0.952965 107:-0.933294 108:-0.984204 109:-0.966856 110:-0.987951 111:-0.820466 112:-0.935744 113:-0.969836 114:-0.963722 115:-0.810923 116:-0.985871 117:-0.94613 118:-0.952265 119:-0.938338 120:-0.986838 121:-0.0366646 122:0.440897 123:-0.0961306 124:0.427472 125:-0.229377 126:0.427432 127:0.584353 128:0.634325 129:0.535558 130:0.472369 131:0.449819 132:0.680958 133:0.673959 134:0.665142 135:0.620332 136:0.386147 137:0.0550716 138:0.0913187 139:0.0931078 140:0.11142 141:0.0913786 142:0.175226 143:0.0020798 144:-0.177955 145:-0.242805 146:-0.294514 147:-0.147554 148:-0.119887 149:-0.465699 150:-0.435484 151:-0.119869 152:-0.17818 153:-0.19949 154:-0.232999 155:-0.128286 156:-0.321839 157:-0.445478 158:-0.414583 159:-0.38631 160:-0.2912 161:-0.404152 162:-0.427304 163:-0.442724 164:-0.413872 165:-0.142566 166:-0.0746904 167:0.0150957 168:0.0704652 169:-0.117907 170:-0.136071 171:-0.209313 172:-0.0521869 173:0.0242437 174:0.00127728 175:0.124792 176:0.00740741 177:0.107016 178:-0.0438962 179:0.161494 180:0.114488 181:0.138009 182:0.0918404 183:0.0914556 184:0.0094246 185:0.0431264 186:0.0255349 
0.3988752976541088 0:0.405405 1:0.534591 2:-0.245283 3:-0.0956522 4:0.314286 5:-0.246914 6:0.0629371 7:-0.618321 8:-0.213389 9:-0.105455 10:0.0821256 11:-0.0909091 12:0.416149 13:1 14:0.224806 15:-0.37037 16:-0.177419 17:-0.632479 18:-0.0638298 19:-0.163265 20:0.0727273 21:0.656051 22:-0.204188 23:-0.282759 24:0.451429 25:0.293413 26:-0.462687 27:0.1875 28:-0.0588235 29:-0.0406504 30:-0.401709 31:0.0629371 32:-0.126984 33:0.219512 34:0.185629 35:-0.0909091 36:0.38843 37:0.102804 38:-0.139785 39:-0.593496 40:-0.790323 41:-0.0704225 42:0.0225564 43:0.262411 44:-0.0340136 45:-0.386935 46:-0.161616 47:-0.648 48:0.0447761 49:-0.328767 50:0.480769 51:0.358491 52:0.0948905 53:-0.252033 54:-0.229358 55:-0.222222 56:-0.251613 57:-0.409836 58:-0.79661 59:-0.472973 60:0.0955882 61:-0.988898 62:-0.74136 63:-0.935557 64:-0.986024 65:-0.770374 66:-0.986112 67:-0.929566 68:-0.977912 69:-0.94098 70:-0.952225 71:-0.867065 72:-0.972716 73:0.20168 74:-0.981021 75:-0.971029 76:-0.944436 77:-0.94627 78:-0.835303 79:-0.713129 80:-0.9917 81:-0.877344 82:-0.975994 83:-0.320155 84:-0.962535 85:-0.980181 86:-0.96214 87:-0.919794 88:-0.859258 89:-0.981151 90:-0.982355 91:-0.924011 92:-0.96476 93:-0.932104 94:-0.6979 95:-0.986845 96:-0.973578 97:-0.965127 98:-0.99533 99:0.245426 100:-0.974739 101:-0.957341 102:-0.901575 103:-0.997194 104:-0.529694 105:-1 106:-0.748144 107:-0.985895 108:-0.614371 109:-0.995171 110:-0.638016 111:-0.963579 112:-0.926415 113:-0.996396 114:-0.91139 115:-0.899947 116:-0.997085 117:0.323142 118:-0.973647 119:-0.898787 120:-0.998705 121:0.655283 122:0.425909 123:-0.121006 124:0.328407 125:-0.359758 126:0.180969 127:0.366241 128:0.429477 129:0.332776 130:0.290034 131:0.21846 132:0.211517 133:0.0920508 134:0.0376936 135:-0.248629 136:-0.237278 137:-0.304415 138:-0.27303 139:0.247926 140:0.456206 141:0.353675 142:0.368105 143:-0.0585426 144:-0.145558 145:-0.215795 146:-0.227989 147:0.244056 148:0.310672 149:-0.163593 150:-0.111195 151:0.388305 152:0.257574 153:0.220906 154:0.288062 155:0.236008 156:-0.03989 157:-0.0641372 158:0.0179468 159:0.211525 160:0.176621 161:0.147531 162:0.147531 163:0.00120012 164:-0.0343299 165:-0.125444 166:-0.358126 167:-0.340419 168:-0.287601 169:-0.344539 170:-0.40258 171:-0.350482 172:-0.231983 173:-0.0882556 174:-0.136725 175:-0.192488 176:0.16545 177:0.364284 178:0.0449101 179:0.129948 180:0.0770037 181:0.0918879 182:0.0900681 183:0.05189 184:-0.133072 185:-0.135468 186:-0.0377558 
0.2582974222332892 0:0.0810811 1:0.345912 2:-0.345912 3:0.0434783 4:0.314286 5:-0.148148 6:0.0629371 7:-0.496183 8:-0.146444 9:-0.221818 10:0.458937 11:0.2 12:0.416149 13:-0.0909091 14:-0.147287 15:-0.0925926 16:-0.306452 17:-0.504274 18:-0.276596 19:0.326531 20:0.0727273 21:0.159236 22:-0.13089 23:-0.337931 24:0.451429 25:0.0179641 26:0.119403 27:0.1875 28:-0.294118 29:0.219512 30:0.128205 31:0.174825 32:-0.126984 33:0.0243902 34:0.281437 35:-0.0909091 36:0.123967 37:0.102804 38:-0.462366 39:-0.219512 40:-0.290323 41:0.0422535 42:0.0225564 43:0.262411 44:0.278912 45:-0.467337 46:0.232323 47:0.088 48:0.38806 49:0.726027 50:0.326923 51:-0.333333 52:0.0948905 53:0.00813008 54:-0.376147 55:-0.555556 56:-0.354839 57:-0.147541 58:0.118644 59:0.351351 60:-0.0294118 61:-0.734436 62:-0.944773 63:-0.889126 64:-0.995711 65:-0.898774 66:-0.865846 67:-0.831715 68:-0.976122 69:-0.951362 70:-0.990229 71:-0.955285 72:-0.976929 73:-0.919705 74:-0.934709 75:-0.968971 76:-0.306274 77:-0.641516 78:-0.976834 79:-0.972953 80:-0.922461 81:-0.87656 82:-0.998283 83:1 84:-0.976416 85:-0.986424 86:-0.989488 87:0.0685077 88:-0.938009 89:-0.982233 90:-0.9805 91:-0.996482 92:1 93:-0.942146 94:-0.842103 95:-0.993631 96:-0.944619 97:-0.987208 98:-0.809303 99:-0.945482 100:-0.989998 101:-0.758469 102:-0.96069 103:-0.985843 104:-0.858699 105:-0.970199 106:-0.901891 107:-0.993018 108:-0.966281 109:-0.901272 110:-0.951487 111:-0.691469 112:-0.966797 113:-0.98639 114:-0.984174 115:-0.835713 116:-0.980233 117:-0.960149 118:-0.873786 119:-0.840045 120:-0.99383 121:-0.320305 122:0.442491 123:-0.346134 124:-0.199488 125:0.0585682 126:0.369724 127:0.46933 128:0.464115 129:0.445717 130:0.393712 131:0.369199 132:0.328206 133:0.234521 134:0.167691 135:-0.27135 136:-0.11355 137:-0.23514 138:-0.20063 139:-0.173516 140:-0.108006 141:-0.208388 142:-0.253447 143:-0.683331 144:-0.817302 145:-0.785202 146:-1 147:-0.640606 148:-0.690077 149:-0.69887 150:-0.569715 151:-0.42833 152:-0.337462 153:-0.419917 154:-0.556661 155:-0.352812 156:-0.481698 157:-0.488825 158:-0.442519 159:-0.197335 160:-0.189943 161:-0.17301 162:-0.124819 163:-0.165257 164:-0.155502 165:-0.247396 166:-0.190417 167:-0.115647 168:0.00912068 169:0.0104048 170:0.0632822 171:-0.032948 172:0.0744906 173:0.254825 174:0.349253 175:0.842902 176:0.821594 177:0.690135 178:0.399609 179:0.59616 180:0.490498 181:0.347582 182:0.427017 183:0.525024 184:0.608496 185:0.675454 186:0.605286 
0.5212029883608679 0:-0.0810811 1:0.534591 2:-0.0943396 3:-0.286957 4:0.314286 5:0.283951 6:-0.300699 7:-0.450382 8:-0.246862 9:-0.163636 10:0.275362 11:0.0545455 12:0.416149 13:-0.0909091 14:-0.0232558 15:-0.518519 16:-0.177419 17:-0.435897 18:0.106383 19:-0.0816327 20:0.0727273 21:-0.0955414 22:-0.162304 23:-0.57931 24:0.28 25:0.437126 27:0.0803571 28:-0.352941 29:0.0894309 30:-0.213675 31:0.174825 33:-0.158537 34:0.185629 35:0.107438 36:0.123967 37:-0.121495 38:-0.139785 39:-0.219512 40:-0.16129 41:-0.0704225 42:0.203008 43:0.262411 44:-0.455782 45:-0.61809 46:0.151515 47:-0.088 48:0.0447761 49:0.0958904 50:0.557692 51:-0.811321 52:-0.080292 53:0.626016 54:-0.229358 55:-0.355556 56:-0.703226 57:-0.234973 58:-0.271186 59:-0.0945946 60:-0.360294 61:-0.534899 62:-0.935605 63:-0.998086 64:-0.942623 65:-0.844256 66:-0.969094 67:-0.894472 68:-0.962066 69:-0.971919 70:-0.873058 71:-0.950448 72:-0.957922 73:-0.944095 74:-0.96647 75:-0.963402 76:-0.936003 77:-0.806577 78:-0.989162 79:-0.944631 80:-0.816155 81:-0.953863 82:-0.989477 83:-0.88846 84:-0.869811 85:-0.980208 86:-0.938011 87:-0.576322 88:-0.977671 89:-0.919696 90:-0.957777 91:-0.974817 92:-0.982673 93:-0.928879 94:-0.894112 95:-0.91689 96:-0.988725 97:-0.981251 98:-0.899592 99:-0.951395 100:-0.925373 101:-0.888746 102:-0.922479 103:-0.960432 104:-0.972352 105:-0.987395 106:-0.981839 107:-0.976053 108:-0.973328 109:-0.902833 110:-0.925388 111:-0.818379 112:-0.93543 113:-0.956476 114:-0.999707 115:1 116:-0.909162 117:-0.852292 118:-0.993823 119:-0.648973 120:-0.997841 121:-0.301168 122:-0.271667 123:-0.85957 124:-0.090118 125:0.115693 126:0.458575 127:0.630798 128:0.689298 129:0.622614 130:0.63212 131:0.738571 132:0.528349 133:0.438235 134:0.442268 135:0.254897 136:0.131481 137:0.0368817 138:0.0836651 139:0.120421 140:0.15858 141:-0.0884187 142:0.0195554 143:-0.181559 144:-0.248621 145:-0.292839 146:-0.293712 147:-0.245604 148:-0.114888 149:-0.579688 150:-0.525958 151:-0.192282 152:-0.204974 153:-0.338665 154:-0.329359 155:-0.176126 156:-0.390325 157:-0.409356 158:-0.247757 159:-0.0789401 160:-0.117831 161:-0.0759987 162:-0.148663 163:-0.257366 164:-0.17851 165:-0.247582 166:-0.166208 167:-0.0650452 168:0.172589 169:0.400733 170:0.0157165 171:-0.229094 172:-0.162835 173:-0.070445 174:-0.118121 175:0.0243166 176:0.262191 177:0.151826 178:-0.11772 179:0.176083 180:0.214163 181:0.17173 182:0.074401 183:0.0937101 184:-0.0127615 185:0.0119089 186:-0.0788898 
0.5988191752692839 0:0.27027 1:0.421384 2:-0.18239 3:-0.0608696 4:0.330612 5:-0.234568 6:0.0769231 7:-0.450382 8:-0.280335 9:-0.316364 10:0.207729 11:-0.0363636 12:0.354037 13:-0.160839 14:-0.131783 16:-0.177419 17:-0.393162 18:0.134752 19:-0.0816327 20:-0.145455 21:-0.414013 22:-0.162304 23:-0.255172 24:0.36 25:0.209581 26:0.208955 27:0.232143 28:-0.279412 29:0.00813008 30:-0.00854701 31:0.398601 32:-0.253968 33:-0.304878 34:0.101796 35:-0.355372 36:0.00826446 37:0.495327 38:0.16129 39:-0.219512 40:0.0322581 41:-0.295775 42:-0.0526316 43:0.29078 44:0.0204082 45:-0.105528 46:0.454545 47:-0.392 48:0.0149254 49:0.0273973 50:-0.461538 51:-0.320755 52:0.0656934 53:0.284553 54:0.0642202 55:0.0333333 56:-0.522581 57:-0.234973 58:0.20339 59:0.243243 60:-0.0588235 61:-0.845821 62:-0.823191 63:-0.961321 64:-0.966827 65:-0.964164 66:-0.959758 67:-0.952979 68:-0.909289 69:-0.98689 70:-0.853639 71:-0.93178 72:-0.959156 73:-0.929872 74:-0.981281 75:-0.911908 76:-0.677646 77:-0.878072 78:-0.94678 79:-0.97303 80:-0.932232 81:-0.523114 82:-0.994206 83:-0.895146 84:-0.960144 85:-0.910513 86:-0.981631 87:-0.826272 88:-0.880692 89:-0.987822 90:-0.984541 91:-0.517099 92:-0.970051 93:-0.97485 94:-0.841759 95:-0.979557 96:-0.897375 97:-0.972946 98:-0.977747 99:-0.947831 100:-0.964631 101:-0.878679 102:-0.966602 103:-0.988807 104:-0.95158 105:-0.988681 106:0.231499 107:-0.979143 108:-0.970133 109:-0.982657 110:-0.986818 111:-0.677889 112:-0.990224 113:-0.902279 114:-0.961081 115:-0.802772 116:-0.982847 117:-0.955794 118:-0.750395 119:-0.847736 120:-0.997062 121:-0.176224 122:-0.0177531 123:-0.118198 124:0.320417 125:0.0103198 126:0.441651 127:0.585519 128:0.628511 129:0.641126 130:0.65397 131:0.632283 132:0.592954 133:0.480193 134:0.414248 135:0.0808305 136:0.094088 137:-0.0250111 138:-0.00953615 139:0.00931717 140:0.0777254 141:0.0202784 142:0.0397052 143:-0.191111 144:-0.167242 145:-0.211615 146:-0.37771 147:-0.493089 148:-0.490877 149:-0.615953 150:-0.521898 151:-0.281505 152:-0.176897 153:-0.246998 154:-0.367957 155:-0.305893 156:-0.439089 157:-0.319699 158:-0.293865 159:-0.200605 160:-0.270061 161:-0.403523 162:-0.447122 163:-0.334053 164:-0.214084 165:-0.21235 166:-0.130614 167:-0.208699 168:-0.177871 169:-0.135431 170:-0.169745 171:-0.0739242 172:0.173832 173:0.20538 174:0.157161 175:0.321652 176:0.158749 177:0.127475 178:-0.061695 179:0.151218 180:0.13452 181:0.224674 182:0.176414 183:0.201849 184:0.221185 185:0.309747 186:0.307081 
2.316396028103266 0:-0.0810811 1:0.18239 2:-0.220126 3:0.147826 4:0.559184 5:-0.209877 6:0.174825 7:-0.40458 8:-0.0460251 9:-0.2 10:0.0241546 11:-0.363636 12:0.304348 13:-0.258741 14:0.00775194 15:-0.0925926 16:-0.209677 17:-0.57265 18:0.134752 19:0.204082 20:-0.0181818 21:-0.184713 22:-0.486911 23:-0.558621 24:-0.04 25:0.149701 26:0.238806 27:0.392857 28:-0.102941 29:0.398374 30:-0.162393 31:-0.216783 32:0.031746 33:-0.0731707 34:0.0419162 35:-0.438017 36:-0.768595 37:-0.476636 38:-0.397849 39:-0.528455 40:0.145161 41:1 42:-0.157895 43:0.333333 44:-0.0204082 45:-0.386935 46:0.242424 47:-0.024 48:0.492537 49:0.452055 50:-0.0769231 51:-0.169811 52:-0.138686 53:0.0569106 54:-0.449541 55:-0.322222 56:-0.16129 57:-0.234973 58:-0.355932 59:-0.378378 60:-0.426471 61:-0.852161 62:-0.939576 63:-0.951339 64:-0.992901 65:-0.695887 66:-0.988043 67:-0.90139 68:-0.966082 69:-0.990656 70:-0.670027 71:-0.842167 72:-0.980867 73:-0.940901 74:-0.920535 75:-0.976975 76:-0.881836 77:-0.577169 78:-0.957361 79:-0.971178 80:-0.895602 81:-0.859227 82:-0.986519 83:-0.862426 84:-0.772332 85:-0.984634 86:-0.954253 87:-0.949172 88:-0.935906 89:-0.98261 90:-0.93579 91:-0.845244 92:-0.989021 93:-0.844944 94:-0.918817 95:-0.972311 96:-0.897428 97:-0.968641 98:-0.961381 99:-0.935064 100:-0.940227 101:-0.980489 102:-0.933488 103:-0.992239 104:-0.690557 105:-0.994442 106:-0.870456 107:-0.991747 108:-0.977305 109:-0.952888 110:-0.920144 111:-0.921766 112:-0.942573 113:-0.984499 114:-0.98188 115:-0.782032 116:-0.971464 117:-0.940705 118:-0.95278 119:-0.911309 120:-0.998619 121:0.363469 122:0.296283 123:0.0135718 124:-0.517371 125:0.506567 126:0.59414 127:0.68152 128:0.713139 129:0.739487 130:0.887699 131:0.915675 132:0.90476 133:0.801382 134:0.866667 135:0.75999 136:0.609355 137:0.410069 138:0.401475 139:0.37441 140:0.497993 141:0.395302 142:0.393485 143:0.0878139 144:0.0374625 145:0.11174 146:0.0803511 147:0.0456707 148:-0.173123 149:-0.580221 150:-0.632941 151:-0.443909 152:-0.297888 153:-0.277872 154:-0.2685 155:0.00779785 156:-0.154212 157:-0.325572 158:-0.235228 159:-0.0508067 160:-0.0893114 161:-0.252406 162:-0.590941 163:-0.792319 164:-0.846714 165:-0.986587 166:-0.883961 167:-0.400476 168:-0.418319 169:-0.441847 170:-0.40162 171:-0.529416 172:-0.395191 173:-0.169812 174:-0.027045 175:0.259996 176:0.22853 177:0.220948 178:-0.0297773 179:0.0982747 180:-0.0475001 181:-0.0594109 182:-0.0332837 183:-0.0204404 184:-0.17086 185:-0.19482 186:-0.325793 
0.7455992067678487 0:0.0810811 1:-0.0440252 2:-0.245283 3:-0.408696 4:0.126531 5:-0.148148 6:0.370629 7:-0.267176 8:-0.146444 9:-0.2 10:0.111111 11:-0.109091 12:0.416149 13:-0.020979 14:-0.0232558 15:-0.351852 16:-0.258065 17:-0.435897 18:-0.319149 19:-0.857143 20:0.236364 21:0.286624 22:-0.0471204 23:-0.434483 24:0.28 25:0.353293 26:0.0746269 27:0.1875 28:-0.0441176 29:-0.138211 30:-0.316239 31:-0.0769231 32:-0.0793651 33:0.0609756 34:0.245509 35:0.206612 36:0.652893 37:-0.0654206 38:-0.44086 39:-0.512195 40:-0.241935 41:0.056338 42:0.293233 43:0.460993 44:-0.142857 45:-0.477387 46:0.292929 47:-0.568 48:-0.0298507 49:0.219178 50:-0.0192308 51:-0.232704 52:-0.167883 53:0.105691 54:0.0275229 55:0.344444 56:-0.0193548 57:-0.136612 58:0.0338983 59:-0.135135 60:-0.294118 61:-0.925228 62:-0.924988 63:-0.943669 64:-0.9681 65:-0.863151 66:-0.988921 67:-0.973877 68:-0.94343 69:-0.970307 70:-0.871685 71:-0.919874 72:-0.991911 73:-0.968908 74:-0.492764 75:-0.963307 76:-0.876409 77:-0.749925 78:-0.962951 79:-0.956816 80:-0.92592 81:-0.916725 82:-0.987373 83:-0.870705 84:-0.827636 85:-0.989877 86:-0.961459 87:-0.741782 88:-0.877045 89:-0.971246 90:-0.984243 91:-0.922187 92:-0.864481 93:-0.973727 94:-0.919198 95:-0.974285 96:-0.97837 97:-0.964901 98:-0.974321 99:-0.868643 100:-0.969898 101:-0.927517 102:-0.825682 103:-0.992269 104:-0.934092 105:-0.992043 106:-0.751112 107:-0.978577 108:-0.984137 109:-0.98489 110:-0.940555 111:-0.46089 112:-0.979604 113:-0.971198 114:-0.958638 115:-0.9223 116:-0.965134 117:-0.909081 118:-0.969562 119:-0.953032 120:-0.984943 121:-0.453978 122:0.200612 123:-0.00585173 124:-0.305923 125:0.134259 126:0.705614 127:0.763705 128:0.790476 129:0.693354 130:0.609652 131:0.612542 132:0.662716 133:0.593142 134:0.623302 135:0.4731 136:0.389401 137:0.221615 138:0.333148 139:0.436631 140:0.48712 141:0.29813 142:0.288516 143:0.0427515 144:-0.237521 145:-0.530596 146:-0.609506 147:-0.349773 148:-0.234858 149:-0.531527 150:-0.519431 151:-0.195869 152:-0.128886 153:-0.195292 154:-0.167594 155:-0.134801 156:-0.502077 157:-0.601507 158:-0.62481 159:-0.378351 160:-0.36425 161:-0.252847 162:-0.0516515 163:-0.177678 164:-0.251298 165:-0.363167 166:-0.384086 167:-0.30788 168:-0.123781 169:0.00534985 170:-0.0781985 171:-0.23359 172:-0.138792 173:-0.122707 174:-0.147387 175:0.0199125 176:0.0404397 177:0.0532179 178:-0.206113 179:-0.156419 180:-0.195945 181:0.0460505 182:0.0881185 183:0.142594 184:0.128292 185:0.123136 186:0.0389481 
0.2996628085740173 0:-0.0135135 1:0.295597 2:-0.106918 3:-0.165217 4:0.22449 5:-0.283951 6:0.020979 7:-0.328244 8:-0.0543933 9:-0.0836364 10:0.294686 11:0.0545455 12:0.416149 13:-0.146853 14:-0.0232558 15:-0.166667 16:-0.112903 17:-0.282051 18:-0.0070922 19:0.0816327 20:-0.254545 21:0.286624 22:-0.361257 23:-0.496552 24:0.325714 25:0.341317 26:0.0597015 27:0.25 28:-0.235294 29:0.0243902 30:-0.00854701 31:0.230769 33:-0.158537 34:0.137725 35:-0.157025 36:0.123967 37:0.102804 38:-0.290323 39:-0.219512 40:-0.225806 41:-0.126761 42:-0.037594 43:0.163121 44:-0.238095 45:-0.457286 46:-0.171717 47:-0.168 48:-0.119403 49:0.287671 50:0.365385 51:-0.283019 52:0.0364964 53:0.186992 54:-0.229358 55:-0.1 56:-0.16129 57:-0.15847 58:0.20339 59:0.0810811 60:-0.205882 61:-0.962934 62:-0.961949 63:-0.954446 64:-0.95266 65:-0.958093 66:-0.749891 67:-0.965783 68:-0.980161 69:-0.987332 70:-0.822932 71:-0.928938 72:-0.931755 73:-0.811203 74:-0.985814 75:-0.978591 76:-0.946235 77:-0.417839 78:-0.963167 79:-0.98775 80:-0.883254 81:-0.723723 82:-0.996088 83:-0.900564 84:-0.880019 85:-0.983813 86:-0.926789 87:-0.0624623 88:-1 89:-0.74723 90:-0.988943 91:-0.971896 92:-0.775963 93:-0.94366 94:-0.905557 95:-0.977921 96:-0.994601 97:-0.96283 98:0.0907985 99:-0.990806 100:-0.961732 101:-0.914117 102:-0.913503 103:-0.976763 104:-0.758171 105:-0.992869 106:-0.892433 107:-0.986614 108:-0.926544 109:-0.976408 110:-0.85477 111:-0.984437 112:-0.953927 113:-0.97925 114:-0.868698 115:-0.884992 116:-0.994144 117:-0.842065 118:-0.896224 119:-0.918074 120:-0.998107 121:-0.55765 122:-0.011773 123:0.394628 124:-0.268454 125:0.627128 126:0.401241 127:0.512636 128:0.564801 129:0.527858 130:0.492981 131:0.450299 132:0.396105 133:0.317662 134:0.35187 135:0.200248 136:0.241936 137:0.0974162 138:0.190507 139:0.163306 140:0.274078 141:0.0832546 142:0.154838 143:0.0407487 144:-0.0395276 145:-0.0328949 146:-0.203943 147:0.0523794 148:-0.0294926 149:-0.482922 150:-0.429829 151:-0.103572 152:-0.0625678 153:-0.123871 154:-0.162523 155:-0.00944296 156:-0.148773 157:-0.21762 158:-0.124725 159:0.0555573 160:0.0185127 161:-0.0337213 162:-0.0115131 163:-0.0571857 164:-0.0890272 165:-0.106901 166:-0.118228 167:-0.113364 168:-0.0423636 169:-0.0809217 170:-0.247527 171:-0.390109 172:-0.538022 173:-0.278856 174:-0.394624 175:-0.200101 176:-0.0370894 177:-0.018471 178:-0.198603 179:-0.0276556 180:-0.073215 181:0.0472942 182:0.110733 183:0.158751 184:0.224567 185:0.265503 186:0.170961 
0.3275020438125892 0:-0.283784 1:0.245283 2:-0.245283 3:-0.0956522 4:0.2 5:-0.320988 6:0.370629 7:-0.267176 8:-0.146444 9:-0.0618182 10:0.294686 11:0.8 12:0.416149 13:-0.286713 14:-0.0232558 15:-0.351852 16:-0.612903 17:-0.555556 18:-0.0638298 19:-0.122449 20:-0.181818 21:0.0573248 22:-0.434555 23:-0.496552 24:0.28 25:0.293413 27:0.0625 28:-0.176471 29:0.0894309 30:-0.247863 31:0.370629 32:0.222222 33:-0.329268 34:0.353293 35:-0.0909091 36:0.123967 37:0.364486 38:-0.139785 39:-0.219512 40:-0.387097 41:-0.267606 42:-0.804511 43:0.659574 44:-0.333333 45:-0.246231 46:0.151515 47:0.168 48:0.253731 49:-0.0958904 50:-0.115385 51:-0.0566038 52:0.693431 53:0.691057 54:0.0275229 55:-0.222222 56:0.0967742 57:-0.387978 58:-0.271186 59:0.108108 60:0.338235 61:-0.767805 62:-0.988517 63:-0.974978 64:-0.937239 65:-0.680413 66:-0.993769 67:-0.875115 68:-0.944812 69:-0.998128 70:1 71:-0.857019 72:-0.971148 73:-0.986324 74:-0.952438 75:-0.942907 76:-0.881482 77:-0.778218 78:-0.991094 79:-0.952834 80:-0.6107 81:-0.962483 82:-0.968893 83:-0.973441 84:-0.837071 85:-0.985119 86:-0.949109 87:-0.919221 88:-0.631974 89:-0.96502 90:-0.983768 91:-0.882515 92:-0.945969 93:-0.916599 94:-0.962553 95:-0.992269 96:-0.981967 97:-0.725959 98:-0.989033 99:-0.785369 100:-0.976951 101:-0.804218 102:-0.863944 103:-0.995409 104:-0.964996 105:-0.966474 106:-0.755222 107:-0.996466 108:-0.960623 109:-0.97274 110:-0.911402 111:-0.924801 112:-0.804135 113:-0.963969 114:-0.979377 115:-0.942468 116:-0.943711 117:-0.991876 118:-0.89592 119:-0.722117 120:-0.985979 121:-0.338155 122:0.103625 123:-0.488302 124:-0.299575 125:0.229802 126:0.446026 127:0.589527 128:0.611314 129:0.577399 130:0.525852 131:0.518107 132:0.568733 133:0.523334 134:0.54172 135:0.480478 136:0.513001 137:0.551572 138:0.621578 139:0.501978 140:0.609571 141:0.420304 142:0.268367 143:0.051841 144:0.0352038 145:-0.0236342 146:-0.160502 147:-0.0378562 148:-0.18662 149:-0.566638 150:-0.462884 151:-0.0961923 152:-0.0554624 153:-0.116219 154:-0.219891 155:-0.15678 156:-0.548989 157:-0.547349 158:-0.462837 159:-0.314064 160:-0.270624 161:-0.302359 162:-0.302359 163:-0.252505 164:-0.326817 165:-0.327132 166:-0.404604 167:-0.388869 168:-0.725323 169:-0.637643 170:-0.712877 171:-0.723764 172:-0.72633 173:-0.407199 174:-0.393902 175:-0.288119 176:-0.239785 177:-0.0928932 178:-0.098682 179:0.273342 180:0.323956 181:0.260989 182:0.334822 183:0.318366 184:0.256854 185:0.250511 186:0.359773 
0.6420413056598004 0:0.175676 1:0.333333 2:-0.295597 3:-0.286957 4:0.167347 5:-0.419753 6:0.020979 7:-0.435115 8:-0.146444 9:-0.0327273 10:0.2657 11:0.327273 12:0.416149 13:-0.748252 14:-0.131783 15:0.925926 16:-0.709677 17:-0.470085 18:-0.219858 19:0.244898 20:0.2 21:0.146497 22:-0.246073 23:-0.524138 24:0.28 25:0.245509 26:0.597015 27:0.285714 28:-0.176471 29:0.382114 30:0.367521 31:-0.034965 32:-0.238095 33:-0.158537 34:0.00598802 35:-0.0909091 36:0.371901 37:-0.102804 38:0.0107527 39:-0.0406504 40:-0.16129 41:0.084507 42:0.24812 43:0.205674 44:-0.142857 45:-0.236181 46:0.151515 47:-0.28 48:-0.0149254 49:0.0958904 50:-0.326923 51:-0.18239 52:0.357664 53:-0.0406504 54:-0.155963 55:-0.222222 56:-0.2 57:-0.191257 58:-0.0847458 59:-0.162162 60:-0.360294 61:-0.907688 62:-0.953985 63:-0.659262 64:-0.955867 65:-0.913456 66:-0.985351 67:-0.862907 68:-0.965936 69:-0.989352 70:-0.931933 71:-0.96894 72:-0.911358 73:-0.281798 74:-0.983609 75:-0.932434 76:-0.992188 77:-0.719298 78:-0.949478 79:-0.973901 80:-0.908214 81:-0.958257 82:-0.977624 83:-0.933111 84:-0.944225 85:0.180752 86:-0.992638 87:-0.782581 88:-0.955482 89:-0.943691 90:-0.994243 91:-0.8791 92:-0.963713 93:-0.873193 94:-0.932126 95:-0.985641 96:-0.981477 97:-0.870301 98:-0.971062 99:-0.96996 100:-0.966295 101:-0.960365 102:-0.903018 103:-0.97825 104:-0.969989 105:-0.866718 106:-0.985294 107:-0.981979 108:-0.947022 109:-0.988527 110:-0.748565 111:-0.935105 112:-0.970893 113:-0.986283 114:-0.982727 115:-0.630074 116:-0.980477 117:-0.573029 118:-0.993039 119:-0.939205 120:-0.994737 121:-0.0965281 122:-0.21054 123:-0.472157 124:-0.167526 125:0.538063 126:0.549729 127:0.678231 128:0.668841 129:0.590767 130:0.509764 131:0.468122 132:0.412267 133:0.36121 134:0.352252 135:0.27468 136:0.22458 137:0.20939 138:0.286486 139:0.050351 140:0.162184 141:0.451918 142:0.265335 143:-0.00831921 144:-0.197832 145:-0.144345 146:-0.142788 147:0.032327 148:0.189286 149:-0.463657 150:-0.426755 151:-0.136217 152:-0.0939998 153:-0.0994792 154:-0.566277 155:-0.268582 156:-0.252338 157:-0.365333 158:-0.368249 159:-0.210661 160:-0.297079 161:-0.282982 162:-0.191066 163:-0.294209 164:-0.263803 165:-0.24035 166:-0.254097 167:-0.16051 168:-0.0160932 169:0.0418299 170:-0.108991 171:-0.135389 172:-0.0721918 173:0.0653942 174:-0.0573666 175:0.0701186 176:0.00091611 177:-0.00451421 178:-0.104089 179:0.0164496 180:-0.0164245 181:0.0484668 182:0.0872678 183:0.121064 184:0.0694895 185:0.0939993 186:-0.0465987 
0.5196039831492619 0:0.0810811 1:0.308176 2:-0.18239 3:-0.0956522 4:0.314286 5:-0.0864198 6:0.104895 7:-0.19084 8:-0.280335 9:-0.00363636 10:0.0531401 11:0.145455 12:0.354037 13:-0.020979 14:-0.0232558 15:-0.796296 16:-0.612903 17:-0.435897 18:-0.0638298 19:0.489796 20:0.272727 21:-0.00636943 22:-0.403141 23:-0.531034 24:0.337143 25:0.293413 26:0.0746269 27:0.285714 28:-0.25 29:0.0894309 30:-0.0940171 31:0.244755 32:-0.174603 33:0.0365854 34:0.449102 35:-0.0909091 36:0.206612 37:0.308411 38:-0.139785 39:-0.300813 40:-0.33871 41:-0.225352 42:-0.0526316 43:0.489362 44:0.0748299 45:-0.336683 46:0.484848 47:0.152 48:0.208955 49:0.767123 50:-0.538462 51:-0.0943396 52:0.0948905 53:0.252033 54:-0.522936 55:-0.0444444 56:-0.6 57:0.00546448 58:-0.355932 59:-0.256757 60:-0.0441176 61:-0.417936 62:-0.88984 63:-0.699667 64:-0.99996 65:0.469507 66:-0.993073 67:-0.177958 68:-0.996077 69:-0.983079 70:-0.896216 71:-0.963413 72:-0.85826 73:-0.995432 74:-0.57389 75:-0.976233 76:-0.869318 77:-0.926735 78:-0.96944 79:-0.839033 80:-0.849906 81:-0.791071 82:-0.992909 83:-0.776967 84:-0.939174 85:-0.993774 86:-0.917917 87:-0.838308 88:-0.943198 89:-0.990199 90:-0.894681 91:-0.913512 92:-0.938556 93:-0.839424 94:-0.998855 95:-0.852941 96:-0.996477 97:-0.844163 98:-0.948401 99:-0.929335 100:-0.982022 101:-0.963464 102:-0.693493 103:-0.991083 104:-0.839487 105:-0.988116 106:-0.701453 107:-0.990088 108:-0.928015 109:-0.966583 110:-0.994215 111:-0.449617 112:-0.904295 113:-0.999654 114:-0.65031 115:-0.926007 116:-0.997765 117:-0.826362 118:-0.986363 119:-0.808977 120:-0.979948 121:-0.48595 122:0.0298203 123:-0.0666957 124:-0.155606 125:0.330742 126:0.234763 127:0.377965 128:0.410435 129:0.34562 130:0.220968 131:0.293154 132:0.262214 133:0.257069 134:0.256517 135:0.142531 136:0.0259388 137:-0.0929278 138:-0.119217 139:-0.0545629 140:0.0238012 141:-0.145664 142:-0.038457 143:-0.345786 144:-0.245652 145:-0.110518 146:-0.159139 147:-0.277378 148:-0.479463 149:-0.795148 150:-0.710171 151:-0.416543 152:-0.390753 153:-0.361569 154:-0.362226 155:-0.280558 156:-0.448651 157:-0.431757 158:-0.429539 159:-0.176852 160:-0.285196 161:-0.351305 162:-0.317018 163:-0.283228 164:-0.142692 165:-0.139661 166:-0.197423 167:-0.172899 168:-0.106666 169:-0.0821854 170:-0.0986844 171:-0.160437 172:0.106486 173:0.304748 174:0.304048 175:0.810815 176:0.589111 177:0.551313 178:0.331268 179:0.653036 180:0.509764 181:0.473404 182:0.401744 183:0.522545 184:0.379104 185:0.30227 186:0.276644 
0.463564714574461 0:0.418919 1:0.144654 2:-0.345912 3:-0.234783 4:0.379592 5:0.0617284 6:0.286713 7:-0.267176 8:-0.146444 9:-0.221818 10:0.0821256 11:0.0545455 12:0.416149 13:-0.328671 14:0.100775 15:-0.555556 16:-0.177419 17:-0.290598 18:-0.177305 20:-0.0727273 21:0.0573248 22:-0.287958 23:-0.496552 24:-0.291429 25:0.389222 27:0.1875 28:-0.176471 29:0.902439 30:-0.00854701 31:0.286713 32:-0.126984 33:-0.158537 34:0.185629 35:-0.0909091 36:-0.00826446 37:0.102804 38:-0.311828 39:-0.349593 40:-0.290323 41:-0.0704225 42:0.0225564 43:0.262411 44:-0.0340136 45:-0.467337 46:0.151515 47:-0.408 48:0.0447761 49:-0.0136986 50:-0.442308 51:-0.132075 52:-0.0218978 53:0.382114 54:0.0825688 55:0.9 56:-0.354839 57:-0.234973 58:-0.271186 59:0.189189 60:-0.544118 61:-0.951227 62:-0.80867 63:-0.855624 64:-0.997204 65:-0.514537 66:-0.999204 67:-0.082647 68:-0.999355 69:-0.976873 70:-0.84498 71:-0.864 72:-0.993269 73:-0.950447 74:-0.967412 75:-0.403771 76:-0.982539 77:-0.711649 78:-0.902034 79:-0.983857 80:-0.949243 81:-0.874778 82:-0.903021 83:-0.965986 84:-0.922616 85:-0.972259 86:-0.983371 87:-0.953749 88:-0.986384 89:1 90:-0.985629 91:-0.885601 92:-0.950924 93:-0.951315 94:-0.682002 95:-0.999754 96:-0.0959092 97:-1 98:-0.0593449 99:-0.957892 100:-0.983175 101:-0.578615 102:-0.962202 103:-0.994338 104:-0.881124 105:-0.999173 106:-0.0216029 107:-0.981003 108:1 109:-0.997516 110:-0.98013 111:-0.780651 112:-0.985864 113:-0.981929 114:-0.859106 115:-0.146256 116:-0.996211 117:-0.996603 118:-0.746296 119:-0.563993 120:-0.989511 121:-0.391487 122:0.368344 123:-0.2575 124:-0.327075 125:0.234291 126:0.59909 127:0.608368 128:0.630695 129:0.543651 130:0.57102 131:0.605177 132:0.596031 133:0.582866 134:0.611294 135:0.432293 136:0.272692 137:0.167577 138:0.322717 139:0.261646 140:0.423966 141:0.164746 142:0.140454 143:0.0778771 144:-0.0312671 145:-0.0552751 146:-0.156815 147:0.0267242 148:0.00033325 149:-0.467031 150:-0.555636 151:-0.249013 152:-0.243561 153:-0.274684 154:-0.0528569 155:0.15474 156:-0.0207667 157:-0.0448025 158:0.0360065 159:0.0776444 160:0.144724 161:0.0632274 162:0.0632274 163:0.0141014 164:-0.0244347 165:-0.0192539 166:-0.0593644 167:-0.028985 168:-0.00968412 169:-0.0120898 170:-0.0436926 171:-0.193577 172:-0.128479 173:-0.0410442 174:-0.317876 175:-0.254207 176:-0.428818 177:-0.264723 178:-0.439788 179:-0.214141 180:-0.150602 181:-0.0792737 182:-0.0825181 183:-0.0726309 184:-0.324675 185:-0.171272 186:-0.274558 
0.05773004105369385 0:0.351351 1:0.647799 2:0.119497 3:0.356522 4:0.15102 5:0.45679 6:0.342657 7:-0.923664 8:-0.364017 9:-0.607273 10:0.613527 11:1 12:0.304348 13:-0.048951 14:0.162791 15:-0.0925926 16:-0.225806 17:-0.461538 18:-0.347518 19:-0.489796 20:-0.2 21:0.0191083 22:-0.287958 23:-0.62069 24:0.28 25:0.185629 26:0.134328 27:0.214286 28:-0.220588 29:-0.0569106 30:-0.00854701 31:0.048951 32:-0.333333 33:-0.158537 34:0.113772 35:0.107438 36:0.371901 37:0.383178 38:-0.397849 39:0.495935 40:-0.306452 41:0.0985915 42:0.819549 43:0.588652 44:-0.891156 45:-0.356784 46:0.686869 47:1 48:0.880597 49:0.780822 50:0.673077 51:0.169811 52:0.0948905 53:0.723577 54:-0.229358 55:-0.222222 56:-0.174194 57:0.0491803 58:-0.118644 59:0.0135135 60:0.110294 61:-0.911429 62:-0.924361 63:-0.928923 64:-0.954326 65:-0.846404 66:-0.994872 67:-0.945178 68:-0.978026 69:-0.981298 70:-0.878175 71:-0.821178 72:-0.977646 73:-0.996656 74:-0.880423 75:-0.964445 76:-0.00650587 77:-0.990372 78:-0.862987 79:-0.990535 80:-0.917357 81:-0.659955 82:-0.991898 83:-0.626885 84:-0.951988 85:-0.957071 86:-0.970928 87:-0.723939 88:-0.984163 89:-0.988713 90:-0.963482 91:-0.696276 92:-0.887268 93:-0.922819 94:-0.927179 95:-0.987806 96:-0.98428 97:-0.908486 98:-0.876077 99:-0.952351 100:-0.976373 101:-0.975931 102:-0.70574 103:-0.952128 104:-0.967982 105:-0.983771 106:-0.939989 107:-0.984391 108:-0.955912 109:-0.992296 110:-0.936334 111:-0.358764 112:-0.973986 113:-0.979327 114:-0.9943 115:-0.90415 116:-0.910687 117:-0.95203 118:-0.961347 119:-0.724224 120:-0.964306 121:0.300549 122:0.251705 123:0.144601 124:-0.201427 125:0.214263 126:0.418251 127:0.642103 128:0.77328 129:0.836045 130:0.759735 131:0.832614 132:0.860173 133:0.618871 134:0.528044 135:-0.0282058 136:0.264142 137:0.522043 138:0.518625 139:0.383663 140:0.584727 141:0.481705 142:0.488944 143:0.315129 144:0.0543706 145:-0.21721 146:-0.432613 147:-0.309669 148:-0.379822 149:-0.734425 150:-0.658254 151:-0.400195 152:-0.304895 153:-0.369327 154:-0.462737 155:-0.270951 156:-0.442257 157:-0.500104 158:-0.526948 159:-0.38415 160:-0.463819 161:-0.459893 162:-0.276062 163:0.181398 164:0.195204 165:0.186328 166:-0.183223 167:-0.120016 168:0.34148 169:0.432579 170:-0.261035 171:-0.602248 172:-0.541936 173:-0.441491 174:-0.47326 175:-0.396395 176:-0.314592 177:-0.0755819 178:-0.346851 179:-0.0561147 180:-0.100341 181:0.0185837 182:0.0652559 183:0.182799 184:0.14687 185:0.193895 186:0.329569 
0.7835695400368653 0:0.351351 1:0.119497 2:-0.245283 3:-0.269565 4:0.395918 5:-0.271605 6:-0.230769 7:-0.709924 8:-0.0627615 9:-0.309091 10:0.15942 11:0.236364 12:0.167702 13:-0.370629 14:-0.0232558 15:-0.0925926 16:-0.016129 17:-0.606838 18:-0.205674 19:-0.244898 20:0.0727273 21:0.184713 22:-0.39267 23:-0.496552 24:0.508571 25:0.173653 26:-0.298507 27:0.00892857 28:-0.176471 29:0.0894309 30:0.65812 31:0.174825 32:-0.777778 33:0.0853659 34:0.185629 35:-0.421488 36:0.123967 37:0.28972 38:-0.139785 39:-0.219512 40:0.16129 41:-0.0704225 42:0.172932 43:0.262411 44:-0.142857 45:-0.286432 46:0.252525 47:-0.12 48:-0.104478 49:-0.0410959 50:-0.673077 51:0.0188679 52:0.386861 53:0.252033 54:-0.59633 55:-0.544444 56:-0.380645 57:-0.234973 58:-0.101695 59:0.135135 60:-0.360294 61:-0.947807 62:-0.960342 63:-0.953071 64:-0.956576 65:-0.769473 66:-0.987224 67:-0.942448 68:-0.967391 69:-0.972115 70:-0.921641 71:-0.948821 72:-0.86825 73:-0.973861 74:-0.964313 75:-0.947653 76:-0.943646 77:-0.354968 78:-0.912911 79:-0.939678 80:-0.951762 81:-0.963112 82:-0.973926 83:-0.914185 84:-0.892843 85:-0.990518 86:-0.92637 87:-0.459182 88:-0.990383 89:-0.976217 90:-0.871691 91:-0.97613 92:-0.686397 93:-0.983905 94:-0.87791 95:-0.992453 96:-0.908622 97:-0.914526 98:-0.965483 99:-0.972637 100:-0.862548 101:-0.996875 102:-0.531456 103:-0.997633 104:-0.771069 105:-0.992396 106:-0.925453 107:-0.987882 108:-0.944424 109:-0.942288 110:-0.949952 111:-0.839923 112:-0.980374 113:-0.953845 114:-0.983019 115:-0.726094 116:-0.971323 117:-0.975907 118:-0.88942 119:-0.775596 120:-0.99863 121:-0.35306 122:0.0250812 123:-0.0852731 124:0.584112 125:0.375482 126:0.613453 127:0.693214 128:0.717968 129:0.658819 130:0.712827 131:0.72881 132:0.591351 133:0.424494 134:0.473005 135:0.232894 136:0.183741 137:0.143245 138:0.0130543 139:0.0474154 140:0.0971963 141:-0.0039675 142:0.14729 143:-0.331998 144:-0.501339 145:-0.53349 146:-0.68629 147:-0.449077 148:-0.537366 149:-0.709923 150:-0.562808 151:-0.25091 152:-0.252887 153:-0.433149 154:-0.457994 155:-0.304643 156:-0.14459 157:-0.144595 158:-0.302557 159:0.103433 160:-0.0557258 161:-0.209751 162:-0.209751 163:-0.128413 164:-0.0586735 165:-0.054115 166:0.0187039 167:0.0523948 168:0.205832 169:0.162981 170:-0.079799 171:-0.0503532 172:0.0100646 173:0.129725 174:0.0364303 175:0.137626 176:-0.0397068 177:0.0900356 178:-0.050092 179:0.154516 180:0.100421 181:0.0427815 182:0.0338508 183:0.0507252 184:-0.0200667 185:0.0746136 186:-0.0632576 
0.4483090173651398 0:0.0810811 1:0.333333 2:-0.333333 3:-0.547826 4:0.257143 5:-0.234568 6:0.314685 7:-0.0687023 8:-0.0376569 9:0.243636 10:0.449275 11:-0.181818 12:0.00621118 13:-0.188811 14:-0.178295 15:-0.148148 16:-0.387097 17:-0.521368 18:0.177305 19:0.0204082 20:-0.109091 21:-0.10828 22:-0.602094 23:-0.586207 24:0.2 25:0.449102 26:0.597015 27:0.339286 28:-0.0294118 29:-0.0731707 30:-0.521368 31:-0.104895 32:0.15873 33:-0.195122 34:0.461078 35:-0.421488 36:0.123967 37:0.233645 38:0.0752688 39:0.382114 40:0.16129 41:0.253521 42:0.12782 43:-0.489362 44:-0.55102 45:-0.457286 46:0.121212 47:-0.392 48:-0.850746 49:0.0547945 50:-0.173077 51:0.396226 52:0.430657 53:0.252033 54:-0.46789 55:-0.477778 56:-0.63871 57:-0.420765 58:-0.440678 59:-0.662162 60:-0.264706 61:-0.890592 62:-0.903576 63:-0.953744 64:-0.97802 65:-0.87339 66:-0.984162 67:-0.944381 68:-0.950062 69:-0.967282 70:-0.794547 71:-0.894524 72:-0.993192 73:-0.937459 74:-0.968959 75:-0.948939 76:-0.944563 77:-0.638665 78:-0.975307 79:-0.872079 80:-0.90508 81:-0.929436 82:-0.979197 83:-0.814813 84:-0.875804 85:-0.971458 86:-0.981195 87:-0.786639 88:-0.942711 89:-0.962409 90:-0.987674 91:-0.723943 92:-0.919357 93:-0.95441 94:-0.927657 95:-0.985189 96:-0.966595 97:-0.959177 98:-0.979646 99:-0.891441 100:-0.966399 101:-0.923016 102:-0.899784 103:-0.988456 104:-0.980146 105:-0.987337 106:-0.65662 107:-0.985344 108:-0.863646 109:-0.984013 110:-0.954317 111:-0.943447 112:-0.939009 113:-0.962714 114:-0.975627 115:-0.960626 116:-0.935702 117:-0.85354 118:-0.936478 119:-0.951655 120:-0.994256 121:-0.0865487 122:-0.219569 123:-0.365874 124:0.0751587 125:0.0886112 126:0.488307 127:0.602446 128:0.614422 129:0.493881 130:0.480181 131:0.437748 132:0.472626 133:0.527452 134:0.609674 135:0.873466 136:1 137:0.782076 138:0.658056 139:0.671985 140:0.694219 141:0.528245 142:0.434439 143:0.267062 144:0.191314 145:0.0708383 146:-0.012784 147:-0.0484721 148:-0.333 149:-0.703442 150:-0.656926 151:-0.360426 152:-0.113737 153:-0.0909767 154:0.0105714 155:-0.0544533 156:-0.388891 157:-0.528638 158:-0.442519 159:-0.312274 160:-0.230033 161:-0.365775 162:-0.3866 163:-0.39508 164:-0.327667 165:-0.102822 166:0.0116352 167:0.347397 168:0.525232 169:0.153461 170:-0.0878013 171:-0.163263 172:-0.119719 173:-0.0687969 174:-0.447437 175:-0.369656 176:-0.324957 177:0.016276 178:-0.0294769 179:0.177732 180:0.0691441 181:0.0025939 182:-0.135793 183:-0.191365 184:-0.399666 185:-0.503758 186:-0.516394 
2.085430539155629 0:0.0810811 1:0.245283 2:-0.0943396 3:0.113043 4:0.216327 5:-0.148148 6:0.174825 7:-0.0839695 8:-0.146444 9:-0.0763636 10:0.0434783 11:-0.163636 12:0.267081 13:-0.426573 14:0.162791 15:-0.0925926 16:0.209677 17:-0.333333 18:-0.0638298 19:0.163265 20:0.0727273 21:0.210191 22:-0.162304 23:-0.413793 24:0.28 25:0.437126 27:0.0803571 28:-1.11022e-16 29:-0.105691 30:0.196581 31:0.174825 32:-0.190476 33:-0.158537 34:0.185629 35:-0.0909091 36:0.123967 37:0.102804 38:-0.139785 39:-0.0243902 40:-0.16129 41:0.0985915 42:0.0225564 43:0.262411 44:0.0204082 45:-0.507538 46:0.393939 47:-0.088 48:-0.134328 49:0.0958904 50:0.115385 51:-0.232704 52:-0.080292 53:0.252033 54:-0.229358 55:-0.0888889 56:-0.251613 57:-0.36612 58:-0.0677966 59:-0.581081 60:-0.448529 61:-0.915396 62:-0.896986 63:-0.969565 64:-0.971041 65:-0.966998 66:-0.745116 67:-0.922711 68:-0.985436 69:-0.937916 70:-0.990164 71:-0.538961 72:-0.982014 73:-0.868927 74:-0.997035 75:-0.940096 76:-0.657458 77:-0.965374 78:-0.946962 79:-0.925402 80:-0.893482 81:-0.537466 82:-0.997696 83:-0.115988 84:-0.962579 85:-0.98504 86:-0.956588 87:-0.891659 88:-0.924188 89:-0.962415 90:-0.946639 91:-0.97707 92:-0.860824 93:-0.991054 94:-0.873523 95:-0.979459 96:-0.968705 97:-0.858826 98:-0.967263 99:-0.909799 100:-0.987251 101:-0.807411 102:-0.963348 103:-0.98006 104:-0.950728 105:-0.990782 106:-0.820208 107:-0.991678 108:-0.906609 109:-0.940793 110:-0.969807 111:-0.959536 112:-0.913592 113:-0.978363 114:-0.908412 115:-0.968109 116:-0.980312 117:-0.977566 118:-0.954429 119:-0.581526 120:-0.997435 121:0.129334 122:-0.239616 123:-0.308661 124:-0.252111 125:-0.0439632 126:0.332105 127:0.430242 128:0.484696 129:0.442539 130:0.32596 131:0.398353 132:0.390385 133:0.355502 134:0.34558 135:0.280491 136:0.153049 137:-0.0146759 138:0.0297812 139:-0.012508 140:0.252963 141:0.0749417 142:0.177009 143:-0.0665537 144:-0.230422 145:-0.20036 146:-0.27111 147:-0.0503152 148:-0.0867283 149:-0.459707 150:-0.423378 151:-0.0508892 152:-0.0118425 153:-0.133595 154:-0.0715627 155:-0.0778798 156:-0.23202 157:-0.271674 158:-0.231842 159:-0.0615418 160:-0.0244543 161:-0.0547342 162:-0.0547342 163:-0.171077 164:-0.0878737 165:-0.00905523 166:0.00287752 167:0.0358971 168:0.118851 169:0.141666 170:-0.0331295 171:-0.207386 172:-0.0666625 173:0.011856 174:-0.0993503 175:0.121709 176:0.164612 177:0.17038 178:-0.0595922 179:0.143818 180:0.0902239 181:0.103543 182:0.129271 183:0.10641 184:0.0570437 185:-0.066289 186:-0.144234 
0.07358907396167681 0:0.256757 1:0.408805 2:-0.245283 3:0.373913 4:0.314286 5:-0.148148 6:-0.00699301 7:-0.0687023 8:-0.146444 9:-0.258182 10:0.15942 11:0.290909 12:0.254658 13:0.0909091 14:-0.0232558 15:0.148148 16:0.0322581 17:-0.547009 18:-0.815603 19:-0.387755 20:-0.418182 21:-0.452229 22:-0.424084 23:-0.496552 24:-0.0285714 25:0.137725 27:0.303571 28:0.0147059 29:0.300813 30:-0.00854701 31:0.174825 33:-0.158537 34:0.185629 35:-0.305785 36:-0.322314 37:0.102804 38:-0.139785 39:-0.219512 40:-0.16129 41:-0.0704225 42:0.0225564 43:0.262411 44:-0.319728 45:-0.386935 46:0.151515 47:-0.28 48:-0.149254 49:-0.0821918 50:-0.115385 51:-0.232704 52:0.0948905 53:0.252033 54:-0.46789 55:-0.366667 56:-0.251613 57:-0.234973 58:-0.491525 59:0.108108 60:0.0294118 61:-0.917899 62:-0.931732 63:-0.954936 64:-0.959348 65:-0.951567 66:-0.968792 67:-0.966968 68:-0.949984 69:-0.983669 70:-0.91821 71:-0.756203 72:-0.955985 73:-0.965354 74:-0.931585 75:-0.829216 76:-1 77:-0.905044 78:1 79:-0.997694 80:-0.847769 81:-0.981081 82:-0.956956 83:-1 84:0.354903 85:-0.980208 86:-0.771811 87:-0.43622 88:-0.797947 89:-0.998744 90:-0.845352 91:-0.957603 92:-0.97647 93:-0.918039 94:-0.658619 95:-0.994426 96:-0.955728 97:-0.945552 98:-0.9228 99:-0.990154 100:-0.963089 101:-0.950424 102:-0.808074 103:-0.975572 104:-0.964304 105:-0.992306 106:-0.857539 107:-0.990152 108:-0.717698 109:-0.992378 110:-0.935726 111:-0.515392 112:-1 113:-0.376633 114:-0.970144 115:-0.811845 116:-0.988312 117:-0.938223 118:-0.890242 119:-0.936 120:-0.988891 121:-0.0601477 122:-0.293448 123:-0.250073 124:-0.762008 125:0.121088 126:0.312648 127:0.410025 128:0.426677 129:0.424518 130:0.398314 131:0.374384 132:0.366553 133:0.387551 134:0.255706 135:-0.000718203 136:0.0406789 137:0.0317437 138:-0.00416628 139:0.114869 140:0.226096 141:0.208577 142:0.310628 143:0.0036204 144:-0.438353 145:-0.235731 146:-0.422274 147:-0.278632 148:-0.344747 149:-0.472979 150:-0.536129 151:-0.265208 152:-0.152275 153:-0.22048 154:-0.171019 155:0.070049 156:-0.0976783 157:-0.154834 158:-0.0366273 159:0.0693772 160:0.116142 161:0.00257943 162:-0.0814722 163:-0.0437444 164:-0.0325694 165:-0.0275365 166:-0.0158263 167:0.0163999 168:0.097792 169:0.116475 170:-0.1378 171:-0.148876 172:-0.00217445 173:0.0670424 174:-0.0487588 175:0.102897 176:0.0855647 177:0.163215 178:-0.0206151 179:0.187711 180:0.0781725 181:0.0929183 182:0.118673 183:0.0904411 184:-0.0166847 185:0.0670212 186:0.151487 
0.7366704050973676 0:0.324324 1:0.0188679 2:-0.0188679 3:-0.582609 4:0.0530612 5:-0.54321 6:-0.0769231 7:-0.374046 8:-0.146444 9:-0.607273 10:0.371981 11:0.381818 12:0.36646 13:-0.286713 14:-0.131783 15:-0.0925926 16:-0.0645161 17:-0.247863 18:0.134752 19:0.0816327 20:0.6 21:-0.261146 22:-0.361257 23:-0.544828 24:0.325714 25:0.341317 26:0.0597015 27:0.0625 28:-0.176471 29:0.0894309 30:0.299145 31:0.524476 32:0.0634921 33:-0.109756 34:0.0179641 35:-0.0909091 36:0.355372 37:0.0280374 38:-0.44086 39:-0.284553 40:-0.16129 41:-0.0140845 42:0.0827068 43:0.262411 44:-0.142857 45:-0.386935 46:0.151515 47:-0.28 48:0.253731 49:0.150685 50:0.0961538 51:-0.283019 52:0.0948905 53:0.186992 54:-0.431193 55:-0.344444 56:-0.251613 57:-0.355191 58:-0.20339 59:-0.108108 60:-0.330882 61:-0.888571 62:-0.943295 63:-0.961068 64:-0.976522 65:-0.837463 66:-0.983515 67:-0.911533 68:-0.946785 69:-0.993728 70:-0.867497 71:-0.827035 72:-0.985605 73:-0.944037 74:-0.962349 75:-0.977831 76:-0.669127 77:-0.735297 78:-0.986597 79:-0.850797 80:-0.983878 81:-0.772042 82:-0.992566 83:-0.98902 84:-0.020083 85:-0.953567 86:-0.978464 87:-0.838688 88:-0.957924 89:-0.969486 90:-0.986808 91:-0.69347 92:-0.966395 93:-0.905776 94:-0.877218 95:-0.99366 96:-0.967831 97:-0.868801 98:-0.953697 99:-0.966865 100:-0.99981 101:-0.123331 102:-0.918807 103:-0.96296 104:-0.978328 105:-0.959227 106:-0.945208 107:-0.958001 108:-0.956881 109:-0.983947 110:-0.973538 111:-0.778817 112:-0.947381 113:-0.979892 114:-0.947555 115:-0.971885 116:-0.963211 117:-0.747469 118:-0.951848 119:-0.953979 120:-0.993117 121:0.0186892 122:-0.171011 123:-0.3104 124:-0.450448 125:-0.100745 126:0.610747 127:0.666088 128:0.800535 129:0.684802 130:0.691635 131:0.689284 132:0.492948 133:0.452017 134:0.35573 135:0.112888 136:0.272629 137:0.273586 138:0.087245 139:0.0324825 140:0.0990928 141:-0.0699666 142:-0.0317404 143:-0.198737 144:-0.147172 145:-0.025049 146:-0.167715 147:-0.309226 148:-0.43914 149:-0.685243 150:-0.602581 151:-0.2813 152:-0.215977 153:-0.384525 154:-0.462342 155:-0.308986 156:-0.356022 157:-0.323545 158:-0.19956 159:0.0180461 160:-0.131778 161:-0.162693 162:-0.0723498 163:-0.115212 164:-0.192047 165:-0.189913 166:-0.180158 167:-0.108083 168:0.0391943 169:0.0463794 170:-0.174482 171:-0.271484 172:-0.248447 173:-0.143708 174:-0.0750264 175:0.0957249 176:0.135977 177:0.147726 178:-0.0346589 179:0.156715 180:0.116987 181:0.127136 182:0.152807 183:0.136357 184:0.0546086 185:0.0526072 186:-0.0702789 
0.2306347456851236 0:0.0810811 1:0.245283 2:-0.132075 3:0.0608696 4:0.387755 5:-0.259259 6:0.300699 7:-0.267176 8:-0.221757 9:-0.0981818 10:0.15942 11:0.218182 12:0.416149 13:-0.0909091 14:-0.0232558 15:-0.0925926 16:-0.0322581 17:-0.282051 18:-0.191489 19:-0.204082 20:-0.254545 21:0.171975 22:-0.382199 23:-0.434483 24:0.177143 25:0.293413 26:-0.522388 27:0.0267857 28:0.220588 29:0.0894309 30:-0.00854701 31:0.048951 33:-0.268293 34:0.293413 35:-0.0909091 36:0.272727 37:0.102804 38:-0.333333 39:-0.219512 40:-0.306452 41:-0.197183 42:-0.112782 43:0.262411 44:-0.142857 45:-0.477387 46:0.242424 47:0.008 48:-0.0895522 49:0.0958904 50:-0.288462 51:-0.119497 52:0.357664 53:0.252033 54:-0.0642202 55:-0.222222 56:-0.251613 57:-0.136612 58:-0.271186 59:-0.256757 60:-0.227941 61:0.891864 62:-0.975934 63:-0.392929 64:-0.999362 65:-0.630278 66:-0.983827 67:-0.935727 68:-0.998356 69:-0.48907 70:-0.962915 71:-0.799456 72:-0.984085 73:-0.968784 74:-0.973572 75:-0.823387 76:-0.874481 77:-0.0879334 78:-0.98705 79:-0.940709 80:-0.974585 81:-0.817351 82:-0.996434 83:-0.605211 84:-0.895493 85:-0.967222 86:-0.936453 87:-0.766211 88:-0.994619 89:-0.926044 90:-0.987996 91:-0.7195 92:-0.971105 93:-0.962878 94:-0.602056 95:-0.996265 96:-0.891167 97:-0.904035 98:-0.992941 99:-0.934021 100:-0.886346 101:-0.930193 102:-0.957527 103:-0.975878 104:-0.99552 105:-0.855958 106:-0.968789 107:-0.97884 108:-0.895236 109:-0.996268 110:-0.804821 111:-0.946035 112:-0.73622 113:-0.975145 114:-0.956432 115:-0.897934 116:-0.995916 117:-0.95343 118:-0.979322 119:-0.474032 120:-0.990861 121:0.253911 122:-0.319219 123:-0.259427 124:-0.542286 125:0.0889814 126:0.348339 127:0.420552 128:0.464823 129:0.450468 130:0.394601 131:0.331503 132:0.323916 133:0.292952 134:0.230164 135:0.0222643 136:0.0345532 137:-0.000383877 138:0.0447181 139:0.0801532 140:0.247843 141:0.146105 142:0.224976 143:0.200817 144:0.0717305 145:-0.0134731 146:-0.109366 147:0.0746434 148:-0.0194951 149:-0.398762 150:-0.438672 151:-0.0880951 152:-0.179118 153:-0.343767 154:-0.177869 155:-0.0247754 156:-0.130726 157:-0.22973 158:-0.117952 159:0.0629608 160:0.137094 161:0.10777 162:0.10777 163:0.00330033 164:-0.038883 165:0.0209228 166:-0.022332 167:-0.0482867 168:-0.0346163 169:-0.0419141 170:-0.172626 171:-0.269621 172:-0.257207 173:-0.0567813 174:-0.202477 175:-0.0153827 176:-0.0593378 177:0.0299843 178:-0.10807 179:0.0892253 180:0.109772 181:0.120776 182:0.146462 183:0.170098 184:0.0388709 185:0.0457086 186:-0.0292773 
0.03105085820564069 0:0.337838 1:0.00628931 2:-0.245283 3:0.0608696 4:0.387755 5:-0.148148 6:0.300699 7:-0.267176 8:-0.0711297 9:-0.229091 10:0.246377 11:0.218182 12:0.416149 13:-0.0909091 14:0.116279 15:-0.0925926 16:-0.177419 17:-0.358974 18:-0.191489 19:-0.0204082 20:-0.272727 21:-0.0573248 22:-0.486911 23:-0.496552 24:0.28 25:0.401198 27:0.267857 28:-0.176471 29:-0.0569106 30:-0.811966 31:0.300699 33:-0.158537 34:0.185629 35:-0.239669 36:0.123967 37:0.102804 38:-0.139785 39:-0.0731707 40:0.145161 41:-0.0704225 42:-0.112782 43:0.262411 44:-0.142857 45:-0.19598 46:-0.040404 47:-0.28 48:0.0447761 49:-0.164384 50:0.0576923 51:-0.119497 52:-0.0364964 53:0.252033 54:-0.394495 55:-0.222222 56:-0.251613 57:-0.136612 58:-0.271186 60:-0.294118 61:-0.799864 62:-0.951496 63:-0.960248 64:-0.982337 65:-0.96745 66:-0.966892 67:-0.855022 68:-0.952759 69:-1 70:0.179087 71:-0.953248 72:-0.93672 73:-0.92003 74:-0.954483 75:-0.991951 76:-0.568735 77:-0.964242 78:-0.730074 79:-0.980467 80:-0.851559 81:-0.839053 82:-0.996359 83:-0.844751 84:-0.837677 85:-0.992346 86:-0.959199 87:-0.177447 88:-0.992875 89:-0.936997 90:-0.628573 91:-0.983129 92:-0.932344 93:-0.943633 94:-0.95361 95:-0.941284 96:-0.99383 97:-0.98333 98:-0.891621 99:-0.66449 100:-0.991282 101:-0.905203 102:-0.924716 103:-0.98596 104:-0.897073 105:-0.985466 106:-0.993903 107:-0.987865 108:-0.690188 109:-0.978579 110:-0.97973 111:-0.850564 112:-0.958914 113:-0.94848 114:-0.97343 115:-0.812379 116:-0.983995 117:-0.871621 118:-0.990981 119:-0.552094 120:-0.998608 121:0.331548 122:-0.190802 123:-0.235209 124:-0.611225 125:0.0238512 126:0.447292 127:0.494004 128:0.513059 129:0.503383 130:0.527553 131:0.520024 132:0.551877 133:0.469347 134:0.478628 135:0.243667 136:0.253932 137:0.150214 138:0.202111 139:0.242884 140:0.412018 141:0.309654 142:0.382192 143:0.271376 144:0.0705043 145:0.039326 146:-0.12227 147:-0.0716208 148:-0.110806 149:-0.484742 150:-0.480266 151:-0.141854 152:-0.0994276 153:-0.163567 154:-0.250058 155:-0.0968973 156:-0.361042 157:-0.335291 158:-0.285343 159:-0.12003 160:-0.101007 161:-0.190563 162:-0.190563 163:-0.227963 164:-0.275702 165:-0.217295 166:-0.0324034 167:-0.00088031 168:0.0132761 169:0.0941489 170:-0.0692359 171:-0.165896 172:-0.275969 173:-0.0678399 174:-0.1154 175:-0.0902513 176:0.0227457 177:0.0194235 178:-0.186099 179:0.00135318 180:-0.083251 181:-0.0161674 182:0.0429959 183:0.0604193 184:-0.0527146 185:0.041315 186:-0.0609061 
0.3752727087031461 0:0.202703 1:0.081761 2:-0.132075 3:-0.026087 4:0.453061 5:-0.148148 6:0.230769 7:-0.0687023 8:-0.179916 9:0.0254545 10:0.246377 11:-0.327273 12:0.304348 13:-0.636364 14:0.379845 15:0.0740741 16:-0.532258 17:-0.358974 18:-0.560284 19:0.612245 20:-0.236364 21:0.171975 22:-0.382199 23:-0.737931 24:0.28 25:0.245509 26:-0.19403 27:0.1875 28:-0.367647 29:0.300813 30:0.367521 31:0.174825 32:-0.0634921 33:-0.317073 34:0.137725 35:-0.669421 36:-0.0909091 37:0.271028 38:-0.0537634 39:0.788618 40:0.129032 41:-0.0704225 42:-0.037594 43:0.262411 44:0.102041 45:-0.256281 46:0.191919 47:-0.008 48:-0.283582 49:0.0958904 50:0.134615 51:0.320755 52:0.343066 53:0.252033 54:0.00917431 55:-0.266667 56:-0.251613 57:-0.704918 58:-0.338983 59:-0.135135 60:-0.264706 61:-0.723982 62:-0.910535 63:-0.933657 64:-0.987218 65:-0.908836 66:-0.941936 67:-0.979466 68:-0.982016 69:-0.812165 70:-0.86317 71:-0.927949 72:-0.978769 73:-0.998683 74:-0.886943 75:-0.704339 76:-0.908571 77:-0.961963 78:-0.736484 79:-0.987341 80:-0.863477 81:-0.872957 82:-0.986261 83:-0.683547 84:-0.960827 85:-0.939219 86:-0.995483 87:-0.972036 88:1 89:-0.964775 90:-0.990903 91:-0.904511 92:-0.986464 93:-0.884635 94:-0.596937 95:-0.986119 96:-0.967984 97:-0.921785 98:-0.987715 99:-0.966748 100:-0.976579 101:-0.955682 102:-0.559466 103:-0.993285 104:-0.765798 105:-0.99835 106:-0.769403 107:-0.973321 108:-0.932152 109:-0.998791 110:-0.906053 111:-0.228719 112:-0.964144 113:-0.969711 114:-0.962352 115:-0.868699 116:-0.988668 117:-0.973508 118:-0.953435 119:-0.955683 120:-0.99034 121:0.247949 122:-0.141945 123:-0.733617 124:-0.253455 125:0.00457217 126:0.58847 127:0.631456 128:0.681269 129:0.666159 130:0.784601 131:0.809692 132:0.818272 133:0.740382 134:0.691589 135:0.852507 136:0.90052 137:0.748649 138:0.800636 139:0.555903 140:0.828239 141:0.779142 142:0.614301 143:0.433061 144:-0.0148753 145:0.0704524 146:-0.108163 147:0.17085 148:0.090644 149:-0.59296 150:-0.553852 151:-0.400758 152:-0.39174 153:-0.501488 154:-0.722114 155:-0.453822 156:-0.443272 157:-0.478067 158:-0.436763 159:-0.393096 160:-0.490775 161:-0.743064 162:-0.962378 163:-0.964116 164:-0.725664 165:-0.356183 166:-0.34843 167:-0.472401 168:-0.460788 169:-0.588441 170:-0.476329 171:-0.490366 172:-0.388544 173:-0.170929 174:-0.344033 175:-0.313851 176:-0.192776 177:0.158287 178:0.0403665 179:0.27478 180:0.267729 181:0.22908 182:0.161846 183:0.0226948 184:-0.11765 185:-0.0719158 186:-0.0737233 
0.03233418156345363 0:0.283784 1:0.433962 2:-0.144654 3:0.165217 4:0.126531 5:-0.419753 6:-0.132867 7:-0.389313 8:-0.0209205 9:-0.272727 10:0.15942 11:0.2 12:0.416149 13:-0.300699 14:0.0852713 15:-0.37037 16:-0.177419 17:-0.435897 18:0.0496454 19:0.469388 20:0.0727273 21:-0.133758 22:-0.445026 23:-0.551724 24:0.108571 25:0.748503 26:0.119403 27:-0.0178571 28:-0.0588235 29:-0.154472 30:-0.145299 31:0.0629371 33:-0.0609756 34:0.00598802 35:-0.0909091 36:0.123967 37:-0.046729 38:-0.634409 39:-0.349593 40:0.322581 41:-0.183099 42:-0.323308 43:0.262411 44:-0.251701 45:-1 46:0.232323 47:0.456 48:-0.850746 49:-0.109589 50:-0.269231 51:-0.333333 52:0.0948905 53:1 54:0.743119 55:-0.222222 56:-0.251613 57:-0.234973 58:-0.271186 59:0.148649 60:-0.470588 61:-0.925103 62:-0.525331 63:-0.971115 64:-0.933446 65:-0.978315 66:-0.967609 67:-0.977834 68:-0.840753 69:-0.9778 70:-0.926353 71:-0.706622 72:-0.990509 73:-0.956283 74:-0.960989 75:-0.979865 76:-0.787061 77:-0.870772 78:-0.974976 79:-0.830053 80:-0.838752 81:-0.942086 82:-0.992341 83:-0.795447 84:-0.633904 85:-0.994166 86:-0.958185 87:-0.568713 88:-0.980151 89:-0.929712 90:-0.981455 91:-0.959941 92:-0.881137 93:-0.906802 94:-0.93025 95:-0.993459 96:-0.966131 97:-0.860289 98:-0.942087 99:-0.971452 100:-0.855229 101:-0.984177 102:-0.891821 103:-0.994285 104:-0.977428 105:-0.883151 106:-0.980874 107:-0.925155 108:-0.974693 109:-0.956135 110:-0.960426 111:-0.846846 112:-0.877592 113:-0.979946 114:-0.995525 115:-0.832738 116:-0.974463 117:-0.844347 118:-0.98871 119:-0.730858 120:-0.996107 121:-0.154775 122:0.231764 123:-0.844682 124:-0.32917 125:-0.149382 126:0.477802 127:0.626791 128:0.67287 129:0.692436 130:0.626938 131:0.664924 132:0.655437 133:0.57414 134:0.70903 135:0.521807 136:0.562454 137:0.480289 138:0.547079 139:0.551436 140:0.753959 141:0.507715 142:0.513493 143:0.427669 144:0.213062 145:0.338628 146:0.279686 147:0.255704 148:0.196201 149:-0.396187 150:-0.483681 151:-0.155691 152:-0.0382414 153:-0.137794 154:-0.0570723 155:-0.00345474 156:-0.20955 157:-0.330613 158:-0.227496 159:-0.0102107 160:-0.142598 161:-0.173577 162:-0.173577 163:-0.30237 164:-0.43172 165:-0.480545 166:-0.427124 167:-0.31388 168:-0.258936 169:-0.310249 170:-0.424858 171:-0.910533 172:-0.399913 173:-0.0726248 174:-0.455767 175:-0.358206 176:-0.337626 177:-0.320757 178:-0.487777 179:-0.210673 180:-0.0346829 181:-0.0602281 182:-0.0876223 183:-0.0213046 184:-0.150794 185:-0.0924192 186:-0.256806 
1.225332335738829 0:0.0810811 1:0.245283 2:-0.471698 3:-0.0956522 4:0.314286 5:-0.148148 6:0.426573 7:0.00763359 8:-0.146444 9:-0.163636 10:0.15942 11:0.0545455 12:0.416149 13:0.160839 14:-0.0232558 15:-0.0925926 16:-0.177419 17:-0.435897 18:0.191489 19:0.163265 20:0.4 21:-0.171975 22:-0.47644 23:-0.496552 24:0.0742857 25:0.293413 26:0.268657 27:0.1875 28:-0.176471 29:-0.479675 30:-0.00854701 31:0.426573 33:0.0609756 34:0.185629 35:-0.0909091 36:0.421488 37:0.102804 38:-0.139785 39:0.0731707 40:-0.16129 41:0.183099 42:0.0225564 43:0.262411 44:0.102041 45:-0.386935 46:-0.030303 47:-0.28 48:0.0447761 49:0.0958904 50:-0.115385 51:-0.232704 52:0.357664 53:-0.0406504 54:-0.229358 55:-0.222222 56:-0.251613 57:-0.234973 58:-0.271186 59:-0.256757 60:-0.227941 61:-0.908157 62:-0.970915 63:-0.908815 64:-0.991628 65:-0.833759 66:-0.830922 67:-0.849186 68:-1 69:-0.930082 70:-0.938432 71:-0.96821 72:-0.937829 73:-0.98599 74:-0.971588 75:-0.729784 76:-0.967533 77:-0.652401 78:-0.549831 79:-0.996512 80:-0.592611 81:-0.901865 82:-0.984206 83:-0.879198 84:-0.945199 85:-0.995416 86:-0.881648 87:-0.835654 88:-0.804419 89:-0.990603 90:-0.981511 91:-0.81464 92:-0.98578 93:-0.890719 94:-0.898698 95:-0.992477 96:-0.998599 97:-0.115017 98:-0.942958 99:-0.894481 100:-0.965984 101:-0.95097 102:-0.982231 103:-0.995539 104:-0.647863 105:-0.98894 106:-0.951773 107:-0.864036 108:-0.979012 109:-0.963949 110:-0.981696 111:-0.974956 112:-0.611581 113:-0.795678 114:-0.999364 115:-0.905321 116:-0.94612 117:-0.982996 118:-0.781742 119:-0.923148 120:-0.982175 121:-0.283331 122:-0.238975 123:-0.774309 124:-0.427046 125:0.0238512 126:0.283463 127:0.379699 128:0.34088 129:0.347521 130:0.307436 131:0.271975 132:0.41855 133:0.454382 134:0.461139 135:0.396644 136:0.230514 137:0.0237118 138:0.0699009 139:0.219464 140:0.217498 141:0.115876 142:0.143664 143:0.0269604 144:0.0406247 145:0.069745 146:0.207791 147:0.170039 148:0.0144131 149:-0.459529 150:-0.490588 151:-0.112745 152:0.0161847 153:-0.0390583 154:-0.151062 155:-0.231599 156:-0.37162 157:-0.300832 158:-0.195158 159:0.0880711 160:0.0514729 161:-0.0900283 162:0.021642 163:-0.132073 164:-0.12193 165:-0.00880799 166:-0.107907 167:0.0361579 168:0.119132 169:0.142003 170:-0.0328735 171:-0.129416 172:-0.17669 173:-0.082301 174:-0.130505 175:0.0102866 176:0.00850674 177:0.0468815 178:-0.059442 179:-0.0061316 180:0.0188428 181:0.040614 182:0.0664965 183:0.152025 184:0.057224 185:0.0271708 186:-0.104027 
0.7856608747659308 0:0.405405 1:0.0943396 2:-0.622642 3:0.321739 4:0.763265 5:0.222222 6:0.00699301 7:-0.633588 8:-0.146444 9:-0.0763636 10:0.217391 11:-0.381818 12:0.267081 13:-0.00699301 14:0.550388 15:0.240741 16:-0.0806452 17:-0.435897 18:-0.319149 19:0.0408163 20:-0.0363636 21:0.133758 22:-0.0366492 23:-0.413793 24:0.554286 25:0.221557 26:-0.179104 27:0.294643 28:-0.176471 29:0.479675 30:-0.111111 31:0.00699301 32:-0.0952381 33:-0.231707 34:0.401198 35:-0.190083 36:-0.173554 37:-0.00934579 38:-0.0107527 39:-0.512195 40:0.0322581 41:0.352113 42:0.0225564 43:0.432624 44:-0.387755 45:-0.688442 46:-0.030303 47:-0.28 48:0.134328 49:-0.150685 50:-0.230769 51:-0.157233 52:0.270073 53:0.544715 54:0.100917 55:-0.288889 56:-0.329032 57:-0.234973 58:0.0338983 59:-0.418919 60:-0.448529 61:-0.94206 62:-0.946463 63:-0.949563 64:-0.985647 65:-0.794917 66:-0.985324 67:-0.964578 68:-0.960232 69:-0.969672 70:-0.978437 71:-0.615946 72:-0.974333 73:-0.972416 74:-0.924197 75:-0.98504 76:-0.689242 77:-0.815714 78:-0.942656 79:-0.982727 80:-0.860807 81:-0.889436 82:-0.986355 83:-0.785763 84:-0.869586 85:-0.984235 86:-0.949538 87:-0.915943 88:-0.948595 89:-0.947826 90:-0.966891 91:-0.931796 92:-0.960829 93:-0.933941 94:-0.796033 95:-0.990243 96:-0.988245 97:-0.902067 98:-0.965166 99:-0.939574 100:-0.874643 101:-0.969385 102:-0.937895 103:-0.99124 104:-0.910764 105:-0.985502 106:-0.947174 107:-0.980999 108:-0.947202 109:-0.971437 110:-0.907843 111:-0.924962 112:-0.961714 113:-0.945219 114:-0.981427 115:-0.880833 116:-0.988645 117:-0.737246 118:-0.957642 119:-0.935807 120:-0.999253 121:-0.323312 122:-0.571464 123:-0.333102 124:-0.843877 125:0.050192 126:0.32586 127:0.351407 128:0.273357 129:0.296735 130:0.434588 131:0.547043 132:0.433412 133:0.272686 134:0.219967 135:-0.0101854 136:-0.0538238 137:-0.241813 138:-0.244885 139:-0.257881 140:0.0480134 141:-0.052963 142:0.0561698 143:-0.223155 144:-0.361492 145:-0.330975 146:-0.482387 147:-0.200192 148:-0.0545697 149:-0.442573 150:-0.293966 151:0.0308 152:0.0071055 153:-0.0166862 154:-0.00642187 155:0.265949 156:0.0802283 157:-0.0315489 158:0.0630961 159:0.186229 160:0.264494 161:0.235923 162:0.159799 163:0.106211 164:0.192594 165:0.0521989 166:-0.124296 167:0.0610675 168:0.103426 169:0.225157 170:-0.124548 171:-0.376814 172:-0.230554 173:-0.128396 174:-0.145055 175:-0.120388 176:-0.131841 177:-0.014081 178:-0.135932 179:0.134557 180:0.178896 181:0.160217 182:0.185807 183:0.211806 184:0.238095 185:0.135122 186:-0.0513347 
0.1777643263769344 0:0.554054 1:0.836478 2:-0.0943396 3:-0.408696 4:0.314286 5:-0.580247 6:0.58042 7:0.175573 8:0.0460251 9:-0.294545 10:0.0434783 11:0.272727 12:0.267081 13:0.160839 14:0.333333 15:0.777778 16:-0.274194 17:-0.581197 18:-0.475177 19:0.163265 20:0.0727273 21:-0.0191083 22:-0.528796 23:-0.696552 24:0.211429 25:0.640719 26:0.179104 27:0.0803571 28:-0.352941 29:0.0894309 30:0.299145 31:0.0909091 32:-0.285714 33:-0.512195 34:0.185629 35:-0.471074 36:0.123967 37:-0.121495 38:1 39:-0.219512 40:-0.354839 41:-0.15493 42:-0.323308 43:0.262411 44:-0.455782 45:-0.567839 46:0.212121 47:-0.184 48:0.313433 49:0.178082 50:0.115385 51:-0.459119 52:-0.080292 53:0.349593 54:-0.00917431 55:-0.355556 56:-0.251613 57:-0.36612 58:-0.576271 59:-0.418919 60:-0.360294 61:-0.934493 62:-0.907536 63:-0.958861 64:-0.97785 65:-0.919857 66:-0.975575 67:-0.955651 68:-0.908357 69:-0.993145 70:-0.929003 71:-0.71643 72:-0.989397 73:-0.907068 74:-0.940088 75:-0.868987 76:-0.974784 77:-0.578503 78:-0.97919 79:-0.985029 80:-0.874184 81:-0.934028 82:-0.987884 83:-0.80951 84:-0.810317 85:-0.983033 86:-0.957935 87:-0.861727 88:-0.914567 89:-0.933799 90:-0.98337 91:-0.957036 92:-0.958275 93:-0.872506 94:-0.917728 95:-0.983005 96:-0.973156 97:-0.977186 98:-0.827599 99:-0.967615 100:-0.945725 101:-0.980928 102:-0.867489 103:-0.991211 104:-0.699768 105:-0.996887 106:-0.876919 107:-0.983047 108:-0.897112 109:-0.993616 110:-0.979067 111:-0.766932 112:-0.959155 113:-0.973247 114:-0.852384 115:-0.932106 116:-0.979892 117:-0.908048 118:-0.884078 119:-0.993271 120:-0.995796 121:-0.580602 122:-0.00800736 123:-0.501204 124:-0.503097 125:-0.0361701 126:0.20152 127:0.416993 128:0.451841 129:0.330909 130:0.265207 131:0.071469 132:0.192062 133:0.311953 134:0.406147 135:0.129015 136:0.00762531 137:-0.00871106 138:0.0360152 139:0.183153 140:0.441603 141:0.63373 142:0.667202 143:0.388538 144:0.040302 145:0.0318017 146:0.0651224 147:0.126544 148:-0.0329918 149:-0.614577 150:-0.577989 151:-0.291754 152:-0.0706602 153:-0.132586 154:-0.227071 155:-0.0739315 156:-0.123614 157:-0.177391 158:-0.160111 159:-0.163525 160:-0.0207017 161:-0.198113 162:-0.198113 163:-0.235164 164:0.0577629 165:0.100596 166:0.11385 167:0.11343 168:0.0790576 169:0.143266 170:-0.144202 171:-0.353757 172:-0.174453 173:-0.0492849 174:-0.031099 175:0.159709 176:0.16346 177:0.0726 178:-0.124742 179:0.119926 180:0.0909897 181:0.125004 182:0.171416 183:0.152589 184:0.00518579 185:0.00524145 186:-0.122872 
1.431846980640891 0:-0.162162 1:0.132075 2:-0.245283 3:0.0608696 4:0.240816 5:-0.148148 6:0.174825 7:-0.40458 8:-0.221757 9:-0.0981818 10:0.0724638 11:-0.109091 12:0.416149 13:-0.0909091 14:0.116279 15:-0.0925926 16:-0.322581 17:-0.589744 18:-0.191489 19:-0.0204082 20:0.0727273 21:0.0573248 22:-0.382199 23:-0.558621 24:0.28 25:0.508982 26:0.134328 27:0.267857 28:-0.441176 29:-0.788618 30:-0.162393 31:0.174825 32:1 33:-0.707317 34:0.185629 35:0.801653 36:0.272727 37:0.439252 38:0.247312 39:-0.219512 40:-0.016129 41:-0.450704 42:0.0225564 43:0.262411 44:-0.142857 45:-0.386935 46:0.0606061 47:-0.28 48:0.0447761 49:-0.150685 50:0.0576923 51:-0.232704 52:0.226277 53:0.691057 54:-0.229358 55:-0.422222 56:-0.251613 57:-0.234973 58:-0.118644 59:0.108108 60:-0.294118 61:-0.929046 62:-0.976388 63:-0.851471 64:-0.968207 65:-0.944959 66:-0.939726 67:-0.973307 68:-0.905462 69:-0.987528 70:-0.996119 71:-0.832251 72:-0.797521 73:-0.976816 74:-0.848671 75:-0.990219 76:-0.508365 77:-0.93369 78:-0.716766 79:-0.998076 80:-0.683596 81:-0.968602 82:-0.960374 83:-0.837827 84:-0.881597 85:-0.994753 86:-0.944073 87:-0.816863 88:-0.833418 89:-0.963396 90:-0.951903 91:-0.963284 92:-0.92025 93:-0.989934 94:-0.904524 95:-0.741591 96:-0.993224 97:-0.95758 98:-0.96319 99:-0.921267 100:-0.972499 101:-0.974532 102:-0.851065 103:-0.994865 104:-0.890582 105:-0.997143 106:-0.825908 107:-0.881512 108:-0.966978 109:-0.978601 110:-0.982338 111:-0.774238 112:-0.97838 113:-0.71474 114:-0.996259 115:-0.821163 116:-0.948296 117:-0.977356 118:-0.982629 119:-0.61308 120:-0.989285 121:-0.849653 122:-0.154825 123:-0.118774 124:-0.0807184 125:-0.035624 126:0.621426 127:0.650298 128:0.673824 129:0.6734 130:0.622607 131:0.666274 132:0.695691 133:0.60619 134:0.638551 135:0.582463 136:0.468079 137:0.348413 138:0.464679 139:0.457052 140:0.621835 141:0.46212 142:0.417083 143:0.106224 144:-0.0654706 145:0.0217692 146:-0.0662445 147:-0.0835637 148:-0.348746 149:-0.692878 150:-0.622732 151:-0.244094 152:-0.28649 153:-0.317303 154:-0.61561 155:-0.698483 156:-0.849284 157:-0.76185 158:-0.23963 159:-0.347071 160:-0.389643 161:-0.0831079 162:-0.0831079 163:-0.179358 164:-0.169768 165:-0.111722 166:-0.101026 167:-0.130971 168:-0.0613797 169:-0.073929 170:-0.254441 171:-0.351702 172:-0.337227 173:-0.219682 174:-0.274005 175:-0.26528 176:-0.126764 177:0.0886275 178:-0.121963 179:0.149526 180:0.0956651 181:0.0445226 182:0.0385651 183:0.0557226 184:-0.0583514 185:0.0668285 186:0.0192754 
1.404832604743524 0:0.0810811 1:0.245283 2:-0.245283 3:-0.026087 4:0.314286 5:-0.246914 6:0.174825 7:-0.267176 8:-0.213389 9:0.0181818 10:0.362319 11:0.127273 12:0.515528 13:-0.496503 14:-0.224806 15:0.37037 16:-0.241935 17:-0.547009 18:-0.0638298 20:-0.0727273 21:0.324841 22:-0.424084 23:-0.37931 24:0.52 25:0.245509 26:-0.179104 27:0.223214 28:-0.235294 29:-0.121951 30:0.213675 31:-0.0629371 33:-0.317073 34:0.389222 35:0.123967 36:0.123967 37:0.345794 38:0.655914 39:-0.284553 40:-0.5 41:-0.239437 42:0.278195 43:0.262411 44:-0.197279 45:-0.386935 46:0.0707071 47:-0.616 48:0.477612 49:0.0958904 50:-0.192308 51:-0.132075 52:0.0364964 53:0.186992 54:-0.46789 55:-0.222222 56:-0.148387 57:0.0382514 58:-0.0508475 59:-0.256757 60:-0.389706 61:-0.789775 62:-0.881269 63:-0.966762 64:-0.961125 65:-0.973194 66:-0.986536 67:-0.961944 68:-0.769825 69:-0.923622 70:-0.761208 71:-0.971246 72:-0.900527 73:-0.997837 74:-0.972498 75:-0.868747 76:-0.954024 77:-0.71429 78:-0.92344 79:-0.977865 80:-0.856111 81:-0.766069 82:-0.99267 83:-0.787875 84:-0.534105 85:-0.990734 86:-0.977621 87:-0.830127 88:-0.849192 89:-0.989495 90:-0.938888 91:-0.816832 92:-0.984054 93:-0.969702 94:-0.725557 95:-0.964452 96:-0.987909 97:-0.794487 98:-0.948037 99:-0.950927 100:-0.992157 101:-0.885117 102:-0.836793 103:-0.993133 104:-0.944277 105:-0.992151 106:-0.87751 107:-0.953616 108:-0.948467 109:-0.995367 110:-0.909312 111:-0.944867 112:-0.919102 113:-0.966657 114:-0.973282 115:-0.956194 116:-0.983204 117:-0.67805 118:-0.969885 119:-0.762011 120:-0.99786 121:-0.391045 122:-0.219034 123:-0.242741 124:-0.282728 125:-0.222768 126:0.245298 127:0.340042 128:0.354693 129:0.345063 130:0.28841 131:0.214189 132:0.207271 133:0.183184 134:0.144198 135:0.0642465 136:0.205181 137:0.129721 138:0.154955 139:0.00784939 140:0.0410595 141:0.123874 142:0.126427 143:-0.196349 144:-0.261011 145:-0.311296 146:-0.509558 147:-0.23602 148:-0.435474 149:-0.532681 150:-0.390816 151:-0.11172 152:-0.111566 153:-0.15448 154:-0.204676 155:-0.16132 156:-0.183195 157:-0.337578 158:-0.117388 159:-0.0650585 160:0.000562887 161:0.0491349 162:0.0491349 163:0.0256826 164:0.341448 165:0.353277 166:0.239147 167:0.200613 168:0.414234 169:0.635536 170:0.235364 171:0.139692 172:0.116178 173:-0.00903823 174:0.084967 175:0.17569 176:0.102473 177:0.138491 178:-0.058691 179:0.127199 180:0.0239616 181:0.0451267 182:0.10056 183:0.090103 184:0.0393218 185:0.0118704 186:0.00712062 
0.2152958481578067 0:-0.0540541 1:0.522013 2:-0.245283 3:-0.0608696 4:0.216327 5:-0.444444 6:0.104895 7:-0.0839695 8:-0.0041841 9:-0.272727 10:0.256039 11:-0.218182 12:0.540373 13:-0.300699 14:0.162791 15:0.222222 16:0.016129 17:-0.418803 18:-0.0921986 19:-0.0816327 20:-0.0545455 21:0.0573248 22:-0.340314 23:-0.531034 24:0.302857 25:0.317365 26:0.104478 27:0.1875 28:-0.25 29:-0.105691 30:0.0769231 31:0.412587 32:-0.190476 33:-0.097561 34:0.652695 35:0.917355 36:0.00826446 37:0.364486 38:-0.548387 39:-0.252033 40:-0.193548 41:-0.140845 42:0.203008 43:0.503546 44:0.482993 45:-0.165829 46:-0.0707071 47:-0.2 48:0.298507 49:0.356164 50:0.288462 51:-0.144654 52:0.124088 53:-0.219512 54:-0.541284 55:-0.377778 56:-0.0322581 57:-0.15847 58:-0.186441 59:-0.256757 60:-0.433824 61:-0.864259 62:-0.978518 63:-0.911717 64:-0.92733 65:-0.965024 66:-0.966767 67:-0.956138 68:-0.944548 69:-0.994467 70:-0.533403 71:-0.910506 72:-0.986816 73:-0.915167 74:-0.971166 75:-0.85011 76:-0.982229 77:-0.3682 78:-0.972248 79:-0.975337 80:-0.930219 81:-0.86521 82:-0.990137 83:-0.911067 84:-0.683825 85:-0.989465 86:-0.984148 87:-0.0579223 88:-0.978314 89:-0.972686 90:-0.888133 91:-0.914558 92:-0.979654 93:-0.790025 94:-0.649036 95:-0.979466 96:-0.985188 97:-0.924173 98:-0.981142 99:-0.952199 100:-0.972294 101:-0.911045 102:-0.910217 103:-0.979853 104:-0.862852 105:-0.991157 106:-0.858883 107:-0.981339 108:-0.98245 109:-0.97395 110:-0.890684 111:-0.800863 112:-0.975334 113:-0.920719 114:-0.991921 115:-0.907733 116:-0.984302 117:-0.928193 118:-0.914996 119:-0.953113 120:-0.9977 121:-0.64874 122:-0.410633 123:-0.703089 124:0.00654229 125:0.24947 126:0.0989394 127:0.245955 128:0.295198 129:0.248636 130:0.143857 131:-0.028544 132:-0.0550946 133:-0.0142918 134:-0.00571837 135:-0.453839 136:-0.425581 137:-0.564565 138:-0.500046 139:-0.575877 140:-0.366248 141:-0.389319 142:-0.261115 143:-0.615699 144:-0.627957 145:-0.674459 146:-0.823107 147:-0.665229 148:-0.842206 149:-0.937457 150:-0.80425 151:-0.627274 152:-0.495016 153:-0.563822 154:-0.716516 155:-0.642681 156:-0.715959 157:-0.566632 158:-0.51109 159:-0.336953 160:-0.106511 161:0.243976 162:0.198238 163:0.230123 164:0.141478 165:0.119758 166:0.118041 167:0.124319 168:0.299715 169:0.50099 170:0.55027 171:0.626846 172:0.544669 173:0.560742 174:0.608486 175:1 176:0.946237 177:0.818852 178:0.592054 179:0.754652 180:0.672437 181:0.565149 182:0.649865 183:0.758398 184:0.817731 185:0.705168 186:0.446479 
1.353281072329928 0:0.121622 1:0.18239 2:-0.496855 3:-0.147826 4:0.208163 5:-0.0493827 6:0.230769 7:-0.0992366 8:0.0460251 9:-0.207273 10:0.15942 11:0.0363636 12:0.689441 13:-0.0909091 14:-0.0387597 15:-0.0925926 16:-0.16129 17:-0.512821 18:-0.0638298 19:0.367347 20:0.0545455 21:-0.044586 22:-0.319372 23:-0.496552 24:0.28 25:0.293413 26:0.0597015 27:0.375 28:-0.117647 29:0.0731707 30:-0.00854701 31:0.286713 32:0.460317 33:-0.170732 34:0.149701 35:-0.0909091 36:0.239669 37:0.102804 38:-0.0537634 39:-0.219512 40:-0.209677 41:-0.0704225 42:0.203008 43:0.148936 44:-0.102041 45:-0.417085 46:0.161616 47:-0.28 48:0.0447761 49:0.0821918 50:-0.134615 51:-0.484277 52:0.080292 53:0.268293 54:-0.211009 55:-0.177778 56:0.0709677 57:-0.0382514 58:-0.271186 59:-0.0675676 60:-0.242647 61:-0.968973 62:-0.508505 63:-0.964404 64:-0.989571 65:-0.956749 66:-0.971265 67:-0.966792 68:-0.435285 69:-0.992296 70:-0.999854 71:0.332633 72:-0.976649 73:-0.98688 74:-0.426975 75:-0.992974 76:-0.923284 77:-0.871129 78:-0.853624 79:-0.789645 80:-0.985365 81:-0.96841 82:-0.993109 83:-0.522426 84:-0.957926 85:-0.940045 86:-0.874697 87:-0.595319 88:-0.953605 89:-0.958107 90:-0.946093 91:-0.911812 92:-0.991976 93:-0.997596 94:-0.315496 95:-0.96412 96:-0.972328 97:-0.975763 98:-0.970063 99:-0.881411 100:-0.939331 101:-0.92317 102:-0.973104 103:-0.913739 104:-0.963292 105:-0.987239 106:-0.840429 107:-0.991781 108:-0.981629 109:-0.964093 110:-0.956617 111:-0.100597 112:-0.989291 113:-0.89848 114:-0.992043 115:-0.868327 116:-0.95825 117:-0.990097 118:-0.977962 119:-0.821202 120:-0.989154 121:-0.328706 122:-0.301803 123:-0.823073 124:-0.395304 125:-0.0474339 126:0.452905 127:0.521668 128:0.477251 129:0.417998 130:0.31227 131:0.368501 132:0.451221 133:0.374014 134:0.427591 135:0.230609 136:0.0401046 137:-0.05141 138:0.128167 139:0.025016 140:0.137086 141:0.0357705 142:0.0756063 143:-0.124865 144:-0.180665 145:-0.0896813 146:-0.143349 147:-0.0781083 148:-0.118137 149:-0.530151 150:-0.498027 151:-0.239686 152:-0.153015 153:-0.110214 154:-0.0348098 155:0.0973579 156:-0.0123405 157:-0.0411123 158:0.0332412 159:0.220409 160:0.165864 161:0.0211387 162:0.0371186 163:-0.0374437 164:-0.00312642 165:-0.0210465 166:-0.0250844 167:0.00674905 168:0.189914 169:0.216058 170:-0.0455491 171:-0.166538 172:-0.0983474 173:-0.0152587 174:-0.0464264 175:0.0975495 176:0.0711687 177:0.00733041 178:-0.178626 179:0.0124746 180:-0.0605187 181:-0.0180862 182:0.0483482 183:0.0494477 184:-0.065882 185:-0.0780437 186:-0.18815 
0.5173306808112853 0:0.0810811 1:0.18239 2:-0.245283 3:-0.0956522 4:0.273469 5:-0.0864198 6:0.174825 7:-0.0992366 8:-0.146444 9:-0.0836364 10:0.15942 11:0.145455 12:0.552795 13:-0.160839 14:0.147287 15:-0.296296 17:-0.34188 18:-0.0638298 19:0.163265 20:0.0727273 21:0.0573248 22:-0.340314 23:-0.496552 24:0.222857 25:0.293413 26:-0.0746269 27:0.1875 28:0.220588 29:-0.512195 30:-0.00854701 31:0.538462 32:-0.0793651 33:-0.219512 34:0.245509 35:-0.0909091 36:0.0413223 37:0.102804 38:0.204301 39:0.0406504 40:-0.419355 41:-0.0704225 42:0.0225564 43:0.262411 44:-0.0748299 45:-0.386935 46:0.10101 47:-0.28 48:-0.119403 49:0.0958904 50:-0.0192308 51:-0.295597 52:0.255474 53:0.252033 54:-0.229358 55:-0.1 56:-0.187097 57:-0.114754 58:-0.271186 59:-0.324324 60:-0.169118 61:-0.87777 62:-0.963143 63:-0.948297 64:-0.983579 65:-0.640883 66:-0.983745 67:-0.972133 68:-0.981068 69:-0.897957 70:-0.9327 71:-0.713231 72:-0.965251 73:-0.969538 74:-0.852947 75:-0.971706 76:-0.894365 77:-0.942786 78:-0.95134 79:-0.826999 80:-1 81:-0.447728 82:-0.749666 83:-0.941357 84:-0.952906 85:-0.973081 86:-0.623184 87:-0.922373 88:-0.927477 89:-0.966478 90:-1 91:1 92:-0.971083 93:-0.897574 94:-0.96576 95:-0.959285 96:-0.958744 97:-0.950128 98:-0.897145 99:-0.987387 100:-0.972596 101:-0.94306 102:-0.980888 103:-0.922848 104:-0.986778 105:-0.95587 106:-0.739071 107:-0.967889 108:-0.984627 109:-0.996763 110:-0.915143 111:-0.77964 112:-0.9417 113:-0.983292 114:-0.816582 115:-0.917186 116:-0.935686 117:-0.979259 118:-0.997329 119:-0.825277 120:-0.944537 121:-0.0668679 122:-0.258402 123:-0.338578 124:-0.371669 125:0.0395668 126:0.376833 127:0.460897 128:0.495278 129:0.471142 130:0.432886 131:0.413344 132:0.428212 133:0.391099 134:0.336764 135:0.17942 136:0.0639696 137:0.00564004 138:0.0836651 139:0.120421 140:0.298543 141:0.12992 142:0.156919 143:-0.0925897 144:-0.139879 145:-0.0761118 146:-0.201138 147:-0.0752331 148:-0.247188 149:-0.598908 150:-0.562467 151:-0.273664 152:-0.252443 153:-0.300244 154:-0.183534 155:-0.23943 156:-0.347118 157:-0.124116 158:-0.0331283 159:0.15569 160:0.0206392 161:-0.00937402 162:-0.0426549 163:-0.0868887 164:0.05236 165:0.0589362 166:-0.0277117 167:0.0040103 168:0.0844103 169:0.100468 170:-0.0305048 171:-0.127039 172:-0.0970427 173:-0.0141422 174:-0.118121 175:0.0243166 176:0.0479257 177:0.056117 178:-0.0779543 179:0.0559878 180:0.0705145 181:0.0861671 182:0.130725 183:0.193207 184:0.0827471 185:0.0285968 186:-0.0151355 
0.063184318732563 0:0.878378 1:0.119497 2:-0.371069 3:-0.6 4:0.395918 5:-0.0246914 6:0.034965 7:-0.572519 8:-0.313808 9:-0.374545 10:0.0628019 11:0.781818 12:0.416149 13:0.188811 14:0.131783 15:-0.0925926 16:-0.177419 17:-0.435897 18:0.347518 19:-0.0408163 20:0.0727273 21:0.0573248 22:-0.39267 23:-0.358621 24:0.28 25:0.173653 27:0.00892857 28:-0.176471 29:0.0894309 30:-0.00854701 31:0.174825 32:-0.15873 33:0.0853659 34:0.185629 35:-0.421488 36:0.123967 37:0.476636 38:-0.139785 39:-0.382114 40:0.16129 41:-0.0704225 42:0.0225564 43:0.262411 44:-0.142857 45:-0.487437 46:0.252525 47:-0.28 48:0.0447761 49:0.0958904 50:-0.115385 51:-0.232704 52:0.0948905 53:0.252033 54:-0.229358 55:-0.333333 56:-0.122581 57:-0.344262 58:0.0677966 59:0.135135 61:-0.923935 62:-0.929309 63:-0.924169 64:-0.985883 65:-0.910958 66:-0.891242 67:-0.987689 68:-0.951955 69:-0.942095 70:-0.928272 71:-0.921388 72:-0.973342 73:-0.98338 74:-0.851864 75:-0.984647 76:-0.939782 77:-0.148548 78:-0.936862 79:-0.979447 80:-0.902952 81:-0.935562 82:-0.993284 83:-0.853638 84:-0.684453 85:-0.980757 86:-0.975772 87:-0.643259 88:-0.95416 89:-0.988725 90:-0.963397 91:-0.843672 92:-0.979666 93:-0.720543 94:-0.914359 95:-0.990864 96:-0.990706 97:-0.555245 98:-0.998259 99:-0.925589 100:-0.905453 101:-0.968589 102:-0.856364 103:-0.987419 104:-0.839776 105:-0.997699 106:-0.587055 107:-0.982925 108:-0.945186 109:-0.994444 110:-0.923178 111:-0.691826 112:-0.982813 113:-0.979608 114:-0.872216 115:-0.892573 116:-0.999198 117:-0.4748 118:-0.872774 119:-0.860114 120:-0.997193 121:-0.372211 122:-0.0767091 123:-0.450278 124:-0.617742 125:0.140136 126:0.492884 127:0.597302 128:0.619313 129:0.457414 130:0.475076 131:0.503595 132:0.452564 133:0.374014 134:0.273767 135:-0.16806 136:-0.270651 137:-0.161553 138:-0.0632349 139:0.0311423 140:0.267124 141:0.103533 142:0.132014 143:-0.124865 144:-0.0112613 145:0.0180392 146:0.0796297 147:0.110767 148:-0.149796 149:-0.416428 150:-0.386376 151:-0.0629837 152:-0.0234876 153:-0.185992 154:-0.151721 155:-0.0631395 156:-0.160068 157:-0.260031 158:-0.206219 159:0.0874541 160:-0.0104447 161:-0.164014 162:-0.164014 163:-0.143834 164:-0.133829 165:-0.130636 166:-0.120168 167:-0.0283982 168:0.0494066 169:-0.0240532 170:-0.159054 171:-0.256005 172:-0.12792 173:-0.0927216 174:-0.141389 175:-0.00204473 176:-0.0017537 177:0.0387642 178:-0.133453 179:0.0606394 180:0.0504827 181:0.0336496 182:0.0943216 183:0.0779665 184:0.10101 185:0.14017 186:0.0904816 
0.2996682594989485 0:-0.0405405 1:0.245283 2:-0.358491 3:0.130435 4:0.346939 5:0.641975 6:0.230769 7:-0.587786 8:-0.112971 9:-0.221818 10:0.0821256 11:0.672727 12:0.838509 13:-0.034965 14:-0.348837 15:-0.333333 16:-0.112903 17:-0.435897 18:0.0496454 19:0.163265 20:0.218182 21:-0.312102 22:-0.769634 23:-0.496552 24:0.371429 25:0.293413 26:0.19403 27:0.0714286 28:-0.735294 29:-0.121951 30:-0.230769 31:0.468531 32:0.396825 33:0.146341 34:-0.0179641 35:-0.719008 36:0.123967 37:0.738318 38:-0.139785 39:-0.154472 40:-0.16129 41:-0.253521 42:-0.233083 43:0.0780142 44:0.0884354 45:-0.306533 46:0.0707071 47:-0.76 48:0.358209 49:0.438356 50:-0.442308 51:-0.232704 52:0.284672 53:0.252033 54:-0.229358 55:-0.311111 56:-0.148387 57:-0.191257 58:-0.271186 59:-0.202703 60:-0.176471 61:-0.948545 62:-0.887326 63:-0.927884 64:-0.970483 65:-0.735923 66:-0.991266 67:-0.947127 68:-0.983139 69:-0.967042 70:-0.782738 71:-0.978017 72:-0.701281 73:-0.982815 74:-0.957753 75:-0.950592 76:-0.940658 77:-0.864904 78:-0.937171 79:-0.942697 80:-0.899877 81:-0.920383 82:-0.986573 83:-0.90274 84:-0.893864 85:-0.970324 86:-0.985668 87:-0.761886 88:-0.898273 89:-0.974326 90:-0.961504 91:-0.928858 92:-0.983507 93:-0.836555 94:-0.877769 95:-0.977988 96:-0.988478 97:-0.803265 98:-0.987949 99:-0.72658 100:-0.99254 101:-0.878724 102:-0.99119 103:-0.98586 104:-0.880772 105:-0.965473 106:-0.810261 107:-0.995878 108:-0.903195 109:-0.985552 110:-0.956807 111:-0.890169 112:-0.962038 113:-0.914349 114:-0.993488 115:-0.832125 116:-0.946739 117:-0.940928 118:-0.933883 119:-0.930103 120:-0.992765 121:-0.266164 122:-0.49276 123:-0.0108339 124:-0.850963 125:0.140099 126:0.283089 127:0.37931 128:0.382072 129:0.416523 130:0.405275 131:0.640737 132:0.668133 133:0.461355 134:0.55006 135:0.3196 136:0.160323 137:0.263783 138:0.477703 139:0.419655 140:0.394064 141:0.211726 142:0.259332 143:0.0727931 144:0.0464974 145:0.130068 146:0.310544 147:0.14549 148:-0.218445 149:-0.583594 150:-0.497154 151:-0.212576 152:-0.104806 153:-0.191838 154:-0.474724 155:-0.349258 156:-0.478471 157:-0.375884 158:-0.180992 159:0.0986211 160:-0.0173244 161:-0.314187 162:-0.314187 163:-0.142454 164:-0.209592 165:-0.0767995 166:0.0138246 167:0.0196603 168:-0.0180653 169:-0.129197 170:-0.130438 171:-0.172897 172:-0.134754 173:-0.204104 174:-0.163603 175:0.106043 176:-0.0226934 177:0.0221983 178:-0.116669 179:0.0974712 180:0.0460491 181:0.0194364 182:0.0753934 183:0.110694 184:0.0266955 185:-0.0152233 186:-0.0422269 
0.2331669749828807 0:0.0810811 1:0.245283 2:-0.245283 3:-0.182609 4:0.314286 5:-0.148148 6:0.104895 7:-0.267176 8:-0.34728 9:-0.163636 10:0.449275 11:0.0545455 12:0.453416 13:-0.0909091 14:-0.0697674 15:-0.0925926 16:-0.225806 17:-0.435897 18:-0.716312 19:-0.44898 20:0.418182 21:0.579618 22:-0.371728 23:-0.496552 24:0.222857 25:0.329341 26:0.0447761 27:0.1875 28:-0.176471 29:-0.138211 30:-0.00854701 31:0.216783 32:0.126984 33:0.134146 34:1 35:-0.173554 36:0.0413223 37:0.102804 38:-0.139785 39:-0.219512 40:-0.16129 41:-0.605634 42:0.548872 43:0.262411 44:0.265306 45:-0.386935 46:0.121212 47:-0.76 48:0.0447761 49:0.506849 50:-0.115385 51:-0.232704 52:0.0948905 53:0.252033 54:-0.229358 55:-0.222222 56:-0.251613 57:-0.234973 58:-0.271186 59:-0.297297 60:-0.360294 61:-0.927047 62:0.468278 63:-0.998399 64:-0.977242 65:-0.967352 66:-0.932461 67:-0.95548 68:-0.917311 69:-0.9896 70:-0.842656 71:-0.938793 72:-0.903072 73:-0.950001 74:-0.985777 75:-0.932916 76:-0.351908 77:-0.999504 78:0.896948 79:-0.996877 80:-0.507771 81:-0.993746 82:-0.983154 83:-0.891105 84:-0.912656 85:-0.976861 86:-0.844312 87:-0.921417 88:-0.968614 89:-0.913063 90:-0.972511 91:-0.909142 92:-0.969781 93:-0.340855 94:-0.917723 95:-0.99104 96:-0.991066 97:-0.890552 98:-0.998784 99:-0.708642 100:-0.82959 101:-0.957487 102:-0.982464 103:-0.977968 104:-0.974425 105:-0.901592 106:-0.63475 107:-0.985993 108:-0.99967 109:1 110:-1 111:-0.861911 112:-0.927117 113:-0.194008 114:-0.996693 115:-0.681146 116:-0.978968 117:-0.984683 118:-0.202473 119:-0.983069 120:-0.994302 121:-0.433678 122:-0.180008 123:-0.356345 124:-0.287266 125:0.0816789 126:0.47996 127:0.591949 128:0.647061 129:0.597779 130:0.602808 131:0.604829 132:0.572243 133:0.526637 134:0.42964 135:0.237595 136:0.326357 137:0.20124 138:0.272166 139:0.332546 140:0.424661 141:0.32225 142:0.338445 143:0.121784 144:-0.308444 145:-0.29554 146:-0.0213602 147:0.0701463 148:-0.0631509 149:-0.500854 150:-0.479089 151:-0.174294 152:-0.130662 153:-0.197205 154:-0.230166 155:-0.201592 156:-0.247438 157:-0.270998 158:-0.162763 159:0.0139741 160:-0.0913128 161:-0.0709657 162:-0.0879522 163:-0.130093 164:-0.15277 165:-0.149921 166:-0.139685 167:-0.35946 168:-0.0416593 169:-0.0503391 170:-0.196313 171:-0.310726 172:-0.258636 173:-0.296135 174:-0.203754 175:-0.0556482 176:-0.0463552 177:0.00347884 178:-0.175622 179:0.024611 180:-0.0233974 181:0.00337562 182:0.04849 183:0.0662433 184:-0.0457251 185:-0.0608163 186:-0.179638 
0.9403266948420973 0:-0.027027 1:0.245283 2:-0.0943396 3:0.182609 4:0.281633 5:-0.345679 6:-0.048951 7:-0.450382 8:-0.179916 9:-0.28 10:0.42029 11:0.981818 12:0.217391 13:-0.034965 14:-0.209302 15:-0.0185185 16:-0.483871 17:-0.273504 18:-0.0638298 19:-0.0816327 20:-0.0727273 21:-0.0955414 22:-0.371728 23:-0.496552 24:0.371429 25:0.437126 26:0.283582 27:0.0178571 28:-0.455882 29:-0.609756 30:-0.470085 31:0.552448 32:0.492063 33:-0.0609756 34:0.0419162 35:-0.355372 36:0.38843 37:0.102804 38:0.204301 39:-0.284553 40:-0.16129 41:-0.126761 42:0.488722 43:0.262411 44:-0.0884354 45:-0.427136 46:-0.20202 47:-0.28 48:-0.0149254 49:-0.164384 50:-0.269231 51:-0.232704 52:0.0364964 53:0.252033 54:-0.229358 55:-0.222222 56:-0.251613 57:-0.234973 58:-0.20339 59:-0.675676 60:-0.330882 61:-0.822611 62:-0.965753 63:-0.801459 64:-0.975296 65:-0.959336 66:-0.966559 67:-0.923148 68:-0.991346 69:-0.85812 70:-0.924395 71:-0.649764 72:-0.99634 73:-0.966489 74:-0.814227 75:-0.996544 76:0.648781 77:-0.96613 78:-0.873672 79:-0.963747 80:-0.95763 81:-0.899276 82:-0.989416 83:-0.801511 84:-0.7088 85:-0.989549 86:-0.992981 87:0.130913 88:-0.890831 89:-0.980076 90:-0.981583 91:-0.87707 92:-0.994707 93:-0.685805 94:-0.961993 95:-0.973718 96:-0.988986 97:-0.863643 98:-0.993173 99:-0.0294337 100:-0.987707 101:-0.96538 102:-0.347514 103:-0.992712 104:-0.967147 105:-0.981568 106:-0.924074 107:-0.985403 108:-0.977521 109:-0.96114 110:-0.826113 111:-0.951844 112:-0.973047 113:-0.992695 114:-0.767228 115:-0.649381 116:-0.999704 117:-0.954417 118:-0.765127 119:-0.656585 120:-0.994264 121:-0.219413 122:-0.39986 123:-0.420302 124:-0.998242 125:-0.0627887 126:0.329544 127:0.42758 128:0.504722 129:0.514949 130:0.490003 131:0.409727 132:0.300301 133:0.270729 134:0.227925 135:-0.140572 136:0.0426571 137:0.392175 138:0.358763 139:0.429738 140:0.4887 141:0.336923 142:0.190086 143:0.100524 144:0.0380433 145:-0.008071 146:-0.0314591 147:-0.00534483 148:-0.100891 149:-0.503651 150:-0.357381 151:0.0361298 152:0.0719432 153:-0.0826336 154:-0.216532 155:-0.345639 156:-0.475185 157:-0.34132 158:-0.195101 159:-0.141685 160:-0.132654 161:-0.261718 162:-0.163573 163:-0.20222 164:-0.145546 165:-0.23899 166:-0.229826 167:-0.181246 168:0.296264 169:0.222461 170:0.0282641 171:-0.0931278 172:-0.249317 173:0.0213727 174:-0.0438718 175:-0.0141873 176:-0.0526894 177:0.0307711 178:-0.0675153 179:0.134895 180:-0.0125552 181:0.0960452 182:0.121792 183:0.143947 184:0.0651154 185:-0.0862913 186:-0.085315 
2.667974198275542 0:0.162162 1:0.484277 2:-0.081761 3:-0.2 4:0.363265 5:-0.0740741 6:-0.00699301 7:-0.267176 8:-0.146444 9:-0.207273 10:0.15942 11:-0.0545455 12:0.341615 13:0.174825 14:-0.0232558 15:-0.0925926 16:-0.177419 17:-0.547009 18:-0.41844 19:0.428571 20:0.0727273 21:0.0573248 22:-0.287958 23:-0.496552 24:0.0628571 25:0.293413 26:-0.0895522 27:0.303571 28:-0.176471 29:-0.00813008 30:-0.00854701 31:-0.00699301 32:-0.0952381 34:0.257485 35:0.00826446 36:0.22314 37:-0.00934579 38:-0.139785 39:-0.219512 40:-0.258065 41:-0.0704225 42:-0.0676692 43:0.177305 44:-0.142857 45:-0.447236 46:0.020202 47:-0.28 48:-0.0447761 49:0.0136986 50:-0.230769 51:-0.232704 52:0.0948905 53:0.252033 54:-0.119266 55:-0.155556 56:-0.00645161 57:-0.169399 58:-0.271186 59:-0.256757 60:-0.264706 61:-0.68202 62:-0.637835 63:-0.978554 64:-0.981939 65:-0.477883 66:-0.992903 67:-0.962576 68:-0.961725 69:-0.994909 70:-0.790403 71:-0.972383 72:-0.95452 73:-0.931075 74:-0.966395 75:-0.944668 76:-0.538494 77:-0.958624 78:-0.917141 79:-0.959849 80:-0.917286 81:-0.932031 82:-0.982302 83:-0.969991 84:-0.24702 85:-0.982803 86:-0.957734 87:-0.936717 88:-0.845589 89:-0.989239 90:-0.972653 91:-0.843834 92:-0.933885 93:-0.926461 94:-0.964777 95:-0.970813 96:-0.98591 97:-0.952166 98:-0.971327 99:-0.935554 100:-0.925691 101:-0.940851 102:-0.882171 103:-0.990398 104:-0.917835 105:-0.994984 106:-0.838522 107:-0.996234 108:-0.743814 109:-0.998635 110:-0.818308 111:-0.604773 112:-0.782019 113:-0.986454 114:-0.959459 115:-0.680706 116:-0.980664 117:-0.958052 118:-0.975124 119:-0.970261 120:-0.983441 121:-0.254985 122:-0.0878135 123:-0.628109 124:-0.435321 125:-0.158952 126:0.404953 127:0.54347 128:0.602516 129:0.568028 130:0.543447 131:0.61995 132:0.55634 133:0.460539 134:0.498213 135:0.290611 136:0.200077 137:0.100369 138:0.150017 139:0.2291 140:0.339255 141:0.237169 142:0.258143 143:-0.00978278 144:-0.266626 145:-0.155793 146:-0.215565 147:-0.134727 148:-0.129884 149:-0.564241 150:-0.60797 151:-0.330088 152:-0.280667 153:-0.258742 154:-0.265141 155:-0.111967 156:-0.300445 157:-0.363773 158:-0.298945 159:-0.0574698 160:-0.0568516 161:-0.0478138 162:-0.0478138 163:-0.129493 164:-0.157384 165:-0.115864 166:-0.105217 167:0.00505363 168:0.0413776 169:-0.0039176 170:-0.143753 171:-0.280925 172:-0.251926 173:-0.11335 174:-0.197756 175:-0.0659033 176:-0.0548881 177:-0.00327176 178:-0.148023 179:0.0707459 180:0.0458878 181:0.0867356 182:0.179215 183:0.228414 184:0.1489 185:0.0813196 186:-0.0159303 
1.412572458875416 0:0.0810811 1:0.106918 2:-0.106918 3:-0.0956522 4:0.404082 5:-0.283951 6:0.174825 7:-0.435115 8:-0.146444 9:-0.243636 10:0.0531401 11:0.0545455 12:0.416149 13:-0.244755 14:-0.0232558 15:0.111111 17:-0.529915 18:0.0921986 19:0.163265 20:-0.127273 21:-0.0828025 22:-0.403141 23:-0.572414 24:0.0285714 25:0.161677 26:0.492537 27:-0.107143 28:-0.176471 29:0.626016 30:-0.196581 31:0.328671 33:-0.560976 34:0.185629 35:-0.272727 36:0.123967 37:0.308411 38:-0.139785 39:-0.219512 40:-0.16129 41:-0.225352 42:-0.142857 43:0.262411 44:-0.142857 45:-0.386935 46:0.151515 47:-0.104 48:0.0447761 49:0.246575 50:0.0961538 51:-0.232704 52:0.0948905 53:0.252033 54:-0.229358 55:-0.222222 56:-0.109677 57:-0.234973 58:-0.271186 59:-0.256757 60:-0.279412 61:-0.697004 62:-0.956861 63:-0.901934 64:-0.937137 65:-0.912461 66:-0.998845 67:-0.771258 68:-0.950445 69:-0.990515 70:-0.862226 71:-0.987593 72:-0.45235 73:-0.973906 74:-0.964879 75:-0.921324 76:-0.695966 77:-0.982428 78:-0.749029 79:-0.989936 80:-0.603356 81:-0.937546 82:-0.981933 83:-0.663491 84:-0.956606 85:-0.971561 86:-0.990081 87:-0.873176 88:-0.918683 89:-0.773201 90:-0.993085 91:-0.848545 92:-0.987008 93:-0.962799 94:-0.16879 95:-0.995825 96:-0.954628 97:-0.984642 98:-0.989779 99:-0.742236 100:-0.941929 101:-0.965198 102:-0.96683 103:-0.980009 104:-0.845545 105:-0.998193 106:-0.492118 107:-0.993151 108:-0.956065 109:-0.964278 110:-0.85656 111:-0.828492 112:-0.937325 113:-0.980204 114:-0.998398 115:0.268106 116:-0.972896 117:-1 118:-0.71528 119:-0.759134 120:-0.986387 121:-0.311678 122:-0.337588 123:-0.219557 124:-0.875697 125:-0.00383174 126:0.426886 127:0.495858 128:0.548774 129:0.474779 130:0.500135 131:0.489127 132:0.480642 133:0.440437 134:0.444842 135:0.258423 136:0.138564 137:0.0434372 138:0.15835 139:0.127505 140:0.238613 141:0.206121 142:0.22884 143:0.000616238 144:-0.0250073 145:0.00434098 146:-0.0159901 147:0.0139703 148:-0.10564 149:-0.57232 150:-0.60315 151:-0.412084 152:-0.196783 153:-0.443777 154:-0.535781 155:0.0518869 156:-0.179909 157:-0.169179 158:-0.114284 159:-0.136564 160:0.0300832 161:-0.0690154 162:0.000125826 163:-0.112031 164:-0.101654 165:-0.0978768 166:-0.0870136 167:-0.057807 168:-0.0598303 169:-0.0720755 170:-0.195544 171:-0.292614 172:-0.155939 173:-0.0645436 174:-0.173044 175:0.0313001 176:0.0259914 177:0.106229 178:-0.113552 179:0.129525 180:0.0766006 181:0.0915325 182:0.156281 183:0.139175 184:0.0914051 185:0.0563842 186:-0.0424919 
