svm_type one_class
kernel_type linear
nr_class 2
total_sv 88
rho 4470.33
SV
1 0:0.0810811 1:0.0440252 2:-0.245283 3:0.182609 4:0.314286 5:0.0493827 6:0.174825 7:-0.267176 8:-0.146444 9:-0.0472727 10:0.31401 11:0.0545455 12:0.416149 13:-0.538462 14:-0.0232558 15:-0.388889 16:-0.435484 17:-0.299145 18:-0.0638298 19:0.163265 20:0.0727273 21:-0.146497 22:0.21466 23:-0.386207 24:0.28 25:0.293413 27:0.0446429 28:-0.411765 29:0.0894309 30:-0.00854701 31:0.174825 32:-0.253968 33:-0.158537 34:-0.00598802 35:-0.355372 36:0.38843 37:1 38:-0.139785 39:-0.219512 40:-0.16129 41:0.15493 42:0.0225564 43:0.489362 44:0.0748299 45:-0.226131 46:0.151515 47:-0.28 48:0.0447761 49:-0.342466 50:-0.423077 51:-0.433962 52:-0.138686 53:0.252033 54:-0.229358 55:-0.222222 56:-0.251613 57:-0.234973 58:-0.271186 59:-0.256757 60:-0.360294 61:-0.889318 62:-0.990768 63:-0.921211 64:-0.953479 65:-0.765136 66:-0.974395 67:-0.998179 68:0.0539349 69:-0.978961 70:-0.962221 71:-0.966946 72:-0.990722 73:-0.670528 74:-0.988721 75:-0.457245 76:-0.958368 77:-0.952468 78:-0.865223 79:-0.990615 80:-0.827575 81:-0.971348 82:1 83:-0.983277 84:-0.780272 85:-0.996748 86:-0.930417 87:-0.940937 88:-0.942524 89:-0.953524 90:-0.974713 91:-0.543386 92:-0.917725 93:-0.99175 94:-0.91057 95:-0.961397 96:-0.999094 97:0.316774 98:-0.977372 99:-0.998793 100:-0.205082 101:-0.988185 102:-0.83137 103:-0.97647 104:-0.623096 105:-0.998019 106:-0.891962 107:-0.989262 108:-0.962305 109:-0.986435 110:-0.883633 111:-0.970458 112:-0.829788 113:-0.971873 114:-0.951888 115:-0.866785 116:-0.99287 117:-0.931882 118:-0.867065 119:-0.949691 120:-0.993325 121:0.0240704 122:-0.000818388 123:-0.111042 124:-0.10381 125:-0.279985 126:0.340337 127:0.391273 128:0.407389 129:0.412264 130:0.322402 131:0.427333 132:0.4192 133:0.382617 134:0.377269 135:0.0620919 136:0.219602 137:0.118441 138:0.0708268 139:0.00574346 140:0.218447 141:0.0167517 142:0.050107 143:0.0137883 144:-0.0849601 145:-0.157593 146:-0.217809 147:-0.0905673 148:0.26485 149:-0.255565 150:-0.309146 151:0.122739 152:0.0769269 153:-0.0580295 154:-0.0576651 155:0.199816 156:-0.0747303 157:-0.134875 158:-0.194311 159:-0.0205139 160:-0.0586028 161:-0.289022 162:-0.189053 163:-0.0358236 164:-0.0245561 165:-0.117594 166:-0.106969 167:0.0250073 168:-0.00482445 169:-0.00627659 170:-0.0438206 171:-0.038343 172:-0.0770378 173:0.0029773 174:-0.0414283 175:0.0112303 176:0.00929198 177:-0.0183053 178:-0.185198 179:0.00236806 180:-0.0445981 181:-0.0153146 182:0.0670282 183:0.0858946 184:0.049513 185:0.0205804 186:-0.109691 
1 0:-0.189189 1:0.245283 2:-0.496855 3:-0.443478 4:0.485714 5:-0.407407 6:0.174825 7:-0.267176 8:-0.146444 9:-0.163636 10:0.362319 11:0.0545455 12:0.677019 13:-0.0909091 14:-0.0232558 15:-0.0925926 16:-0.5 17:-0.25641 18:0.219858 19:1 20:-0.672727 21:0.0573248 22:-0.078534 23:-0.496552 24:0.0514286 25:0.293413 27:0.00892857 28:-0.470588 29:0.414634 30:-0.00854701 31:0.174825 33:0.0853659 34:0.185629 35:-0.421488 36:0.454545 37:0.102804 38:-0.569892 39:-0.544715 40:-0.16129 41:-0.0704225 42:0.0225564 43:0.546099 44:-0.142857 45:-0.386935 46:0.151515 47:-0.6 48:-0.253731 49:0.0958904 50:-0.115385 51:0.0314465 52:-0.19708 53:-0.0731707 54:-0.229358 55:-0.455556 56:-0.251613 57:-0.234973 58:-0.271186 59:-0.256757 60:-0.0588235 61:-0.964979 62:-0.711825 63:-0.942662 64:-0.954703 65:-0.938233 66:-0.988396 67:-0.949093 68:-0.973464 69:-0.985222 70:-0.544292 71:-0.772522 72:-0.995203 73:-0.853582 74:-0.988494 75:-0.850112 76:-0.968891 77:-0.848241 78:-0.997457 79:1 80:-0.976154 81:-0.789977 82:-0.998254 83:-0.731146 84:-0.919769 85:-0.968766 86:-0.979781 87:-0.895315 88:-0.902185 89:-0.950322 90:-0.977505 91:-0.959837 92:-0.833541 93:-0.987839 94:-0.849584 95:-0.907117 96:-0.976562 97:-0.947884 98:-0.954649 99:-0.985081 100:-0.987675 101:-0.704306 102:-0.990815 103:-0.984773 104:-0.459293 105:-0.996695 106:-0.91801 107:-0.622509 108:-0.95572 109:-0.996504 110:-0.903001 111:-0.541852 112:-0.991951 113:-0.746998 114:-0.996295 115:-0.698263 116:-0.944747 117:-0.987934 118:-0.971338 119:-0.866553 120:-0.9738 121:-0.0859298 122:0.0452574 123:-0.0117505 124:-0.0576393 125:-0.280652 126:0.463036 127:0.566289 128:0.524379 129:0.41767 130:0.390232 131:0.275984 132:0.268713 133:0.324553 134:0.309411 135:0.072865 136:0.15809 137:0.0615089 138:0.109403 139:0.0162731 140:0.128426 141:0.0271428 142:0.0599144 143:-0.0604683 144:-0.0149398 145:0.146146 146:-0.167715 147:0.106565 148:0.261268 149:-0.328007 150:-0.388539 151:-0.0659048 152:0.0748051 153:-0.0848124 154:-0.225819 155:0.0621525 156:-0.227299 157:-0.267568 158:-0.0433997 159:0.144461 160:-0.0195134 161:-0.0497641 162:0.0791444 163:-0.0936694 164:-0.0830779 165:-0.0789628 166:-0.0678719 167:0.0957582 168:0.183505 169:0.219007 170:-0.105534 171:-0.202312 172:-0.136928 173:-0.0482748 174:-0.208752 175:-0.0783604 176:-0.0652532 177:0.0733869 178:-0.179002 179:0.0093454 180:-0.120534 181:-0.0822585 182:0.0165532 183:0.032389 184:-0.0863546 185:-0.0165722 186:0.0619991 
1 0:-0.121622 1:0.0566038 2:-0.622642 3:0.165217 4:0.436735 5:-0.148148 6:0.174825 7:-0.496183 8:-0.146444 9:-0.163636 10:0.304348 11:-0.218182 12:0.602484 13:-0.0909091 14:-0.0232558 15:0.185185 16:0.0645161 17:-0.188034 18:-0.276596 19:0.469388 20:0.0727273 21:0.248408 22:-0.287958 23:-0.496552 24:0.28 25:-0.0538922 27:0.1875 28:0.0441176 29:0.0894309 30:-0.00854701 31:0.384615 32:0.238095 33:-0.158537 34:0.185629 35:0.38843 36:0.123967 37:0.383178 38:-0.462366 39:-0.219512 40:-0.403226 41:-0.0704225 42:-0.203008 43:0.262411 44:0.0612245 45:-0.537688 46:2.22045e-16 47:-0.28 48:0.492537 49:0.0958904 50:-0.961538 51:0.509434 52:-0.343066 53:0.96748 54:0.302752 55:0.1 56:-0.63871 57:-0.234973 58:-0.271186 59:-0.256757 60:0.514706 61:-0.785583 62:-0.943006 63:-0.963764 64:-0.971014 65:-0.954183 66:-0.985505 67:-0.684953 68:-0.994562 69:-0.940761 70:-0.92253 71:-0.868497 72:-0.975768 73:-0.983414 74:-0.864053 75:-0.985768 76:-0.547538 77:-0.799116 78:-1 79:-0.934443 80:-0.037285 81:-0.98187 82:-0.984699 83:-0.886146 84:-0.910749 85:-0.881455 86:-0.997565 87:-0.438444 88:-0.942027 89:-0.989448 90:-0.953501 91:-0.944422 92:-0.951247 93:-0.90421 94:-0.965263 95:-0.874932 96:-0.998621 97:-0.227056 98:-0.992044 99:1 100:-0.991689 101:-0.986502 102:-0.875899 103:-0.97845 104:-0.974627 105:-0.959904 106:-0.937412 107:-0.98889 108:-0.925267 109:-0.989339 110:-0.239528 111:-0.976464 112:-0.94183 113:-0.979442 114:-0.978123 115:-0.897841 116:-0.956039 117:-0.946915 118:-0.9413 119:-0.996172 120:-0.914496 121:0.202625 122:0.100619 123:-0.276383 124:-0.203781 125:-0.302578 126:0.471527 127:0.486946 128:0.369767 129:0.368425 130:0.332109 131:0.364013 132:0.356241 133:0.323371 134:0.30803 135:0.167211 136:0.119548 137:-0.0612136 138:-0.0188563 139:0.0144225 140:0.126592 141:0.118143 142:0.145804 143:0.120089 144:-0.0910264 145:0.0333451 146:-0.0979842 147:0.128313 148:0.115138 149:-0.405864 150:-0.321404 151:-0.0507867 152:-0.0117438 153:-0.0691359 154:0.12274 155:0.275557 156:-0.0872202 157:-0.0691268 158:0.0564366 159:0.162662 160:0.127087 161:0.190437 162:0.0977037 163:0.135434 164:0.0592199 165:0.0659208 166:-0.0134493 167:0.0188778 168:-0.00334542 169:-0.00450735 170:-0.144202 171:-0.335774 172:-0.357604 173:-0.158754 174:-0.128506 175:-0.080185 176:-0.375422 177:-0.0126729 178:-0.290789 179:0.0704499 180:0.139114 181:0.146644 182:-0.0889692 183:-0.0794695 184:-0.220599 185:-0.210275 186:0.0824667 
1 0:0.0810811 1:0.245283 2:-0.245283 3:-0.0956522 4:0.208163 5:-0.148148 6:0.356643 7:-0.0687023 8:-0.146444 9:-0.258182 10:0.285024 11:0.290909 12:0.254658 13:-0.0909091 14:-0.0232558 15:-0.0925926 16:0.0322581 17:-0.435897 18:-0.0638298 19:0.428571 20:0.309091 21:0.0573248 22:-0.424084 23:-0.496552 24:-0.0285714 25:0.293413 26:0.597015 27:0.1875 28:0.0147059 29:-0.121951 30:-0.230769 31:-0.00699301 33:-0.317073 34:0.341317 35:0.355372 36:0.123967 37:0.345794 38:-0.139785 39:-0.219512 40:-0.16129 41:-0.0704225 42:0.218045 43:0.64539 44:-0.142857 45:-0.386935 46:-0.121212 47:0.152 48:-0.358209 49:0.273973 50:0.134615 51:-0.232704 52:-0.0948905 53:0.252033 54:0.00917431 55:-0.0777778 56:-0.251613 57:-0.377049 58:-0.271186 59:-0.256757 60:-0.0661765 61:1 62:-0.973804 63:-0.919858 64:-0.993656 65:-0.66215 66:-0.99278 67:-0.8498 68:-0.939731 69:-0.976203 70:-0.965599 71:-0.748707 72:-0.962976 73:-0.994251 74:-0.0692983 75:-0.970263 76:-0.973561 77:-0.727913 78:-0.981603 79:-0.934542 80:-0.826229 81:-0.95721 82:-0.98658 83:-0.477528 84:-0.535308 85:-0.991433 86:-0.998542 87:-0.787335 88:-0.777696 89:-0.989288 90:-0.919856 91:-0.901248 92:-0.943066 93:-0.919722 94:-0.906622 95:-0.966603 96:-0.992393 97:-0.969801 98:-0.979123 99:-0.728445 100:-0.979207 101:-0.826554 102:-0.934501 103:-0.985462 104:-0.956753 105:-0.988825 106:-0.942668 107:-0.852178 108:-0.998694 109:-0.92135 110:-0.958294 111:0.48982 112:-0.998354 113:-0.935536 114:-0.966299 115:-0.85278 116:-0.985007 117:-0.943838 118:-0.942849 119:-0.979056 120:-0.908781 121:-0.482337 122:-0.0491621 123:-0.0508325 124:0.746519 125:-0.230293 126:0.488912 127:0.553339 128:0.574092 129:0.581396 130:0.531962 131:0.583039 132:0.631735 133:0.582621 134:0.547534 135:0.312157 136:0.346202 137:0.235612 138:0.126933 139:0.165156 140:0.191706 141:0.090182 142:0.198585 143:-0.0385919 144:-0.214804 145:-0.099135 146:-0.144953 147:-0.121752 148:-0.27843 149:-0.674679 150:-0.708273 151:-0.429406 152:-0.179118 153:-0.249389 154:-0.294846 155:-0.229296 156:-0.369528 157:-0.391268 158:-0.293357 159:-0.21097 160:-0.251673 161:-0.115697 162:-0.115697 163:-0.0766277 164:-0.146699 165:-0.14374 166:-0.133429 167:-0.0193342 168:0.153009 169:0.294747 170:0.083192 171:-0.0129737 172:-0.0365308 173:0.0376416 174:-0.153163 175:0.152222 176:0.0568774 177:0.0299843 178:-0.191431 179:0.0516746 180:0.0560851 181:0.0734463 182:0.0520346 183:0.0700008 184:0.0188492 185:-0.0569623 186:0.000132477 
1 0:-0.0810811 1:0.245283 2:0.0566038 3:-0.0956522 4:0.412245 6:0.174825 7:-0.267176 8:-0.246862 9:-0.163636 10:0.275362 11:0.0545455 12:0.416149 13:-0.0909091 14:-0.209302 15:0.12963 16:-0.370968 17:-0.435897 18:-0.0638298 19:-0.0816327 20:0.0727273 21:-0.0955414 22:-0.287958 23:-0.662069 24:0.417143 25:0.293413 26:0.179104 27:0.1875 28:-0.352941 29:0.0894309 30:-0.213675 31:0.00699301 32:-0.190476 33:-0.0121951 34:0.0419162 35:-0.0909091 36:-0.0743802 37:0.102804 38:0.11828 39:-0.219512 40:-0.16129 41:-0.0704225 42:0.203008 43:0.262411 44:-0.142857 45:-0.145729 46:0.151515 47:-0.28 48:-0.134328 49:0.0958904 50:-0.115385 51:-0.232704 52:0.0948905 53:0.252033 54:-0.229358 55:-0.0888889 56:-0.406452 57:-0.36612 58:-0.271186 59:-0.256757 60:-0.183824 61:-0.954953 62:-0.919591 63:-1 64:1 65:-0.993943 66:-0.869265 67:-1 68:0.960431 69:-0.972138 70:-0.935853 71:-0.922111 72:-0.939853 73:-0.899135 74:-0.992589 75:-0.773443 76:-0.97858 77:0.0251919 78:-0.990939 79:-0.953407 80:-0.604761 81:-0.961093 82:-0.995618 83:-0.836537 84:-0.48103 85:-0.993626 86:-0.766878 87:-0.977704 88:-0.711286 89:-1 90:1 91:-0.482409 92:-0.998615 93:-0.802643 94:-0.600466 95:-0.999782 96:-0.982127 97:1 98:-0.984663 99:-0.936861 100:-0.916332 101:-1 102:0.0859888 103:-0.978104 104:-1 105:1 106:-0.974799 107:-0.968737 108:-0.942115 109:-1 110:1 111:-0.986311 112:-0.496154 113:-0.983891 114:-0.944004 115:-0.901838 116:-0.97661 117:-0.921683 118:-0.931092 119:-0.967027 120:-0.999378 121:-0.181908 122:-0.146812 123:0.0236772 124:-0.260217 125:-0.324763 126:0.338927 127:0.473547 128:0.566524 129:0.490015 130:0.522449 131:0.514272 132:0.453171 133:0.463965 134:0.472337 135:0.375098 136:0.399994 137:0.213879 138:0.193964 139:0.234461 140:0.344565 141:0.31866 142:0.263136 143:0.0450624 144:-0.058759 145:-0.107174 146:-0.252034 147:-0.211324 148:-0.167791 149:-0.61036 150:-0.506224 151:-0.286886 152:-0.179315 153:-0.249601 154:-0.29511 155:-0.141908 156:-0.362536 157:-0.385187 158:-0.286754 159:-0.0468581 160:-0.161048 161:-0.115948 162:-0.115948 163:-0.156796 164:-0.146942 165:-0.21884 166:-0.133679 167:-0.106452 168:0.0503926 169:-0.0422511 170:-0.0953555 171:-0.114322 172:0.0233598 173:0.0888936 174:-0.0861332 175:0.0605555 176:0.0503337 177:0.0799718 178:-0.096091 179:0.0515054 180:0.00223696 181:0.112035 182:0.0948178 183:0.115353 184:0.0132125 185:-0.0104444 186:-0.0561701 
1 0:0.256757 1:0.0566038 2:-0.446541 3:0.217391 4:0.314286 5:0.17284 6:0.300699 7:-0.40458 8:-0.138075 9:-0.207273 10:0.140097 11:0.454545 12:0.515528 13:-0.0769231 14:-0.178295 15:0.0555556 16:-0.33871 17:-0.299145 18:-0.106383 19:0.0816327 20:0.0727273 21:-0.00636943 22:-0.267016 23:-0.386207 24:0.0171429 25:0.185629 26:-0.283582 27:0.1875 28:-0.0147059 29:0.0894309 30:0.0940171 31:-0.00699301 32:0.031746 33:-0.0731707 34:0.365269 35:-0.0743802 36:0.966942 37:-1 38:-0.139785 39:-0.512195 40:-0.16129 41:0.211268 42:0.473684 43:0.262411 44:-0.142857 45:-0.547739 46:0.151515 47:-0.216 48:0.134328 49:0.0958904 50:-0.153846 51:-0.232704 52:-0.124088 53:0.219512 54:-0.266055 55:-0.188889 56:-0.0580645 57:-0.0163934 58:-0.101695 59:0.148649 60:-0.419118 61:-0.921937 62:-0.292851 63:-0.97837 64:-0.995334 65:-0.954764 66:-0.943104 67:-0.866074 68:-0.966484 69:-0.996917 70:-0.564885 71:-0.938433 72:-0.893559 73:-0.971534 74:-0.911294 75:-0.991583 76:-0.959819 77:-0.834837 78:-0.745928 79:-0.981976 80:-0.956169 81:-0.708069 82:-0.995149 83:-0.770476 84:-0.672313 85:-0.987252 86:-0.921432 87:-0.86133 88:-0.960832 89:-0.960953 90:-0.976264 91:-0.936291 92:-0.964004 93:-0.934958 94:-0.888746 95:-0.98532 96:-0.877748 97:-0.967743 98:-0.993198 99:-0.777998 100:-0.968941 101:-0.976758 102:-0.889279 103:-0.977514 104:-0.899606 105:-0.995043 106:-0.921506 107:-0.946548 108:-0.876732 109:-0.993904 110:-0.939045 111:-0.949854 112:-0.810961 113:-0.93216 114:-0.978029 115:-0.914485 116:-0.991374 117:-0.924499 118:-0.846326 119:-0.907015 120:-0.998566 121:0.879452 122:-0.206399 123:0.148937 124:0.291882 125:-0.393975 126:0.401356 127:0.416156 128:0.388747 129:0.404302 130:0.394292 131:0.481806 132:0.5134 133:0.433587 134:0.441744 135:0.213894 136:0.152091 137:0.231891 138:0.325495 139:0.363944 140:0.297468 141:0.195541 142:0.0967071 143:-0.0123248 144:-0.226162 145:-0.235795 146:-0.315273 147:-0.218032 148:-0.182121 149:-0.491311 150:-0.528349 151:-0.291549 152:-0.334847 153:-0.378893 154:-0.380866 155:-0.227585 156:-0.282039 157:-0.315177 158:-0.181782 159:0.0376037 160:0.0260179 161:0.054168 162:0.377351 163:-0.0438644 164:0.0795568 165:-0.0276602 166:-0.022332 167:0.136839 168:0.437758 169:0.272084 170:0.0725649 171:-0.135774 172:-0.149167 173:-0.0368972 174:-0.0830788 175:0.00581962 176:-0.0113336 177:0.0311853 178:-0.194322 179:-0.00790765 180:-0.0958264 181:-0.0494972 182:0.0312278 183:0.117419 184:0.0342262 185:0.201526 186:0.0117573 
1 0:0.351351 1:0.333333 2:0.00628931 3:0.026087 4:0.314286 5:-0.148148 6:-0.104895 7:-0.78626 8:0.138075 9:-0.163636 10:0.0241546 11:-0.0727273 12:0.329193 13:0.188811 14:0.0852713 15:-0.351852 16:-0.0645161 17:-0.435897 18:0.319149 19:0.979592 20:0.8 21:-0.286624 22:-0.570681 23:-0.310345 24:0.28 25:0.209581 26:-0.492537 27:0.0714286 28:0.117647 29:0.414634 30:-0.230769 31:0.0769231 32:-0.428571 33:-0.487805 34:0.101796 35:0.68595 36:-0.206612 37:-0.401869 38:0.139785 39:-0.105691 40:-0.16129 41:-0.169014 42:0.0225564 43:0.0780142 44:-0.414966 45:-0.316583 46:0.292929 47:0.04 48:0.149254 50:-0.25 51:-0.735849 52:-0.109489 53:0.691057 54:0.761468 55:2.22045e-16 56:-0.767742 57:-0.311475 58:-0.389831 59:-0.0810811 60:-0.161765 61:-0.962927 62:-0.874667 63:-0.948827 64:-0.989865 65:-0.842371 66:-0.983318 67:-0.964077 68:-0.938095 69:-0.98724 70:-0.850609 71:-0.91192 72:-0.930819 73:-0.971906 74:-0.889027 75:-0.954362 76:-0.966808 77:-0.762178 78:-0.787473 79:-0.984713 80:-0.709565 81:-0.95432 82:-0.99001 83:-0.822911 84:-0.862076 85:-0.976844 86:-0.958073 87:-0.957008 88:-0.907335 89:-0.974269 90:-0.955003 91:-0.948629 92:-0.959352 93:-0.896427 94:-0.88085 95:-0.985723 96:-0.98879 97:-0.938943 98:-0.98686 99:-0.851753 100:-0.908356 101:-0.942355 102:-0.861786 103:-0.985753 104:-0.979904 105:-0.968793 106:-0.930171 107:-0.982298 108:-0.954369 109:-0.983386 110:-0.932793 111:-0.316249 112:-0.964088 113:-0.959553 114:-0.992062 115:-0.845814 116:-0.97278 117:-0.981919 118:-0.929554 119:-0.871088 120:-0.995287 121:-0.12946 122:0.270843 123:0.75109 124:0.214357 125:-0.414485 126:0.207132 127:0.34073 128:0.417602 129:0.393195 130:0.361344 131:0.362095 132:0.208267 133:0.0741503 134:0.145294 135:-0.151998 136:-0.278499 137:-0.382371 138:-0.312903 139:-0.160498 140:0.0812024 141:-0.0624095 142:0.0155136 143:-0.275843 144:-0.197122 145:0.136371 146:0.526871 147:0.395555 148:0.248605 149:-0.215039 150:-0.163036 151:0.23861 152:0.100563 153:-0.163142 154:0.0784785 155:0.364459 156:0.0890728 157:-0.0274428 158:-0.088549 159:0.0119382 160:-0.110076 161:0.156087 162:-0.0135892 163:-0.140114 164:-0.0481712 165:-0.0017616 166:-0.0319029 167:-0.000358645 168:0.0796915 169:-0.0188298 170:-0.241382 171:-0.3386 172:-0.185015 173:0.0539635 174:0.0118287 175:0.129133 176:0.107394 177:-0.0144952 178:-0.232398 179:-0.0507865 180:0.149312 181:0.203567 182:0.0617468 183:0.130984 184:0.0623647 185:0.109531 186:0.0783931 
1 0:0.405405 1:0.534591 2:-0.245283 3:-0.0956522 4:0.314286 5:-0.246914 6:0.0629371 7:-0.618321 8:-0.213389 9:-0.105455 10:0.0821256 11:-0.0909091 12:0.416149 13:1 14:0.224806 15:-0.37037 16:-0.177419 17:-0.632479 18:-0.0638298 19:-0.163265 20:0.0727273 21:0.656051 22:-0.204188 23:-0.282759 24:0.451429 25:0.293413 26:-0.462687 27:0.1875 28:-0.0588235 29:-0.0406504 30:-0.401709 31:0.0629371 32:-0.126984 33:0.219512 34:0.185629 35:-0.0909091 36:0.38843 37:0.102804 38:-0.139785 39:-0.593496 40:-0.790323 41:-0.0704225 42:0.0225564 43:0.262411 44:-0.0340136 45:-0.386935 46:-0.161616 47:-0.648 48:0.0447761 49:-0.328767 50:0.480769 51:0.358491 52:0.0948905 53:-0.252033 54:-0.229358 55:-0.222222 56:-0.251613 57:-0.409836 58:-0.79661 59:-0.472973 60:0.0955882 61:-0.988898 62:-0.74136 63:-0.935557 64:-0.986024 65:-0.770374 66:-0.986112 67:-0.929566 68:-0.977912 69:-0.94098 70:-0.952225 71:-0.867065 72:-0.972716 73:0.20168 74:-0.981021 75:-0.971029 76:-0.944436 77:-0.94627 78:-0.835303 79:-0.713129 80:-0.9917 81:-0.877344 82:-0.975994 83:-0.320155 84:-0.962535 85:-0.980181 86:-0.96214 87:-0.919794 88:-0.859258 89:-0.981151 90:-0.982355 91:-0.924011 92:-0.96476 93:-0.932104 94:-0.6979 95:-0.986845 96:-0.973578 97:-0.965127 98:-0.99533 99:0.245426 100:-0.974739 101:-0.957341 102:-0.901575 103:-0.997194 104:-0.529694 105:-1 106:-0.748144 107:-0.985895 108:-0.614371 109:-0.995171 110:-0.638016 111:-0.963579 112:-0.926415 113:-0.996396 114:-0.91139 115:-0.899947 116:-0.997085 117:0.323142 118:-0.973647 119:-0.898787 120:-0.998705 121:0.655283 122:0.425909 123:-0.121006 124:0.328407 125:-0.359758 126:0.180969 127:0.366241 128:0.429477 129:0.332776 130:0.290034 131:0.21846 132:0.211517 133:0.0920508 134:0.0376936 135:-0.248629 136:-0.237278 137:-0.304415 138:-0.27303 139:0.247926 140:0.456206 141:0.353675 142:0.368105 143:-0.0585426 144:-0.145558 145:-0.215795 146:-0.227989 147:0.244056 148:0.310672 149:-0.163593 150:-0.111195 151:0.388305 152:0.257574 153:0.220906 154:0.288062 155:0.236008 156:-0.03989 157:-0.0641372 158:0.0179468 159:0.211525 160:0.176621 161:0.147531 162:0.147531 163:0.00120012 164:-0.0343299 165:-0.125444 166:-0.358126 167:-0.340419 168:-0.287601 169:-0.344539 170:-0.40258 171:-0.350482 172:-0.231983 173:-0.0882556 174:-0.136725 175:-0.192488 176:0.16545 177:0.364284 178:0.0449101 179:0.129948 180:0.0770037 181:0.0918879 182:0.0900681 183:0.05189 184:-0.133072 185:-0.135468 186:-0.0377558 
1 0:-0.22973 1:-0.622642 2:-0.245283 3:-0.0956522 4:0.216327 5:-0.148148 6:0.342657 7:-0.267176 8:-0.146444 9:-0.250909 10:0.275362 11:-0.163636 12:0.416149 13:-0.0909091 14:0.162791 15:-0.0925926 16:-0.177419 17:-0.538462 18:-0.0638298 19:-0.0816327 20:-0.145455 21:0.0573248 22:-0.528796 23:-0.413793 24:0.68 25:0.293413 26:-0.343284 27:0.1875 28:0.161765 29:0.0894309 30:0.384615 31:0.328671 33:-0.292683 34:0.0538922 35:-0.0909091 36:0.123967 37:0.102804 38:-0.139785 39:-0.219512 40:0.774194 41:-0.0704225 42:0.0225564 43:0.106383 44:-0.142857 45:-0.386935 46:0.262626 47:-0.456 48:0.208955 49:0.0958904 50:-0.115385 51:-0.371069 52:-0.240876 53:0.252033 54:-0.00917431 55:-0.344444 56:-0.393548 57:-0.36612 58:-0.0677966 59:0.0540541 60:0.823529 61:-0.633522 62:-0.892745 63:-0.962206 64:-0.989033 65:-0.897859 66:-0.967752 67:-0.975784 68:-0.959382 69:-0.972593 70:-0.934634 71:-0.755743 72:-0.948932 73:-0.989572 74:-0.821433 75:-0.998464 76:-0.720727 77:-0.925366 78:-0.811754 79:-0.98958 80:-0.896226 81:-0.847961 82:-0.980859 83:-0.637483 84:-0.408037 85:-0.99662 86:-0.96807 87:-0.956013 88:-0.846443 89:-0.987944 90:-0.883435 91:-0.856187 92:-1 93:-0.210108 94:-0.952576 95:-0.990266 96:-0.856137 97:-0.983637 98:-0.875307 99:-0.925099 100:-0.737237 101:-0.9894 102:-0.970685 103:-0.991857 104:-0.919601 105:-0.993104 106:-0.865137 107:-0.991204 108:-0.616255 109:-0.985575 110:-0.966886 111:-0.945097 112:-0.954659 113:-0.867851 114:-0.997497 115:-0.462707 116:-0.940544 117:-0.908124 118:-0.988467 119:-0.528121 120:-0.968245 121:-0.14808 122:-0.0469583 123:-0.411513 124:-0.139056 125:0.259124 126:0.363305 127:0.290427 128:0.339096 129:0.287463 130:0.192003 131:0.141892 132:0.185302 133:0.162511 134:0.120038 135:-0.261818 136:-0.226239 137:-0.362232 138:-0.333457 139:-0.310849 140:-0.122799 141:-0.223125 142:-0.039408 143:-0.347019 144:-0.387241 145:-0.356635 146:-0.465876 147:-0.233809 148:-0.390069 149:-0.572763 150:-0.388918 151:-0.0073797 152:-0.0267936 153:-0.207727 154:-0.167397 155:-0.0143125 156:-0.0366032 157:-0.101715 158:0.0860658 159:0.214918 160:0.180061 161:0.150991 162:0.150991 163:0.0286829 164:0.0407042 165:0.0470686 166:0.347867 167:0.47064 168:0.507272 169:0.412275 170:0.246247 171:0.15061 172:0.13289 173:0.121378 174:0.146221 175:0.251313 176:0.209056 177:0.157832 178:-0.0687545 179:0.1335 180:0.126821 181:0.135806 182:0.161456 183:0.0994589 184:0.0460408 185:0.150807 186:0.459959 
1 0:0.0810811 1:0.345912 2:-0.345912 3:0.0434783 4:0.314286 5:-0.148148 6:0.0629371 7:-0.496183 8:-0.146444 9:-0.221818 10:0.458937 11:0.2 12:0.416149 13:-0.0909091 14:-0.147287 15:-0.0925926 16:-0.306452 17:-0.504274 18:-0.276596 19:0.326531 20:0.0727273 21:0.159236 22:-0.13089 23:-0.337931 24:0.451429 25:0.0179641 26:0.119403 27:0.1875 28:-0.294118 29:0.219512 30:0.128205 31:0.174825 32:-0.126984 33:0.0243902 34:0.281437 35:-0.0909091 36:0.123967 37:0.102804 38:-0.462366 39:-0.219512 40:-0.290323 41:0.0422535 42:0.0225564 43:0.262411 44:0.278912 45:-0.467337 46:0.232323 47:0.088 48:0.38806 49:0.726027 50:0.326923 51:-0.333333 52:0.0948905 53:0.00813008 54:-0.376147 55:-0.555556 56:-0.354839 57:-0.147541 58:0.118644 59:0.351351 60:-0.0294118 61:-0.734436 62:-0.944773 63:-0.889126 64:-0.995711 65:-0.898774 66:-0.865846 67:-0.831715 68:-0.976122 69:-0.951362 70:-0.990229 71:-0.955285 72:-0.976929 73:-0.919705 74:-0.934709 75:-0.968971 76:-0.306274 77:-0.641516 78:-0.976834 79:-0.972953 80:-0.922461 81:-0.87656 82:-0.998283 83:1 84:-0.976416 85:-0.986424 86:-0.989488 87:0.0685077 88:-0.938009 89:-0.982233 90:-0.9805 91:-0.996482 92:1 93:-0.942146 94:-0.842103 95:-0.993631 96:-0.944619 97:-0.987208 98:-0.809303 99:-0.945482 100:-0.989998 101:-0.758469 102:-0.96069 103:-0.985843 104:-0.858699 105:-0.970199 106:-0.901891 107:-0.993018 108:-0.966281 109:-0.901272 110:-0.951487 111:-0.691469 112:-0.966797 113:-0.98639 114:-0.984174 115:-0.835713 116:-0.980233 117:-0.960149 118:-0.873786 119:-0.840045 120:-0.99383 121:-0.320305 122:0.442491 123:-0.346134 124:-0.199488 125:0.0585682 126:0.369724 127:0.46933 128:0.464115 129:0.445717 130:0.393712 131:0.369199 132:0.328206 133:0.234521 134:0.167691 135:-0.27135 136:-0.11355 137:-0.23514 138:-0.20063 139:-0.173516 140:-0.108006 141:-0.208388 142:-0.253447 143:-0.683331 144:-0.817302 145:-0.785202 146:-1 147:-0.640606 148:-0.690077 149:-0.69887 150:-0.569715 151:-0.42833 152:-0.337462 153:-0.419917 154:-0.556661 155:-0.352812 156:-0.481698 157:-0.488825 158:-0.442519 159:-0.197335 160:-0.189943 161:-0.17301 162:-0.124819 163:-0.165257 164:-0.155502 165:-0.247396 166:-0.190417 167:-0.115647 168:0.00912068 169:0.0104048 170:0.0632822 171:-0.032948 172:0.0744906 173:0.254825 174:0.349253 175:0.842902 176:0.821594 177:0.690135 178:0.399609 179:0.59616 180:0.490498 181:0.347582 182:0.427017 183:0.525024 184:0.608496 185:0.675454 186:0.605286 
1 0:0.216216 1:0.484277 2:-0.371069 3:-0.269565 4:0.314286 5:-0.148148 6:0.440559 7:-0.557252 8:-0.146444 9:-0.301818 10:0.256039 11:0.236364 12:0.291925 13:-0.0909091 14:0.131783 15:-0.277778 16:-0.016129 17:-0.521368 18:-0.0638298 19:0.163265 20:0.254545 21:0.184713 22:-0.287958 23:-0.496552 24:0.165714 25:0.293413 26:-0.283582 27:0.1875 28:-0.0294118 29:0.252033 30:-0.179487 31:0.314685 32:0.15873 33:-0.280488 34:0.305389 35:-0.256198 36:0.123967 37:0.102804 38:-0.139785 39:-0.0569106 40:-0.16129 41:-0.211268 42:0.0225564 43:0.404255 44:-0.278912 45:-0.286432 46:0.151515 47:0.184 48:0.19403 49:0.0958904 50:-0.480769 51:-0.106918 52:0.518248 53:0.560976 54:-0.229358 55:-0.0111111 56:-0.380645 57:0.0819672 58:0.711864 59:0.783784 60:-0.294118 61:-0.675499 62:-0.920576 63:-0.975826 64:-0.985193 65:-0.626458 66:-0.983016 67:-0.933215 68:-0.986366 69:-0.974253 70:-0.87737 71:-0.810512 72:-0.983233 73:-0.934914 74:-0.919723 75:-0.992628 76:-0.96769 77:0.97745 78:-0.953214 79:-0.981864 80:-0.885516 81:-0.279466 82:-0.998656 83:-0.976971 84:1 85:-0.995411 86:-0.908057 87:-0.9292 88:-0.863998 89:-0.964072 90:-0.947987 91:-0.893251 92:-0.992933 93:-0.878588 94:-0.863015 95:-0.98882 96:-0.889418 97:-0.974039 98:-0.996555 99:-0.753178 100:-0.975067 101:-0.777148 102:-0.963639 103:-0.961495 104:-0.980435 105:-0.950498 106:-0.976334 107:-0.862506 108:-0.984003 109:-0.981509 110:-0.904638 111:-0.97123 112:-0.807655 113:-0.985933 114:-0.922732 115:-0.966972 116:-0.977462 117:-0.581859 118:-0.957494 119:-0.834944 120:-0.992013 121:-0.391323 122:0.0514514 123:1 124:-0.45306 125:0.190004 126:0.414538 127:0.573586 128:0.565232 129:0.496732 130:0.483545 131:0.470432 132:0.545638 133:0.462252 134:0.516321 135:0.230413 136:0.242829 137:0.139938 138:0.131871 139:0.170262 140:0.34191 141:0.118332 142:0.26064 143:-0.106763 144:-0.123681 145:-0.0319946 146:-0.0612752 147:-0.0176564 148:-0.130217 149:-0.536587 150:-0.489108 151:-0.201712 152:-0.299862 153:-0.328143 154:-0.328964 155:-0.175731 156:-0.436161 157:-0.34896 158:-0.192957 159:-0.0785699 160:0.00325224 161:-0.0875747 162:-0.148286 163:-0.187639 164:-0.29525 165:-0.235343 166:-0.286501 167:-0.328682 168:-0.206958 169:-0.248073 170:-0.329279 171:-0.364804 172:-0.29411 173:-0.0289223 174:-0.181929 175:-0.169335 176:-0.14095 177:-0.0713576 178:-0.160865 179:0.0705768 180:0.0204147 181:0.076289 182:0.0678789 183:0.231795 184:0.413961 185:0.592284 186:0.477446 
1 0:0.256757 1:0.081761 2:-0.157233 3:-0.686957 4:0.371429 5:-0.481481 6:0.174825 7:-0.267176 8:-0.205021 9:-0.265455 10:0.15942 11:0.181818 12:0.242236 13:-0.0909091 14:-0.131783 15:-0.0925926 16:0.370968 17:-0.495726 18:-0.0638298 19:0.163265 20:0.2 21:0.146497 22:-0.21466 23:-0.22069 24:0.28 25:0.209581 26:-0.104478 27:0.125 28:-0.279412 29:0.0894309 30:0.111111 31:0.356643 32:0.428571 33:-0.158537 34:0.341317 35:0.123967 36:0.00826446 37:0.102804 38:0.0107527 39:-0.333333 40:-0.16129 41:-0.169014 42:-0.0827068 43:0.262411 44:-0.047619 45:-0.316583 46:0.0808081 47:-0.392 48:-0.0597015 49:0.0958904 50:-0.25 51:-0.232704 52:0.0948905 53:0.252033 54:-0.229358 55:-0.3 56:-0.16129 57:-0.15847 58:-0.152542 59:-0.256757 60:0.470588 61:-0.835394 62:-0.939162 63:-0.860461 64:-0.977648 65:-0.963115 66:-0.973722 67:-0.867363 68:-0.938914 69:-0.987112 70:-0.984623 71:-0.408692 72:-0.974373 73:-0.995037 74:-0.745443 75:-0.944485 76:-0.979498 77:-0.532203 78:-0.985349 79:-0.964063 80:-0.635107 81:-0.955116 82:-0.990225 83:-0.307622 84:-0.930076 85:-0.97557 86:-0.972648 87:-0.955816 88:-0.920654 89:-0.900976 90:-0.992912 91:-0.869582 92:-0.52061 93:-0.972109 94:-0.928163 95:-0.986386 96:-0.958239 97:-0.990574 98:-0.866115 99:-0.892543 100:-0.982932 101:-0.944708 102:-0.897266 103:-0.925754 104:-0.974636 105:-0.992299 106:-0.833755 107:-0.96711 108:-0.96428 109:-0.992303 110:-0.94035 111:-0.855614 112:-0.959967 113:-0.985661 114:-0.96411 115:-0.942836 116:-0.84076 117:-0.840368 118:-0.955664 119:-0.912815 120:-0.995039 121:-0.145035 122:-0.207705 123:-0.568558 124:-0.0908809 125:0.0252672 126:0.32396 127:0.381643 128:0.438767 129:0.283662 130:0.258015 131:0.0993158 132:0.0639773 133:0.0756998 134:-0.0133905 135:-0.457038 136:-0.447724 137:-0.499188 138:-0.600839 139:-0.54448 140:-0.469482 141:-0.568487 142:-0.223074 143:-0.636728 144:-0.629957 145:-0.598508 146:-0.390775 147:-0.101257 148:-0.0883946 149:-0.395166 150:-0.368197 151:-0.0384359 152:0.000148031 153:-0.127644 154:-0.143949 155:0.00911394 156:-0.112917 157:-0.0983368 158:0.138383 159:0.301786 160:0.310088 161:0.281787 162:0.239572 163:0.182298 164:0.196115 165:0.122292 166:0.177781 167:0.218219 168:0.268514 169:0.377227 170:0.188886 171:0.136159 172:0.148795 173:0.196236 174:0.160438 175:0.339897 176:0.247585 177:0.236023 178:0.0453982 179:0.290469 180:0.202918 181:0.17905 182:0.252198 183:0.307395 184:0.273945 185:0.212394 186:0.432967 
1 0:-0.189189 1:0.157233 2:-0.245283 3:-0.217391 4:0.420408 5:-0.234568 6:0.174825 7:-0.267176 8:-0.146444 9:-0.163636 10:0.227053 11:0.0545455 12:0.329193 13:-0.0909091 14:-0.0232558 15:0.037037 16:0.258065 17:-0.205128 18:-0.163121 19:-0.102041 20:-0.527273 21:-0.0318471 22:-0.287958 23:-0.448276 24:0.2 25:0.209581 26:0.104478 27:0.25 28:0.617647 29:0.203252 30:0.111111 31:-0.202797 33:-0.0731707 34:0.42515 35:-0.305785 36:0.239669 37:0.102804 38:-0.419355 39:-0.430894 40:-0.274194 41:0.112676 42:0.323308 43:0.262411 44:-0.319728 45:-0.517588 46:0.353535 47:-0.168 48:0.0447761 49:1 50:0.269231 51:0.18239 52:-0.386861 53:1 54:-0.59633 55:-0.144444 56:-0.509677 57:-0.234973 58:-0.271186 59:0.459459 60:0.411765 61:-0.955975 62:-0.95965 63:-0.954829 64:-0.97443 65:-0.83555 66:-1 67:-0.964714 68:-0.840939 69:-0.94812 70:0.211662 71:-0.991566 72:-0.979458 73:-0.992085 74:-0.853728 75:-0.927773 76:-0.403173 77:-0.85011 78:-0.973165 79:-0.973433 80:-0.734 81:-0.932017 82:-0.995603 83:-0.38646 84:-0.804733 85:-0.989148 86:-0.945969 87:-0.894127 88:-0.511893 89:-0.990833 90:-0.969702 91:-0.922435 92:-0.985269 93:-0.907253 94:-0.814778 95:-0.997955 96:-0.958992 97:-0.874088 98:-0.868277 99:-0.975122 100:-0.917754 101:-0.995015 102:-0.391535 103:-0.999196 104:-0.680273 105:-0.983508 106:-0.774974 107:-0.985577 108:-0.97831 109:-0.921824 110:-0.934617 111:-0.838828 112:-0.957025 113:-0.932549 114:-0.986094 115:-0.861299 116:-0.991292 117:-0.919004 118:-0.960673 119:-0.81189 120:-0.993808 121:-0.169996 122:-0.051537 123:-0.415097 124:-0.0196786 125:0.185571 126:0.103286 127:0.172533 128:0.182391 129:0.0987041 130:0.0653544 131:-0.029895 132:-0.00652122 133:-0.0180024 134:-0.0274005 135:-0.388613 136:-0.295983 137:-0.358748 138:-0.370984 139:-0.349649 140:-0.234061 141:-0.291958 142:-0.0430932 143:-0.197735 144:-0.348198 145:-0.403518 146:-0.684607 147:-0.519923 148:-0.561943 149:-0.677786 150:-0.609829 151:-0.398914 152:-0.314023 153:-0.359231 154:-0.0796641 155:0.117231 156:-0.01497 157:-0.22157 158:-0.0338055 159:0.196101 160:0.119269 161:0.00591381 162:0.0478767 163:-0.000540054 164:-0.110275 165:-0.271502 166:-0.304454 167:-0.197548 168:0.0546184 169:0.06483 170:-0.176915 171:-0.273924 172:0.000931909 173:0.0697007 174:0.0282668 175:0.693605 176:0.681769 177:0.77284 178:0.406932 179:0.866585 180:0.698474 181:0.592403 182:0.569651 183:0.568573 184:0.557134 185:0.660038 186:0.74899 
1 0:-0.0135135 1:0.295597 2:-0.106918 3:-0.165217 4:0.22449 5:-0.283951 6:0.020979 7:-0.328244 8:-0.0543933 9:-0.0836364 10:0.294686 11:0.0545455 12:0.416149 13:-0.146853 14:-0.0232558 15:-0.166667 16:-0.112903 17:-0.282051 18:-0.0070922 19:0.0816327 20:-0.254545 21:0.286624 22:-0.361257 23:-0.496552 24:0.325714 25:0.341317 26:0.0597015 27:0.25 28:-0.235294 29:0.0243902 30:-0.00854701 31:0.230769 33:-0.158537 34:0.137725 35:-0.157025 36:0.123967 37:0.102804 38:-0.290323 39:-0.219512 40:-0.225806 41:-0.126761 42:-0.037594 43:0.163121 44:-0.238095 45:-0.457286 46:-0.171717 47:-0.168 48:-0.119403 49:0.287671 50:0.365385 51:-0.283019 52:0.0364964 53:0.186992 54:-0.229358 55:-0.1 56:-0.16129 57:-0.15847 58:0.20339 59:0.0810811 60:-0.205882 61:-0.962934 62:-0.961949 63:-0.954446 64:-0.95266 65:-0.958093 66:-0.749891 67:-0.965783 68:-0.980161 69:-0.987332 70:-0.822932 71:-0.928938 72:-0.931755 73:-0.811203 74:-0.985814 75:-0.978591 76:-0.946235 77:-0.417839 78:-0.963167 79:-0.98775 80:-0.883254 81:-0.723723 82:-0.996088 83:-0.900564 84:-0.880019 85:-0.983813 86:-0.926789 87:-0.0624623 88:-1 89:-0.74723 90:-0.988943 91:-0.971896 92:-0.775963 93:-0.94366 94:-0.905557 95:-0.977921 96:-0.994601 97:-0.96283 98:0.0907985 99:-0.990806 100:-0.961732 101:-0.914117 102:-0.913503 103:-0.976763 104:-0.758171 105:-0.992869 106:-0.892433 107:-0.986614 108:-0.926544 109:-0.976408 110:-0.85477 111:-0.984437 112:-0.953927 113:-0.97925 114:-0.868698 115:-0.884992 116:-0.994144 117:-0.842065 118:-0.896224 119:-0.918074 120:-0.998107 121:-0.55765 122:-0.011773 123:0.394628 124:-0.268454 125:0.627128 126:0.401241 127:0.512636 128:0.564801 129:0.527858 130:0.492981 131:0.450299 132:0.396105 133:0.317662 134:0.35187 135:0.200248 136:0.241936 137:0.0974162 138:0.190507 139:0.163306 140:0.274078 141:0.0832546 142:0.154838 143:0.0407487 144:-0.0395276 145:-0.0328949 146:-0.203943 147:0.0523794 148:-0.0294926 149:-0.482922 150:-0.429829 151:-0.103572 152:-0.0625678 153:-0.123871 154:-0.162523 155:-0.00944296 156:-0.148773 157:-0.21762 158:-0.124725 159:0.0555573 160:0.0185127 161:-0.0337213 162:-0.0115131 163:-0.0571857 164:-0.0890272 165:-0.106901 166:-0.118228 167:-0.113364 168:-0.0423636 169:-0.0809217 170:-0.247527 171:-0.390109 172:-0.538022 173:-0.278856 174:-0.394624 175:-0.200101 176:-0.0370894 177:-0.018471 178:-0.198603 179:-0.0276556 180:-0.073215 181:0.0472942 182:0.110733 183:0.158751 184:0.224567 185:0.265503 186:0.170961 
1 0:0.0810811 1:0.245283 2:-0.484277 3:0.356522 4:0.314286 5:-0.271605 6:0.258741 7:-0.419847 8:-0.146444 9:-0.0254545 10:0.342995 11:-0.127273 12:0.453416 13:-0.048951 14:-0.51938 15:-0.037037 16:-0.177419 17:-0.384615 18:-0.0212766 19:0.22449 20:0.127273 21:-0.10828 22:-0.287958 23:-0.475862 24:0.211429 25:0.221557 26:-0.238806 27:0.1875 28:-0.0882353 29:-0.00813008 30:-0.0598291 31:-0.0909091 32:0.507937 33:-0.280488 34:0.149701 35:-0.0909091 36:0.173554 37:0.046729 38:-0.0107527 39:-0.0569106 40:0.0483871 41:0.0704225 42:0.218045 43:-0.106383 44:-0.142857 45:-0.648241 46:0.0505051 47:-0.232 48:-0.0447761 49:-0.0410959 50:-0.173077 51:-0.0691824 52:0.138686 53:0.0406504 54:1 55:0.2 56:-0.329032 57:-0.333333 58:-0.372881 60:0.272059 61:-0.54867 62:-0.827696 63:-0.967703 64:-0.951378 65:-0.839554 66:-0.995232 67:-0.85998 68:-0.845175 69:-0.991897 70:-0.899136 71:-0.930444 72:-0.939996 73:-0.957109 74:-0.889874 75:-0.956028 76:-0.956991 77:-0.834718 78:-0.95481 79:-0.950115 80:-0.938017 81:-0.873142 82:-0.987402 83:-0.766612 84:-0.96978 85:-0.988337 86:-0.730855 87:-0.933239 88:-0.779348 89:-0.982879 90:-0.86652 91:-0.937804 92:-0.963386 93:-0.968779 94:-0.980436 95:-0.962836 96:-0.963723 97:-0.929064 98:-0.981379 99:-0.921404 100:-0.961194 101:-0.859798 102:-0.849642 103:-0.986254 104:-0.992294 105:-0.973639 106:-0.995829 107:-0.938083 108:-0.858959 109:-0.961674 110:-0.97695 111:-0.927209 112:-0.643705 113:-0.999364 114:1 115:-0.829938 116:-0.991354 117:-0.90716 118:-0.995957 119:-0.643321 120:-0.991532 121:-0.527863 122:-0.0186945 123:-0.254926 124:-0.313564 125:0.43915 126:0.462748 127:0.56599 128:0.527948 129:0.572615 130:0.473955 131:0.403713 132:0.409624 133:0.347469 134:0.336193 135:0.235114 136:0.329101 137:0.049402 138:0.0967503 139:0.154435 140:0.0626166 141:-0.0182001 142:0.0171184 143:-0.125635 144:-0.222484 145:-0.171806 146:-0.261251 147:-0.225036 148:-0.284179 149:-0.618616 150:-0.425427 151:-0.148568 152:-0.279878 153:-0.357902 154:-0.429343 155:-0.423683 156:-0.584367 157:-0.678067 158:-0.423895 159:-0.231946 160:-0.272938 161:-0.304687 162:-0.264297 163:-0.29829 164:-0.251176 165:-0.190716 166:-0.100713 167:0.0115092 168:0.182801 169:0.0561523 170:-0.0570724 171:-0.318433 172:-0.209431 173:-0.0250944 174:-0.106348 175:-0.103526 176:-0.1365 177:-0.00149093 178:-0.169952 179:0.0466424 180:0.307712 181:0.431937 182:0.479583 183:0.535282 184:0.488276 185:0.42028 186:0.499205 
1 0:0.351351 1:0.0691824 2:-0.245283 3:0.252174 4:0.534694 5:0.0987654 6:0.174825 7:-0.572519 8:-0.146444 9:-0.112727 10:0.227053 11:-0.0727273 12:-0.00621118 13:-0.188811 14:-0.0232558 15:-0.0925926 16:-0.290323 17:-0.205128 18:-0.446809 19:0.0204082 20:-0.418182 21:-0.55414 22:-0.0052356 23:-0.262069 24:-0.0285714 25:0.293413 26:0.507463 27:-0.178571 28:-0.779412 29:-0.138211 30:-0.589744 31:0.174825 32:-0.111111 33:-0.0731707 34:0.676647 35:0.0247934 36:-0.107438 37:0.607477 38:0.16129 39:-1 40:0.5 41:-0.450704 42:0.0225564 43:0.0638298 44:0.22449 45:-0.316583 46:0.151515 47:-0.28 48:-0.164179 49:0.287671 50:-0.115385 51:-0.232704 52:-0.00729927 53:0.252033 54:0.0275229 55:-0.3 56:-0.0709677 57:0.136612 58:0.0677966 59:0.202703 60:-0.213235 61:-0.961876 62:-0.969064 63:-0.811752 64:-0.884831 65:-0.953158 66:-0.956468 67:-0.943497 68:-0.977306 69:-0.980567 70:-0.972273 71:-0.773019 72:-0.977931 73:-0.975613 74:-0.880054 75:-0.975317 76:-0.958864 77:-0.816617 78:-0.887552 79:-0.899199 80:-0.755651 81:-0.929605 82:-0.993794 83:-0.883875 84:-0.922103 85:-0.986998 86:-0.799291 87:-0.934566 88:-0.914535 89:-0.977105 90:-0.95315 91:-0.836771 92:-0.936564 93:-0.937497 94:-0.976343 95:-0.991065 96:-0.993257 97:-0.419146 98:-0.981344 99:-0.805035 100:-0.956342 101:-0.977785 102:-0.960162 103:-0.994711 104:-0.535026 105:-0.992825 106:-0.831642 107:-0.996869 108:-0.801885 109:-0.996538 110:0.483449 111:-0.992352 112:-0.966238 113:-0.692988 114:-0.986583 115:-0.922271 116:-0.978885 117:-0.588742 118:-0.965952 119:-0.891096 120:-0.997399 121:-0.0254473 122:-0.013581 123:-0.105178 124:-0.607334 125:0.249887 126:0.38518 127:0.444837 128:0.462485 129:0.485526 130:0.601415 131:0.662352 132:0.682258 133:0.547228 134:0.569645 135:0.42942 136:0.37581 137:0.222974 138:0.110761 139:0.105169 140:0.259348 141:0.157567 142:0.142713 143:0.150131 144:-0.145752 145:-0.159587 146:-0.437663 147:-0.64267 148:-0.360743 149:-0.508933 150:-0.594118 151:-0.343515 152:-0.12632 153:-0.372675 154:-0.536967 155:-0.160465 156:-0.469089 157:-0.477859 158:-0.578701 159:-0.357066 160:-0.14535 161:-0.13369 162:-0.261655 163:-0.133033 164:-0.122902 165:-0.45477 166:-0.193732 167:-0.345897 168:-0.293517 169:-0.237373 170:-0.190935 171:-0.200899 172:-0.177684 173:-0.119198 174:-0.244349 175:0.00927994 176:-0.0633163 177:0.158536 178:-0.0503173 179:0.240274 180:0.236815 181:0.184593 182:0.234156 183:0.364958 184:0.404491 185:0.506879 186:0.375571 
1 0:-0.027027 1:0.0440252 2:-0.345912 3:-0.0956522 4:0.24898 5:-0.0493827 6:0.286713 7:-0.145038 8:-0.146444 9:-0.221818 10:0.15942 11:-0.0909091 12:0.416149 13:-0.0909091 14:-0.0232558 15:0.0555556 16:-0.306452 17:-0.57265 18:-0.0638298 19:0.163265 20:0.0727273 21:0.0573248 22:-0.371728 23:-0.551724 24:0.188571 25:0.197605 26:-0.358209 27:0.258929 28:0.176471 29:0.0894309 30:0.128205 31:0.286713 33:-0.256098 34:0.377246 35:0.173554 36:-0.140496 37:0.252336 38:-0.311828 39:-0.609756 40:-0.0322581 41:-0.0704225 42:0.0225564 43:0.148936 44:-0.251701 45:-0.386935 46:0.151515 47:-0.152 48:0.164179 49:0.205479 50:-0.269231 51:-0.232704 52:-0.0218978 53:0.121951 54:-0.229358 55:-0.133333 56:-0.148387 57:-0.147541 58:-0.135593 59:0.837838 60:-0.0661765 61:-0.990085 62:-0.544177 63:-0.948708 64:-0.963315 65:-0.956307 66:-0.97194 67:-0.831049 68:-0.941052 69:-0.993666 70:-0.867754 71:-0.721185 72:-0.995497 73:-0.517245 74:-0.97949 75:-0.954023 76:-0.91646 77:-0.907575 78:-0.76502 79:-0.995322 80:-0.868917 81:-0.935372 82:-0.972535 83:-0.857622 84:-0.815676 85:-0.981365 86:-0.981689 87:-0.877548 88:-0.812022 89:-0.933129 90:-0.975917 91:-0.968292 92:-0.952225 93:-0.980123 94:-0.667693 95:-0.976371 96:-0.981605 97:-0.981634 98:-0.886354 99:-0.95473 100:-0.977878 101:-0.585944 102:-0.919763 103:-0.995685 104:-0.826698 105:-0.994195 106:-0.714412 107:-0.988496 108:-0.989731 109:-0.909686 110:-0.954102 111:-0.746853 112:-0.974633 113:-0.913876 114:-0.989966 115:-0.664916 116:-0.990523 117:-0.906886 118:-0.934618 119:-0.809185 120:-0.995294 121:-0.373423 122:-0.217162 123:-0.0481769 124:-0.151274 125:0.209894 126:0.355333 127:0.430092 128:0.447319 129:0.402729 130:0.341158 131:0.345405 132:0.337739 133:0.339069 134:0.365118 135:0.0961086 136:0.101937 137:-0.0384763 138:0.0550875 139:0.142757 140:0.253722 141:0.203161 142:0.177722 143:-0.128255 144:-0.151496 145:-0.121708 146:-0.173085 147:-0.0494305 148:-0.153462 149:-0.548971 150:-0.499696 151:-0.257674 152:-0.331244 153:-0.326815 154:-0.230232 155:-0.237522 156:-0.231302 157:-0.228794 158:-0.16282 159:0.0139125 160:0.0779911 161:0.150613 162:0.0483171 163:0.0486649 164:-0.0377903 165:-0.183608 166:-0.12292 167:-0.0422223 168:0.091735 169:0.0407347 170:-0.161871 171:-0.258831 172:-0.1916 173:-0.0518369 174:-0.0535347 175:0.148636 176:0.0810627 177:0.104282 178:-0.135106 179:0.0243995 180:-0.0235989 181:0.0609743 182:0.115625 183:0.198505 184:0.186328 185:0.419509 186:0.394648 
1 0:-0.0810811 1:0.54717 2:0.0566038 3:-0.304348 4:0.412245 5:-0.296296 6:0.00699301 7:-0.450382 8:-0.246862 9:-0.250909 10:0.275362 11:0.0545455 12:0.267081 13:-0.0909091 14:0.162791 15:-0.0925926 16:-0.177419 17:-0.435897 18:-0.234043 19:0.163265 20:0.0727273 21:0.0573248 22:-0.413613 23:-0.331034 24:0.417143 25:0.149701 26:0.358209 27:0.616071 28:-0.352941 29:-0.495935 30:-0.213675 31:0.00699301 32:0.190476 33:-0.0121951 34:0.185629 35:-0.289256 36:-0.272727 37:-0.121495 38:0.11828 39:-0.219512 40:-0.16129 41:-0.239437 42:-0.157895 43:0.432624 44:0.0204082 45:-0.266332 46:0.151515 47:-0.28 48:0.0447761 49:-0.232877 50:0.115385 51:-0.232704 52:0.0948905 53:0.447154 54:-0.229358 55:-0.0888889 56:-0.406452 57:-0.234973 58:-0.0677966 59:0.22973 60:0.426471 61:-0.908771 62:-0.838652 63:-0.982287 64:-0.949661 65:-0.845552 66:-0.958035 67:-0.994469 68:-0.780912 69:-0.989545 70:-0.657875 71:-0.906348 72:-0.965577 73:-0.986125 74:-0.887292 75:-0.963104 76:-0.915155 77:-0.701977 78:-0.974761 79:-0.861147 80:-0.974398 81:-0.745051 82:-0.992243 83:-0.966463 84:-0.945737 85:-0.904749 86:-0.844514 87:-0.654374 88:-0.989832 89:-0.98327 90:-0.952219 91:-0.947555 92:-0.965715 93:-0.926832 94:-1 95:1 96:-0.921977 97:-0.993191 98:-0.736474 99:-0.987167 100:-0.836677 101:-0.952869 102:-0.81749 103:-0.999056 104:-0.893922 105:-0.983787 106:-1 107:1 108:-0.994268 109:-0.918742 110:-0.96644 111:-0.965994 112:-0.650666 113:-1 114:-0.977327 115:-0.828383 116:-0.782167 117:-0.951807 118:-0.90099 119:-0.868666 120:-0.989451 121:-0.28438 122:-0.0326446 123:-0.733358 124:0.261691 125:0.118525 126:0.304158 127:0.436971 128:0.528009 129:0.488672 130:0.520283 131:0.459712 132:0.399528 133:0.315338 134:0.241649 135:-0.0199791 136:-0.0633953 137:-0.214174 138:-0.326359 139:-0.456222 140:-0.112748 141:-0.213112 142:-0.166845 143:-0.512171 144:-0.525604 145:-0.417602 146:-0.541859 147:-0.388625 148:-0.469049 149:-0.557805 150:-0.461822 151:-0.226208 152:-0.121583 153:0.0668509 154:-0.0604973 155:0.0924884 156:-0.0773 157:-0.261435 158:-0.152379 159:0.0991147 160:0.0626681 161:-0.0423404 162:-0.117647 163:-0.230183 164:-0.0759144 165:0.00225608 166:0.0891405 167:0.125819 168:0.131739 169:0.257846 170:0.131782 171:0.112588 172:0.167681 173:0.212398 174:0.110901 175:0.133222 176:0.110797 177:0.127806 178:-0.0527205 179:0.202131 180:0.145805 181:0.152542 182:0.0933645 183:0.158751 184:0.119228 185:0.218484 186:0.575445 
1 0:-0.0405405 1:0.0188679 2:-0.308176 3:-0.33913 4:0.126531 5:-0.148148 6:0.496503 7:0.00763359 8:-0.297071 9:0.00363636 10:-0.0628019 11:-0.272727 12:0.478261 13:0.356643 14:0.395349 15:0.240741 16:0.258065 17:-0.470085 18:0.0638298 19:0.346939 20:0.309091 21:-0.566879 22:-0.424084 23:-0.496552 24:0.325714 25:0.401198 26:-0.0597015 27:0.1875 28:-0.705882 29:0.0894309 30:0.230769 31:0.230769 33:-0.378049 34:0.0778443 35:0.355372 36:0.355372 37:0.271028 38:0.139785 39:-0.219512 40:-0.225806 41:0.056338 42:0.0225564 43:0.262411 44:-0.0884354 45:-0.386935 46:0.191919 47:-0.568 48:-0.223881 49:0.0958904 50:-0.0192308 51:-0.00628931 52:0.284672 53:0.186992 54:-0.302752 55:-0.322222 56:-0.251613 57:0.300546 58:0.79661 59:0.527027 60:-0.227941 61:-0.944425 62:-0.918838 63:-0.978869 64:-0.95785 65:-0.844742 66:-0.994529 67:-0.743542 68:-0.983196 69:-0.939117 70:-0.963689 71:-0.762038 72:-0.972742 73:-0.976413 74:-0.934684 75:-0.941657 76:-0.807278 77:-0.78889 78:-0.944213 79:-0.944171 80:-0.930491 81:-0.928956 82:-0.993125 83:-0.887399 84:-0.80689 85:-0.976283 86:-0.977502 87:-0.823632 88:-0.936394 89:-0.980525 90:-0.985955 91:-0.651307 92:-0.987544 93:-0.88116 94:-0.883358 95:-0.986156 96:-0.972623 97:-0.924565 98:-0.966093 99:-0.88057 100:-0.986388 101:-0.864781 102:-0.938776 103:-0.991332 104:-0.923206 105:-0.982859 106:-0.70815 107:-0.988735 108:-0.957029 109:-0.986163 110:-0.983611 111:-0.64084 112:-0.932843 113:-0.968521 114:-0.981925 115:-0.887449 116:-0.96245 117:-0.648685 118:-0.95231 119:-0.944461 120:-0.996912 121:-0.349688 122:-0.146395 123:-0.312574 124:0.123269 125:0.629941 126:0.302373 127:0.345545 128:0.374196 129:0.251126 130:0.106694 131:0.0457576 132:0.117794 133:0.172338 134:0.0243507 135:-0.141486 136:-0.325655 137:-0.519091 138:-0.497392 139:-0.279387 140:-0.0222208 141:-0.0379747 142:0.212375 143:-0.020721 144:-0.113872 145:0.00260459 146:0.23424 147:-0.0396255 148:0.0378239 149:-0.407107 150:-0.361328 151:-0.00614975 152:-0.0131254 153:-0.0706239 154:-0.310324 155:-0.127496 156:-0.223354 157:-0.240748 158:-0.129917 159:-0.0611099 160:-0.184189 161:-0.0738597 162:-0.017301 163:-0.0357036 164:0.00288359 165:0.00856074 166:0.0207056 167:0.0838251 168:0.170617 169:0.203589 170:0.0427323 171:-0.0246628 172:0.0628106 173:0.0509331 174:-0.116233 175:0.0264557 176:0.0219605 177:0.13203 178:0.00180241 179:0.155869 180:0.0835735 181:0.0657002 182:0.107472 183:0.314722 184:0.637897 185:0.766216 186:0.620454 
1 0:0.0810811 1:0.383648 2:-0.106918 3:0.0956522 4:0.22449 5:-0.0123457 6:-0.118881 7:-0.267176 8:0.0292887 9:-0.163636 10:0.15942 11:-0.145455 12:0.416149 13:-0.0909091 14:-0.0232558 15:-0.0925926 16:-0.177419 17:-0.435897 18:0.0921986 19:0.163265 20:0.272727 21:-0.350318 22:-0.172775 23:-0.496552 24:0.405714 25:0.293413 27:0.285714 28:-0.338235 29:-0.430894 30:-0.74359 31:0.328671 32:0.174603 33:0.231707 34:-0.197605 35:-0.272727 36:0.123967 37:-0.28972 38:-0.139785 39:-0.398374 40:-0.16129 41:0.084507 42:0.353383 43:0.574468 44:-0.142857 45:-0.276382 46:0.151515 47:-0.104 48:0.208955 49:0.0958904 50:-0.519231 51:-0.232704 52:0.0948905 53:0.0731707 54:-0.229358 55:-0.222222 56:-0.251613 57:-0.234973 58:-0.0847458 59:0.175676 60:-0.279412 61:-0.990889 62:-0.973763 63:-0.89772 64:-0.96474 65:-0.852587 66:-0.967028 67:-0.997593 68:-0.670003 69:-0.995344 70:-0.79507 71:-0.629657 72:-0.973217 73:-0.921537 74:-0.999178 75:-0.932363 76:-0.929396 77:1 78:-0.991844 79:-0.768177 80:-0.974759 81:-0.623979 82:-0.997527 83:0.157531 84:-1 85:-0.310336 86:-0.945551 87:-0.915346 88:-0.967609 89:-0.775202 90:-0.974582 91:-0.955034 92:-0.949494 93:-0.996466 94:-0.742393 95:-0.966125 96:-0.995502 97:-0.924341 98:-0.925467 99:-0.817628 100:-0.991101 101:-0.879258 102:-0.77687 103:-0.991004 104:-0.970888 105:-0.993738 106:-0.295558 107:-0.988908 108:-0.917804 109:-0.991911 110:-0.948817 111:-0.984592 112:-0.93295 113:-0.947845 114:-0.967595 115:-0.761044 116:-0.999962 117:-0.514024 118:-0.862235 119:-0.835604 120:-0.993982 121:0.195614 122:-0.0126716 123:-0.319765 124:-0.14821 125:0.334148 126:0.385353 127:0.51763 128:0.603316 129:0.56888 130:0.527244 131:0.613152 132:0.511017 133:0.556484 134:0.580462 135:0.444241 136:0.390294 137:0.213052 138:0.267784 139:0.310785 140:0.420173 141:0.317778 142:0.334225 143:-0.0279618 144:-0.0507567 145:0.0476221 146:0.0379513 147:-0.0924103 148:0.133633 149:-0.396009 150:-0.409602 151:-0.204223 152:-0.212425 153:-0.228239 154:-0.268632 155:-0.256605 156:-0.650641 157:-0.580042 158:-0.316779 159:0.0440818 160:-0.194321 161:-0.225606 162:-0.225606 163:-0.325713 164:-0.382911 165:-0.450567 166:-0.51101 167:-0.499788 168:-0.308659 169:-0.189098 170:-0.284466 171:-0.312974 172:-0.243974 173:-0.0258387 174:0.0475371 175:0.211992 176:0.12022 177:0.0908639 178:-0.0862153 179:0.0685047 180:0.0184398 181:0.0402587 182:0.10414 183:0.125235 184:0.0734127 185:0.16499 186:0.0499106 
1 0:0.0810811 1:0.295597 2:-0.358491 3:-0.026087 4:0.240816 5:-0.148148 6:0.300699 7:-0.129771 8:-0.221757 9:-0.0981818 10:0.15942 11:0.0545455 12:0.36646 13:0.0909091 14:0.596899 15:-0.0925926 16:-0.0322581 17:-0.470085 18:-0.191489 19:0.163265 20:0.145455 21:0.00636943 22:-0.287958 23:-0.524138 24:0.325714 25:0.293413 26:-0.19403 27:0.0714286 28:-0.514706 29:0.170732 30:0.0769231 31:0.370629 33:-0.158537 34:0.185629 35:0.355372 36:0.123967 37:-0.64486 38:0.16129 39:-0.0731707 40:-0.16129 41:0.126761 42:0.0225564 43:0.446809 44:-0.387755 45:-0.427136 46:0.151515 47:-0.28 48:0.0447761 49:0.219178 50:0.307692 51:-0.509434 52:0.153285 53:0.186992 54:0.33945 55:-0.0777778 56:-0.2 57:-0.234973 58:0.338983 59:0.0405405 60:0.0294118 61:-0.99571 62:-0.392314 63:-0.991497 64:-0.860593 65:-0.954431 66:-0.989463 67:-0.909828 68:-0.827381 69:-0.993954 70:-0.769837 71:-0.987405 72:-0.795891 73:-0.968268 74:-0.745991 75:-0.985615 76:-0.97375 77:-0.756713 78:-0.907689 79:-0.969702 80:-0.923668 81:-0.822586 82:-0.973182 83:-0.935892 84:-0.818633 85:-0.979072 86:-0.994295 87:-0.632109 88:-0.82789 89:-0.964325 90:-0.986585 91:-0.812533 92:-0.976803 93:-0.984391 94:-0.739035 95:-0.976677 96:-0.962136 97:-0.971171 98:-0.976346 99:-0.899046 100:-0.936907 101:-0.915565 102:-0.968639 103:-0.984111 104:-0.916531 105:-0.995148 106:-0.804612 107:-0.99847 108:-0.98873 109:-0.031149 110:-0.977543 111:-0.725141 112:-0.972383 113:-0.967868 114:-0.679837 115:-0.947971 116:-0.992576 117:-0.652849 118:-0.965015 119:-0.989844 120:-0.966975 121:-0.174721 122:0.114879 123:-0.189171 124:-0.439057 125:0.379166 126:0.369407 127:0.469001 128:0.501123 129:0.460035 130:0.388259 131:0.363054 132:0.394111 133:0.359008 134:0.306981 135:0.128036 136:0.0240883 137:0.096176 138:0.173286 139:0.298851 140:0.606537 141:0.475219 142:0.456194 143:0.226313 144:0.0352683 145:0.0644072 146:0.0947782 147:0.163921 148:0.155378 149:-0.40431 150:-0.376015 151:-0.209655 152:-0.297345 153:-0.448082 154:-0.688655 155:-0.476129 156:-0.566917 157:-0.44657 158:-0.353406 159:-0.111516 160:-0.150854 161:-0.0128342 162:-0.125511 163:-0.461566 164:-0.373683 165:-0.374849 166:-0.42337 167:-0.320792 168:-0.108709 169:0.0581743 170:-0.153932 171:-0.27964 172:-0.489998 173:-0.278962 174:-0.186705 175:0.00298846 176:0.0727392 177:0.00496977 178:-0.0800195 179:0.101911 180:0.176639 181:0.243364 182:0.268751 183:0.299729 184:0.416261 185:0.420357 186:0.411837 
1 0:0.0810811 1:0.308176 2:-0.18239 3:-0.0956522 4:0.314286 5:-0.0864198 6:0.104895 7:-0.19084 8:-0.280335 9:-0.00363636 10:0.0531401 11:0.145455 12:0.354037 13:-0.020979 14:-0.0232558 15:-0.796296 16:-0.612903 17:-0.435897 18:-0.0638298 19:0.489796 20:0.272727 21:-0.00636943 22:-0.403141 23:-0.531034 24:0.337143 25:0.293413 26:0.0746269 27:0.285714 28:-0.25 29:0.0894309 30:-0.0940171 31:0.244755 32:-0.174603 33:0.0365854 34:0.449102 35:-0.0909091 36:0.206612 37:0.308411 38:-0.139785 39:-0.300813 40:-0.33871 41:-0.225352 42:-0.0526316 43:0.489362 44:0.0748299 45:-0.336683 46:0.484848 47:0.152 48:0.208955 49:0.767123 50:-0.538462 51:-0.0943396 52:0.0948905 53:0.252033 54:-0.522936 55:-0.0444444 56:-0.6 57:0.00546448 58:-0.355932 59:-0.256757 60:-0.0441176 61:-0.417936 62:-0.88984 63:-0.699667 64:-0.99996 65:0.469507 66:-0.993073 67:-0.177958 68:-0.996077 69:-0.983079 70:-0.896216 71:-0.963413 72:-0.85826 73:-0.995432 74:-0.57389 75:-0.976233 76:-0.869318 77:-0.926735 78:-0.96944 79:-0.839033 80:-0.849906 81:-0.791071 82:-0.992909 83:-0.776967 84:-0.939174 85:-0.993774 86:-0.917917 87:-0.838308 88:-0.943198 89:-0.990199 90:-0.894681 91:-0.913512 92:-0.938556 93:-0.839424 94:-0.998855 95:-0.852941 96:-0.996477 97:-0.844163 98:-0.948401 99:-0.929335 100:-0.982022 101:-0.963464 102:-0.693493 103:-0.991083 104:-0.839487 105:-0.988116 106:-0.701453 107:-0.990088 108:-0.928015 109:-0.966583 110:-0.994215 111:-0.449617 112:-0.904295 113:-0.999654 114:-0.65031 115:-0.926007 116:-0.997765 117:-0.826362 118:-0.986363 119:-0.808977 120:-0.979948 121:-0.48595 122:0.0298203 123:-0.0666957 124:-0.155606 125:0.330742 126:0.234763 127:0.377965 128:0.410435 129:0.34562 130:0.220968 131:0.293154 132:0.262214 133:0.257069 134:0.256517 135:0.142531 136:0.0259388 137:-0.0929278 138:-0.119217 139:-0.0545629 140:0.0238012 141:-0.145664 142:-0.038457 143:-0.345786 144:-0.245652 145:-0.110518 146:-0.159139 147:-0.277378 148:-0.479463 149:-0.795148 150:-0.710171 151:-0.416543 152:-0.390753 153:-0.361569 154:-0.362226 155:-0.280558 156:-0.448651 157:-0.431757 158:-0.429539 159:-0.176852 160:-0.285196 161:-0.351305 162:-0.317018 163:-0.283228 164:-0.142692 165:-0.139661 166:-0.197423 167:-0.172899 168:-0.106666 169:-0.0821854 170:-0.0986844 171:-0.160437 172:0.106486 173:0.304748 174:0.304048 175:0.810815 176:0.589111 177:0.551313 178:0.331268 179:0.653036 180:0.509764 181:0.473404 182:0.401744 183:0.522545 184:0.379104 185:0.30227 186:0.276644 
1 0:-0.027027 1:0.245283 2:-0.144654 3:0.0434783 4:0.444898 5:-0.148148 6:0.972028 7:-0.267176 8:-0.48954 9:0.0763636 10:0.31401 11:-0.527273 12:0.118012 13:-0.0909091 14:0.100775 15:0.0555556 16:-0.306452 17:-0.435897 18:-0.177305 19:-0.326531 20:0.0727273 21:-0.044586 22:-0.204188 23:-0.441379 24:0.0971429 25:0.197605 26:0.119403 27:0.696429 28:-0.176471 29:0.0894309 30:-0.846154 31:0.398601 32:-0.253968 33:0.0365854 34:0.185629 35:-0.355372 36:0.256198 37:0.401869 38:-0.655914 39:-0.479675 40:-0.564516 41:-0.295775 42:0.0225564 43:0.262411 44:0.0748299 45:-0.226131 46:0.151515 47:-0.024 48:0.164179 49:0.424658 50:-0.115385 51:-0.232704 52:0.211679 53:-0.00813008 54:-0.376147 55:-0.222222 56:-0.251613 57:-0.234973 58:0.135593 59:-0.918919 60:0.0588235 61:-0.93941 62:-0.582828 63:-0.932456 64:-0.992431 65:-0.739134 66:-0.840861 67:-0.983555 68:-0.987305 69:-0.962541 70:-0.260897 71:-0.970924 72:-0.979485 73:-0.925817 74:-0.943675 75:-0.982959 76:-0.907358 77:-0.92425 78:-0.894245 79:-0.970859 80:-0.983816 81:-0.632274 82:-0.986909 83:-0.893976 84:-0.171761 85:-0.997842 86:-0.874988 87:-0.664919 88:-0.936334 89:-0.940601 90:-0.958493 91:-0.987895 92:-0.953789 93:-0.965879 94:-0.928864 95:-0.94806 96:-0.967338 97:-0.981625 98:-0.94128 99:-0.937002 100:-0.906233 101:-0.940225 102:-0.887779 103:-0.988563 104:-0.872897 105:-0.999565 106:-0.575657 107:-0.983869 108:-0.968129 109:-0.890798 110:-0.978767 111:-0.969725 112:-0.943615 113:-0.917102 114:-0.997388 115:-0.498978 116:-0.95736 117:-0.985439 118:1 119:-0.974918 120:-0.994645 121:-0.215838 122:-0.0290715 123:-0.467645 124:-0.232781 125:0.171475 126:0.0917438 127:0.180489 128:0.215707 129:0.209515 130:0.207665 131:0.195102 132:0.506554 133:0.464821 134:0.278914 135:0.297467 136:0.507258 137:0.336483 138:0.19526 139:0.392087 140:0.500711 141:0.449399 142:0.40995 143:0.17247 144:-0.00467878 145:-0.132898 146:-0.121629 147:-0.00210107 148:-0.0322419 149:-0.484386 150:-0.506414 151:-0.266899 152:-0.179562 153:0.0103624 154:0.0808497 155:0.180009 156:-0.290465 157:-0.237682 158:-0.218692 159:0.0535213 160:-0.0345863 161:-0.116263 162:0.0891475 163:0.0388239 164:-0.0481712 165:-0.144296 166:-0.287126 167:-0.319618 168:-0.322675 169:-0.386495 170:-0.329919 171:-0.322608 172:-0.253293 173:-0.0177043 174:-0.0177153 175:0.292145 176:0.072111 177:0.0972004 178:-0.0498291 179:0.120306 180:0.067814 181:0.112781 182:0.138487 183:0.161644 184:0.252796 185:0.037037 186:0.22882 
1 0:0.418919 1:0.144654 2:-0.345912 3:-0.234783 4:0.379592 5:0.0617284 6:0.286713 7:-0.267176 8:-0.146444 9:-0.221818 10:0.0821256 11:0.0545455 12:0.416149 13:-0.328671 14:0.100775 15:-0.555556 16:-0.177419 17:-0.290598 18:-0.177305 20:-0.0727273 21:0.0573248 22:-0.287958 23:-0.496552 24:-0.291429 25:0.389222 27:0.1875 28:-0.176471 29:0.902439 30:-0.00854701 31:0.286713 32:-0.126984 33:-0.158537 34:0.185629 35:-0.0909091 36:-0.00826446 37:0.102804 38:-0.311828 39:-0.349593 40:-0.290323 41:-0.0704225 42:0.0225564 43:0.262411 44:-0.0340136 45:-0.467337 46:0.151515 47:-0.408 48:0.0447761 49:-0.0136986 50:-0.442308 51:-0.132075 52:-0.0218978 53:0.382114 54:0.0825688 55:0.9 56:-0.354839 57:-0.234973 58:-0.271186 59:0.189189 60:-0.544118 61:-0.951227 62:-0.80867 63:-0.855624 64:-0.997204 65:-0.514537 66:-0.999204 67:-0.082647 68:-0.999355 69:-0.976873 70:-0.84498 71:-0.864 72:-0.993269 73:-0.950447 74:-0.967412 75:-0.403771 76:-0.982539 77:-0.711649 78:-0.902034 79:-0.983857 80:-0.949243 81:-0.874778 82:-0.903021 83:-0.965986 84:-0.922616 85:-0.972259 86:-0.983371 87:-0.953749 88:-0.986384 89:1 90:-0.985629 91:-0.885601 92:-0.950924 93:-0.951315 94:-0.682002 95:-0.999754 96:-0.0959092 97:-1 98:-0.0593449 99:-0.957892 100:-0.983175 101:-0.578615 102:-0.962202 103:-0.994338 104:-0.881124 105:-0.999173 106:-0.0216029 107:-0.981003 108:1 109:-0.997516 110:-0.98013 111:-0.780651 112:-0.985864 113:-0.981929 114:-0.859106 115:-0.146256 116:-0.996211 117:-0.996603 118:-0.746296 119:-0.563993 120:-0.989511 121:-0.391487 122:0.368344 123:-0.2575 124:-0.327075 125:0.234291 126:0.59909 127:0.608368 128:0.630695 129:0.543651 130:0.57102 131:0.605177 132:0.596031 133:0.582866 134:0.611294 135:0.432293 136:0.272692 137:0.167577 138:0.322717 139:0.261646 140:0.423966 141:0.164746 142:0.140454 143:0.0778771 144:-0.0312671 145:-0.0552751 146:-0.156815 147:0.0267242 148:0.00033325 149:-0.467031 150:-0.555636 151:-0.249013 152:-0.243561 153:-0.274684 154:-0.0528569 155:0.15474 156:-0.0207667 157:-0.0448025 158:0.0360065 159:0.0776444 160:0.144724 161:0.0632274 162:0.0632274 163:0.0141014 164:-0.0244347 165:-0.0192539 166:-0.0593644 167:-0.028985 168:-0.00968412 169:-0.0120898 170:-0.0436926 171:-0.193577 172:-0.128479 173:-0.0410442 174:-0.317876 175:-0.254207 176:-0.428818 177:-0.264723 178:-0.439788 179:-0.214141 180:-0.150602 181:-0.0792737 182:-0.0825181 183:-0.0726309 184:-0.324675 185:-0.171272 186:-0.274558 
1 0:0.0810811 1:0.245283 2:-0.0943396 3:0.113043 4:0.216327 5:-0.148148 6:0.174825 7:-0.0839695 8:-0.146444 9:-0.0763636 10:0.0434783 11:-0.163636 12:0.267081 13:-0.426573 14:0.162791 15:-0.0925926 16:0.209677 17:-0.333333 18:-0.0638298 19:0.163265 20:0.0727273 21:0.210191 22:-0.162304 23:-0.413793 24:0.28 25:0.437126 27:0.0803571 28:-1.11022e-16 29:-0.105691 30:0.196581 31:0.174825 32:-0.190476 33:-0.158537 34:0.185629 35:-0.0909091 36:0.123967 37:0.102804 38:-0.139785 39:-0.0243902 40:-0.16129 41:0.0985915 42:0.0225564 43:0.262411 44:0.0204082 45:-0.507538 46:0.393939 47:-0.088 48:-0.134328 49:0.0958904 50:0.115385 51:-0.232704 52:-0.080292 53:0.252033 54:-0.229358 55:-0.0888889 56:-0.251613 57:-0.36612 58:-0.0677966 59:-0.581081 60:-0.448529 61:-0.915396 62:-0.896986 63:-0.969565 64:-0.971041 65:-0.966998 66:-0.745116 67:-0.922711 68:-0.985436 69:-0.937916 70:-0.990164 71:-0.538961 72:-0.982014 73:-0.868927 74:-0.997035 75:-0.940096 76:-0.657458 77:-0.965374 78:-0.946962 79:-0.925402 80:-0.893482 81:-0.537466 82:-0.997696 83:-0.115988 84:-0.962579 85:-0.98504 86:-0.956588 87:-0.891659 88:-0.924188 89:-0.962415 90:-0.946639 91:-0.97707 92:-0.860824 93:-0.991054 94:-0.873523 95:-0.979459 96:-0.968705 97:-0.858826 98:-0.967263 99:-0.909799 100:-0.987251 101:-0.807411 102:-0.963348 103:-0.98006 104:-0.950728 105:-0.990782 106:-0.820208 107:-0.991678 108:-0.906609 109:-0.940793 110:-0.969807 111:-0.959536 112:-0.913592 113:-0.978363 114:-0.908412 115:-0.968109 116:-0.980312 117:-0.977566 118:-0.954429 119:-0.581526 120:-0.997435 121:0.129334 122:-0.239616 123:-0.308661 124:-0.252111 125:-0.0439632 126:0.332105 127:0.430242 128:0.484696 129:0.442539 130:0.32596 131:0.398353 132:0.390385 133:0.355502 134:0.34558 135:0.280491 136:0.153049 137:-0.0146759 138:0.0297812 139:-0.012508 140:0.252963 141:0.0749417 142:0.177009 143:-0.0665537 144:-0.230422 145:-0.20036 146:-0.27111 147:-0.0503152 148:-0.0867283 149:-0.459707 150:-0.423378 151:-0.0508892 152:-0.0118425 153:-0.133595 154:-0.0715627 155:-0.0778798 156:-0.23202 157:-0.271674 158:-0.231842 159:-0.0615418 160:-0.0244543 161:-0.0547342 162:-0.0547342 163:-0.171077 164:-0.0878737 165:-0.00905523 166:0.00287752 167:0.0358971 168:0.118851 169:0.141666 170:-0.0331295 171:-0.207386 172:-0.0666625 173:0.011856 174:-0.0993503 175:0.121709 176:0.164612 177:0.17038 178:-0.0595922 179:0.143818 180:0.0902239 181:0.103543 182:0.129271 183:0.10641 184:0.0570437 185:-0.066289 186:-0.144234 
1 0:0.0810811 1:0.169811 2:-0.408805 3:-0.0956522 4:0.420408 5:-0.148148 6:0.440559 7:-0.267176 8:-0.0962343 9:-0.207273 10:0.101449 11:-0.0545455 12:0.416149 13:-0.272727 14:0.178295 15:-0.0925926 16:-0.0806452 17:-0.435897 18:0.0212766 19:0.163265 20:-0.0363636 21:0.133758 22:-0.424084 23:-0.406897 24:0.28 25:0.365269 26:-0.0895522 27:0.241071 28:-0.176471 29:0.0894309 30:-0.111111 31:0.174825 32:0.0952381 33:-0.0853659 34:0.185629 35:-0.0909091 36:0.123967 37:0.102804 38:-0.268817 39:-0.219512 40:0.354839 41:0.112676 42:0.0225564 43:0.177305 44:-0.22449 45:-0.326633 46:0.212121 47:-0.28 48:-0.149254 49:0.0136986 50:-0.365385 51:-0.232704 52:-0.0948905 53:0.349593 54:-0.119266 55:-0.288889 56:-0.174194 57:-0.234973 58:-0.491525 59:-0.175676 60:-0.220588 61:-0.910833 62:-0.877926 63:-0.895377 64:-0.989019 65:-0.903533 66:-0.964452 67:-0.966436 68:-0.97399 69:-0.958728 70:-0.909759 71:-0.793211 72:-0.964992 73:-0.994964 74:-0.624015 75:-0.946987 76:-0.994215 77:-1 78:-0.830203 79:-0.72331 80:-0.920832 81:-0.880767 82:-0.996662 83:-0.771635 84:-0.799667 85:-0.983979 86:-0.964676 87:-0.671889 88:-0.969296 89:-0.976877 90:-0.961353 91:-0.914034 92:-0.94561 93:-0.807875 94:-0.964143 95:-0.972571 96:-0.966618 97:-0.993405 98:-0.831962 99:-0.935743 100:-0.677651 101:-0.976297 102:-0.907985 103:-0.998895 104:-0.840417 105:-0.988335 106:-0.733854 107:-0.991609 108:-0.882221 109:-0.995769 110:-0.91946 111:-0.874828 112:-0.970008 113:-0.963182 114:-0.996175 115:0.764334 116:-0.984204 117:-0.960857 118:-0.905498 119:-0.940728 120:-0.99374 121:0.297606 122:-0.215065 123:-0.399962 124:-0.315581 125:-0.0275811 126:0.342755 127:0.460657 128:0.41911 129:0.372684 130:0.387099 131:0.333595 132:0.382022 133:0.347632 134:0.367167 135:0.10982 136:0.0634591 137:-0.0260741 138:0.0178687 139:0.011104 140:0.205045 141:0.10347 142:0.131954 143:-0.124942 144:-0.201187 145:-0.171227 146:-0.234801 147:-0.106196 148:-0.203699 149:-0.518388 150:-0.473548 151:-0.114437 152:-0.104905 153:-0.135137 154:-0.153236 155:-0.000164512 156:-0.200048 157:-0.243867 158:-0.133303 159:0.0461795 160:0.00900619 161:-0.0210758 162:-0.0617804 163:-0.143894 164:-0.13389 165:-0.0907686 166:0.162767 167:0.244694 168:0.344367 169:0.248073 170:0.00636983 171:-0.090045 172:0.0118042 173:0.0790047 174:-0.0337646 175:0.0792412 176:0.0320115 177:0.0654767 178:-0.133491 179:0.115274 180:0.089055 181:0.0565682 182:0.105345 183:0.150785 184:0.0266053 185:0.00100204 186:-0.0409022 
1 0:0.256757 1:0.408805 2:-0.245283 3:0.373913 4:0.314286 5:-0.148148 6:-0.00699301 7:-0.0687023 8:-0.146444 9:-0.258182 10:0.15942 11:0.290909 12:0.254658 13:0.0909091 14:-0.0232558 15:0.148148 16:0.0322581 17:-0.547009 18:-0.815603 19:-0.387755 20:-0.418182 21:-0.452229 22:-0.424084 23:-0.496552 24:-0.0285714 25:0.137725 27:0.303571 28:0.0147059 29:0.300813 30:-0.00854701 31:0.174825 33:-0.158537 34:0.185629 35:-0.305785 36:-0.322314 37:0.102804 38:-0.139785 39:-0.219512 40:-0.16129 41:-0.0704225 42:0.0225564 43:0.262411 44:-0.319728 45:-0.386935 46:0.151515 47:-0.28 48:-0.149254 49:-0.0821918 50:-0.115385 51:-0.232704 52:0.0948905 53:0.252033 54:-0.46789 55:-0.366667 56:-0.251613 57:-0.234973 58:-0.491525 59:0.108108 60:0.0294118 61:-0.917899 62:-0.931732 63:-0.954936 64:-0.959348 65:-0.951567 66:-0.968792 67:-0.966968 68:-0.949984 69:-0.983669 70:-0.91821 71:-0.756203 72:-0.955985 73:-0.965354 74:-0.931585 75:-0.829216 76:-1 77:-0.905044 78:1 79:-0.997694 80:-0.847769 81:-0.981081 82:-0.956956 83:-1 84:0.354903 85:-0.980208 86:-0.771811 87:-0.43622 88:-0.797947 89:-0.998744 90:-0.845352 91:-0.957603 92:-0.97647 93:-0.918039 94:-0.658619 95:-0.994426 96:-0.955728 97:-0.945552 98:-0.9228 99:-0.990154 100:-0.963089 101:-0.950424 102:-0.808074 103:-0.975572 104:-0.964304 105:-0.992306 106:-0.857539 107:-0.990152 108:-0.717698 109:-0.992378 110:-0.935726 111:-0.515392 112:-1 113:-0.376633 114:-0.970144 115:-0.811845 116:-0.988312 117:-0.938223 118:-0.890242 119:-0.936 120:-0.988891 121:-0.0601477 122:-0.293448 123:-0.250073 124:-0.762008 125:0.121088 126:0.312648 127:0.410025 128:0.426677 129:0.424518 130:0.398314 131:0.374384 132:0.366553 133:0.387551 134:0.255706 135:-0.000718203 136:0.0406789 137:0.0317437 138:-0.00416628 139:0.114869 140:0.226096 141:0.208577 142:0.310628 143:0.0036204 144:-0.438353 145:-0.235731 146:-0.422274 147:-0.278632 148:-0.344747 149:-0.472979 150:-0.536129 151:-0.265208 152:-0.152275 153:-0.22048 154:-0.171019 155:0.070049 156:-0.0976783 157:-0.154834 158:-0.0366273 159:0.0693772 160:0.116142 161:0.00257943 162:-0.0814722 163:-0.0437444 164:-0.0325694 165:-0.0275365 166:-0.0158263 167:0.0163999 168:0.097792 169:0.116475 170:-0.1378 171:-0.148876 172:-0.00217445 173:0.0670424 174:-0.0487588 175:0.102897 176:0.0855647 177:0.163215 178:-0.0206151 179:0.187711 180:0.0781725 181:0.0929183 182:0.118673 183:0.0904411 184:-0.0166847 185:0.0670212 186:0.151487 
1 0:0.0810811 1:0.245283 2:-0.132075 3:0.0608696 4:0.387755 5:-0.259259 6:0.300699 7:-0.267176 8:-0.221757 9:-0.0981818 10:0.15942 11:0.218182 12:0.416149 13:-0.0909091 14:-0.0232558 15:-0.0925926 16:-0.0322581 17:-0.282051 18:-0.191489 19:-0.204082 20:-0.254545 21:0.171975 22:-0.382199 23:-0.434483 24:0.177143 25:0.293413 26:-0.522388 27:0.0267857 28:0.220588 29:0.0894309 30:-0.00854701 31:0.048951 33:-0.268293 34:0.293413 35:-0.0909091 36:0.272727 37:0.102804 38:-0.333333 39:-0.219512 40:-0.306452 41:-0.197183 42:-0.112782 43:0.262411 44:-0.142857 45:-0.477387 46:0.242424 47:0.008 48:-0.0895522 49:0.0958904 50:-0.288462 51:-0.119497 52:0.357664 53:0.252033 54:-0.0642202 55:-0.222222 56:-0.251613 57:-0.136612 58:-0.271186 59:-0.256757 60:-0.227941 61:0.891864 62:-0.975934 63:-0.392929 64:-0.999362 65:-0.630278 66:-0.983827 67:-0.935727 68:-0.998356 69:-0.48907 70:-0.962915 71:-0.799456 72:-0.984085 73:-0.968784 74:-0.973572 75:-0.823387 76:-0.874481 77:-0.0879334 78:-0.98705 79:-0.940709 80:-0.974585 81:-0.817351 82:-0.996434 83:-0.605211 84:-0.895493 85:-0.967222 86:-0.936453 87:-0.766211 88:-0.994619 89:-0.926044 90:-0.987996 91:-0.7195 92:-0.971105 93:-0.962878 94:-0.602056 95:-0.996265 96:-0.891167 97:-0.904035 98:-0.992941 99:-0.934021 100:-0.886346 101:-0.930193 102:-0.957527 103:-0.975878 104:-0.99552 105:-0.855958 106:-0.968789 107:-0.97884 108:-0.895236 109:-0.996268 110:-0.804821 111:-0.946035 112:-0.73622 113:-0.975145 114:-0.956432 115:-0.897934 116:-0.995916 117:-0.95343 118:-0.979322 119:-0.474032 120:-0.990861 121:0.253911 122:-0.319219 123:-0.259427 124:-0.542286 125:0.0889814 126:0.348339 127:0.420552 128:0.464823 129:0.450468 130:0.394601 131:0.331503 132:0.323916 133:0.292952 134:0.230164 135:0.0222643 136:0.0345532 137:-0.000383877 138:0.0447181 139:0.0801532 140:0.247843 141:0.146105 142:0.224976 143:0.200817 144:0.0717305 145:-0.0134731 146:-0.109366 147:0.0746434 148:-0.0194951 149:-0.398762 150:-0.438672 151:-0.0880951 152:-0.179118 153:-0.343767 154:-0.177869 155:-0.0247754 156:-0.130726 157:-0.22973 158:-0.117952 159:0.0629608 160:0.137094 161:0.10777 162:0.10777 163:0.00330033 164:-0.038883 165:0.0209228 166:-0.022332 167:-0.0482867 168:-0.0346163 169:-0.0419141 170:-0.172626 171:-0.269621 172:-0.257207 173:-0.0567813 174:-0.202477 175:-0.0153827 176:-0.0593378 177:0.0299843 178:-0.10807 179:0.0892253 180:0.109772 181:0.120776 182:0.146462 183:0.170098 184:0.0388709 185:0.0457086 186:-0.0292773 
1 0:0.337838 1:0.00628931 2:-0.245283 3:0.0608696 4:0.387755 5:-0.148148 6:0.300699 7:-0.267176 8:-0.0711297 9:-0.229091 10:0.246377 11:0.218182 12:0.416149 13:-0.0909091 14:0.116279 15:-0.0925926 16:-0.177419 17:-0.358974 18:-0.191489 19:-0.0204082 20:-0.272727 21:-0.0573248 22:-0.486911 23:-0.496552 24:0.28 25:0.401198 27:0.267857 28:-0.176471 29:-0.0569106 30:-0.811966 31:0.300699 33:-0.158537 34:0.185629 35:-0.239669 36:0.123967 37:0.102804 38:-0.139785 39:-0.0731707 40:0.145161 41:-0.0704225 42:-0.112782 43:0.262411 44:-0.142857 45:-0.19598 46:-0.040404 47:-0.28 48:0.0447761 49:-0.164384 50:0.0576923 51:-0.119497 52:-0.0364964 53:0.252033 54:-0.394495 55:-0.222222 56:-0.251613 57:-0.136612 58:-0.271186 60:-0.294118 61:-0.799864 62:-0.951496 63:-0.960248 64:-0.982337 65:-0.96745 66:-0.966892 67:-0.855022 68:-0.952759 69:-1 70:0.179087 71:-0.953248 72:-0.93672 73:-0.92003 74:-0.954483 75:-0.991951 76:-0.568735 77:-0.964242 78:-0.730074 79:-0.980467 80:-0.851559 81:-0.839053 82:-0.996359 83:-0.844751 84:-0.837677 85:-0.992346 86:-0.959199 87:-0.177447 88:-0.992875 89:-0.936997 90:-0.628573 91:-0.983129 92:-0.932344 93:-0.943633 94:-0.95361 95:-0.941284 96:-0.99383 97:-0.98333 98:-0.891621 99:-0.66449 100:-0.991282 101:-0.905203 102:-0.924716 103:-0.98596 104:-0.897073 105:-0.985466 106:-0.993903 107:-0.987865 108:-0.690188 109:-0.978579 110:-0.97973 111:-0.850564 112:-0.958914 113:-0.94848 114:-0.97343 115:-0.812379 116:-0.983995 117:-0.871621 118:-0.990981 119:-0.552094 120:-0.998608 121:0.331548 122:-0.190802 123:-0.235209 124:-0.611225 125:0.0238512 126:0.447292 127:0.494004 128:0.513059 129:0.503383 130:0.527553 131:0.520024 132:0.551877 133:0.469347 134:0.478628 135:0.243667 136:0.253932 137:0.150214 138:0.202111 139:0.242884 140:0.412018 141:0.309654 142:0.382192 143:0.271376 144:0.0705043 145:0.039326 146:-0.12227 147:-0.0716208 148:-0.110806 149:-0.484742 150:-0.480266 151:-0.141854 152:-0.0994276 153:-0.163567 154:-0.250058 155:-0.0968973 156:-0.361042 157:-0.335291 158:-0.285343 159:-0.12003 160:-0.101007 161:-0.190563 162:-0.190563 163:-0.227963 164:-0.275702 165:-0.217295 166:-0.0324034 167:-0.00088031 168:0.0132761 169:0.0941489 170:-0.0692359 171:-0.165896 172:-0.275969 173:-0.0678399 174:-0.1154 175:-0.0902513 176:0.0227457 177:0.0194235 178:-0.186099 179:0.00135318 180:-0.083251 181:-0.0161674 182:0.0429959 183:0.0604193 184:-0.0527146 185:0.041315 186:-0.0609061 
1 0:-0.148649 1:0.245283 2:-0.245283 3:-0.0956522 4:0.314286 5:-0.358025 6:-0.0629371 7:-0.267176 8:-0.0041841 9:-0.287273 10:-0.169082 11:0.0545455 12:0.416149 13:-0.0909091 14:0.24031 15:0.222222 16:-0.177419 17:-0.435897 18:-0.0638298 19:-0.183673 20:0.381818 21:0.0573248 22:-0.109948 23:-0.496552 24:0.28 25:0.497006 26:-0.253731 27:0.1875 28:-0.176471 29:0.365854 30:-0.00854701 31:-0.0629371 32:0.269841 33:-0.158537 34:-0.0179641 35:-0.371901 36:0.123967 37:0.102804 38:-0.505376 39:-0.219512 40:-0.435484 41:-0.0704225 42:0.0225564 43:0.0212766 44:-0.142857 45:-0.386935 46:0.323232 47:-0.28 48:0.298507 49:0.328767 50:-0.769231 51:-0.232704 52:0.0948905 53:0.252033 54:0.0825688 55:-0.0333333 56:-0.470968 57:-0.0491803 58:0.0169492 59:-0.256757 60:-0.485294 61:-0.952889 62:-0.515849 63:-0.945296 64:-0.98001 65:-0.963276 66:-0.987441 67:-0.932673 68:-0.954907 69:1 70:-1 71:-0.854006 72:-0.993323 73:-0.946889 74:-0.919428 75:-0.933012 76:-0.928757 77:-0.74052 78:-0.737449 79:-0.983607 80:-0.950541 81:-0.933113 82:-0.976538 83:-0.931841 84:-0.907177 85:-0.944387 86:-0.992067 87:-0.699556 88:-0.88932 89:-0.981455 90:-0.97182 91:-0.911054 92:-0.928257 93:-0.943002 94:-0.803841 95:-0.9757 96:-0.967209 97:-0.891756 98:-0.985729 99:-0.987106 100:-0.905669 101:-0.71582 102:-0.981807 103:-0.954094 104:-0.957854 105:-0.993654 106:-0.71197 107:-0.991453 108:-0.996546 109:-0.743239 110:-0.827347 111:-0.977478 112:-0.963133 113:-0.876402 114:-0.947943 115:-0.878125 116:-0.990132 117:-0.921332 118:-0.996038 119:-0.902735 120:-0.988147 121:0.158779 122:-0.342252 123:-0.438586 124:-0.55422 125:0.130251 126:0.518298 127:0.62371 128:0.646476 129:0.614849 130:0.688426 131:0.627533 132:0.618259 133:0.56994 134:0.676864 135:0.465787 136:0.195291 137:0.0959398 138:0.145388 139:0.184237 140:0.40184 141:0.299515 142:0.216358 143:-0.01556 144:-0.109548 145:-0.188784 146:-0.120987 147:-0.0015113 148:0.109473 149:-0.484031 150:-0.444175 151:-0.0542715 152:-0.0986381 153:-0.162717 154:-0.29893 155:-0.0343171 156:-0.192458 157:-0.32526 158:-0.0305886 159:0.0540149 160:-0.0889361 161:-0.119597 162:-0.119597 163:-0.160276 164:-0.25324 165:-0.147572 166:-0.243213 167:-0.220632 168:-0.277459 169:-0.475041 170:-0.393361 171:-0.491073 172:-0.311071 173:-0.197299 174:-0.250625 175:-0.0192834 176:-0.193352 177:-0.112814 178:-0.270887 179:-0.0941306 180:-0.068338 181:0.0239136 182:0.0498369 183:0.131284 184:0.108676 185:0.071145 186:-0.122309 
1 0:0.0810811 1:0.245283 2:-0.471698 3:-0.0956522 4:0.314286 5:-0.148148 6:0.426573 7:0.00763359 8:-0.146444 9:-0.163636 10:0.15942 11:0.0545455 12:0.416149 13:0.160839 14:-0.0232558 15:-0.0925926 16:-0.177419 17:-0.435897 18:0.191489 19:0.163265 20:0.4 21:-0.171975 22:-0.47644 23:-0.496552 24:0.0742857 25:0.293413 26:0.268657 27:0.1875 28:-0.176471 29:-0.479675 30:-0.00854701 31:0.426573 33:0.0609756 34:0.185629 35:-0.0909091 36:0.421488 37:0.102804 38:-0.139785 39:0.0731707 40:-0.16129 41:0.183099 42:0.0225564 43:0.262411 44:0.102041 45:-0.386935 46:-0.030303 47:-0.28 48:0.0447761 49:0.0958904 50:-0.115385 51:-0.232704 52:0.357664 53:-0.0406504 54:-0.229358 55:-0.222222 56:-0.251613 57:-0.234973 58:-0.271186 59:-0.256757 60:-0.227941 61:-0.908157 62:-0.970915 63:-0.908815 64:-0.991628 65:-0.833759 66:-0.830922 67:-0.849186 68:-1 69:-0.930082 70:-0.938432 71:-0.96821 72:-0.937829 73:-0.98599 74:-0.971588 75:-0.729784 76:-0.967533 77:-0.652401 78:-0.549831 79:-0.996512 80:-0.592611 81:-0.901865 82:-0.984206 83:-0.879198 84:-0.945199 85:-0.995416 86:-0.881648 87:-0.835654 88:-0.804419 89:-0.990603 90:-0.981511 91:-0.81464 92:-0.98578 93:-0.890719 94:-0.898698 95:-0.992477 96:-0.998599 97:-0.115017 98:-0.942958 99:-0.894481 100:-0.965984 101:-0.95097 102:-0.982231 103:-0.995539 104:-0.647863 105:-0.98894 106:-0.951773 107:-0.864036 108:-0.979012 109:-0.963949 110:-0.981696 111:-0.974956 112:-0.611581 113:-0.795678 114:-0.999364 115:-0.905321 116:-0.94612 117:-0.982996 118:-0.781742 119:-0.923148 120:-0.982175 121:-0.283331 122:-0.238975 123:-0.774309 124:-0.427046 125:0.0238512 126:0.283463 127:0.379699 128:0.34088 129:0.347521 130:0.307436 131:0.271975 132:0.41855 133:0.454382 134:0.461139 135:0.396644 136:0.230514 137:0.0237118 138:0.0699009 139:0.219464 140:0.217498 141:0.115876 142:0.143664 143:0.0269604 144:0.0406247 145:0.069745 146:0.207791 147:0.170039 148:0.0144131 149:-0.459529 150:-0.490588 151:-0.112745 152:0.0161847 153:-0.0390583 154:-0.151062 155:-0.231599 156:-0.37162 157:-0.300832 158:-0.195158 159:0.0880711 160:0.0514729 161:-0.0900283 162:0.021642 163:-0.132073 164:-0.12193 165:-0.00880799 166:-0.107907 167:0.0361579 168:0.119132 169:0.142003 170:-0.0328735 171:-0.129416 172:-0.17669 173:-0.082301 174:-0.130505 175:0.0102866 176:0.00850674 177:0.0468815 178:-0.059442 179:-0.0061316 180:0.0188428 181:0.040614 182:0.0664965 183:0.152025 184:0.057224 185:0.0271708 186:-0.104027 
1 0:-0.324324 1:0.245283 2:-0.0566038 3:0.165217 4:0.191837 5:-0.148148 6:0.174825 7:-0.0381679 8:-0.271967 9:-0.272727 10:0.304348 11:-0.218182 12:0.602484 13:-0.0909091 14:-0.0232558 15:1 16:0.774194 17:-0.811966 18:-0.276596 19:0.163265 20:-0.2 21:0.248408 22:-0.13089 23:-0.6 24:0.451429 25:0.293413 26:-0.223881 27:0.1875 28:-0.176471 29:-0.382114 30:0.247863 31:0.174825 32:0.238095 33:0.378049 34:-0.161677 35:-0.338843 36:-0.123967 37:-0.17757 38:-0.139785 39:-0.219512 40:0.0806452 41:-0.0704225 42:0.0225564 43:0.262411 44:-0.142857 45:-0.537688 46:0.30303 47:-0.28 48:0.0447761 49:0.0958904 50:-0.115385 51:-0.421384 52:0.0948905 53:0.495935 54:-0.229358 55:-0.388889 56:-0.251613 57:-0.0710383 58:-0.271186 59:-0.256757 60:-0.147059 61:-0.980751 62:-0.759169 63:-0.97528 64:-0.984777 65:-0.82914 66:-0.981422 67:-0.951698 68:-0.945327 69:-0.982181 70:-0.722852 71:-0.97639 72:-0.910519 73:-0.986374 74:-0.882992 75:1 76:-0.999759 77:-0.636273 78:-0.991692 79:-0.949552 80:-0.961537 81:-0.740428 82:-0.990354 83:-0.855254 84:-0.980497 85:-0.957903 86:-0.967492 87:-0.905732 88:-0.85791 89:-0.960562 90:-0.966501 91:-0.953464 92:-0.945653 93:-0.70745 94:-0.930168 95:-0.997719 96:-0.977488 97:-0.824451 98:-0.995919 99:-0.659831 100:-0.969022 101:-0.918057 102:-0.95407 103:-0.990373 104:-0.896313 105:-0.985061 106:-0.741275 107:-0.985506 108:-0.949009 109:-0.968365 110:-0.986045 111:-0.667384 112:-0.980668 113:-0.982785 114:-0.88648 115:-0.899487 116:-0.96409 117:-0.987913 118:-0.898179 119:-0.719903 120:-0.995967 121:-0.421059 122:-0.793895 123:-0.438586 124:-0.512108 125:-1 126:0.262164 127:0.313485 128:0.37272 129:0.37157 130:0.335821 131:0.303961 132:0.296531 133:0.327285 134:0.242364 135:-0.115239 136:-0.0624382 137:-0.229647 138:-0.0129309 139:0.0205488 140:0.132661 141:0.402733 142:0.764919 143:0.354645 144:0.0103578 145:0.0395833 146:-0.0902096 147:0.24413 148:0.246022 149:-0.401558 150:-0.373662 151:-0.121355 152:-0.152472 153:-0.220693 154:-0.162127 155:-0.10611 156:-0.257657 157:-0.293971 158:-0.0212766 159:0.441466 160:0.133154 161:0.0110727 162:-0.0817238 163:-0.124152 164:-0.113917 165:-0.110363 166:-0.00738146 167:0.025203 168:0.1073 169:0.127849 170:-0.0436286 171:-0.234939 172:-0.0768514 173:0.0031368 174:-0.0412617 175:0.0185913 176:0.0926319 177:-0.00869709 178:-0.176486 179:0.0745095 180:0.0241632 181:0.0453043 182:0.0711754 183:0.145713 184:-0.0168651 185:0.020696 186:-0.011956 
1 0:-0.391892 1:0.0691824 2:-0.597484 3:0.756522 4:0.314286 5:0.0246914 6:-0.118881 7:-0.267176 8:-0.0292887 9:-0.418182 10:0.0917874 11:0.309091 12:0.329193 13:0.00699301 14:0.193798 15:0.166667 16:-0.403226 17:-0.615385 18:-0.163121 19:0.306122 20:0.327273 21:0.0573248 22:-0.287958 23:-0.448276 24:0.2 25:0.377246 26:-0.104478 27:0.0625 28:-0.0735294 29:0.0894309 30:-0.00854701 31:0.272727 32:-0.444444 33:0.097561 34:0.0179641 35:0.256198 36:0.123967 37:0.102804 38:-0.741935 39:-0.219512 40:-0.274194 41:0.126761 42:-0.0827068 43:0.163121 44:-0.142857 45:-0.316583 46:0.0808081 47:-0.28 48:0.0447761 49:0.191781 50:-0.384615 51:-0.144654 52:-0.00729927 53:0.138211 54:0.412844 55:-0.144444 56:-0.251613 57:-0.234973 58:-0.271186 59:-0.162162 60:-0.154412 61:-0.575221 62:-0.971209 63:-0.883872 64:-0.980293 65:-0.884559 66:-0.951276 67:-0.989954 68:-0.752412 69:-0.994492 70:-0.457557 71:-0.988219 72:-0.879844 73:-0.983719 74:-0.919813 75:-0.969466 76:-0.912571 77:0.0249113 78:-0.989207 79:-0.956072 80:-0.828556 81:-0.972516 82:-0.977324 83:-0.810499 84:-0.901785 85:-0.967823 86:-0.982683 87:-0.950952 88:-0.824415 89:-0.973299 90:-0.952898 91:-0.918154 92:-0.85827 93:-0.939317 94:-0.981254 95:-0.942721 96:-0.99994 97:0.0732528 98:-0.966454 99:-0.986705 100:-0.940022 101:-0.950591 102:-0.866595 103:-0.987215 104:-0.923708 105:-0.995532 106:-0.925184 107:-0.964119 108:-0.895706 109:-0.954665 110:-0.920194 111:-1 112:-0.415225 113:-0.98405 114:-0.942355 115:-0.789957 116:-0.987807 117:-0.977884 118:-0.988144 119:1 120:-0.997 121:-0.0779336 122:-0.313678 123:-0.0703383 124:-0.86247 125:-0.0119302 126:0.29535 127:0.350689 128:0.280493 129:0.474386 130:0.457172 131:0.440711 132:0.282622 133:0.254093 134:0.358971 135:0.0955863 136:0.00539195 137:-0.0798169 138:-0.081011 139:0.0384812 140:0.325347 141:0.266893 142:0.203935 143:-0.191496 144:-0.346262 145:-0.271295 146:-0.193203 147:-0.0169192 148:0.0086645 149:-0.401159 150:-0.399583 151:-0.00989084 152:-0.00651337 153:-0.173823 154:-0.155607 155:-0.00253348 156:-0.163594 157:-0.104262 158:-0.176985 159:0.083814 160:0.0471574 161:0.0608367 162:0.0608367 163:0.0118212 164:-0.144331 165:-0.0986185 166:-0.13099 167:-0.0585895 168:0.0655351 169:0.019588 170:-0.125892 171:-0.133847 172:-0.113693 173:0.00840023 174:-0.112623 175:0.161156 176:-0.0470357 177:0.060217 178:-0.13995 179:0.0240612 180:0.115495 181:0.15041 182:0.176024 183:0.201435 184:0.116522 185:0.104521 186:0.0540836 
1 0:-0.0945946 1:0.207547 2:-0.459119 3:0.0782609 4:0.371429 5:1 6:0.0769231 7:-0.267176 8:-0.146444 9:-0.425455 10:0.449275 11:-0.490909 12:0.416149 13:-0.048951 14:-0.333333 15:-0.037037 16:-0.33871 17:-0.350427 18:-0.163121 19:0.163265 20:0.0181818 21:0.0573248 22:-0.602094 23:-0.475862 24:-0.0971429 25:0.688623 27:0.0714286 28:-0.176471 29:0.0894309 30:-0.401709 31:0.174825 32:-0.412698 33:0.158537 34:-0.0179641 35:-0.0909091 36:-0.0413223 37:0.588785 38:-0.569892 39:-0.268293 40:-0.0483871 41:-0.0704225 42:0.0225564 43:0.262411 44:-1 45:-0.386935 46:0.151515 47:-0.28 48:0.0447761 49:-0.136986 50:-0.557692 51:-0.773585 52:0.138686 53:0.788618 54:-0.174312 55:-0.411111 56:-0.16129 57:0.278689 58:-0.271186 59:-0.256757 60:0.294118 61:-0.952322 62:-0.894077 63:-0.836748 64:-0.985355 65:0.0540026 66:-0.99825 67:-0.996455 68:-0.564784 69:-0.983571 70:-0.860825 71:-0.986416 72:-0.955848 73:-0.863676 74:-0.976594 75:-0.769368 76:-0.986492 77:-0.686327 78:-0.765504 79:-0.995297 80:-0.856111 81:-0.878334 82:-0.994042 83:-0.509645 84:-0.89737 85:-0.980543 86:-0.970859 87:-0.450637 88:-0.979921 89:-0.980611 90:-0.922202 91:-0.941944 92:-0.979504 93:-0.496021 94:-0.999343 95:-0.975256 96:-0.405691 97:-0.876734 98:-1 99:-0.748906 100:-0.989182 101:1 102:-1 103:-0.995358 104:-0.927057 105:-0.958293 106:-0.926245 107:-0.976012 108:-0.941047 109:-0.960099 110:-0.961109 111:-0.259161 112:-0.938854 113:-0.987093 114:-0.989292 115:-0.865939 116:-0.997356 117:0.260642 118:-0.997699 119:-1 120:1 121:-0.558572 122:-0.569742 123:-0.550639 124:-0.229006 125:0.244028 126:0.307093 127:0.394383 128:0.35983 129:0.341983 130:0.326424 131:0.695908 132:0.657647 133:0.607005 134:0.608053 135:0.245103 136:0.406247 137:0.115783 138:0.166127 139:0.374154 140:0.357777 141:0.401096 142:0.412863 143:0.315283 144:0.167629 145:0.0690376 146:0.19681 147:0.169229 148:0.0514038 149:-0.278736 150:-0.393852 151:0.0790755 152:0.0807263 153:-0.0396429 154:0.0737362 155:0.226598 156:-0.132937 157:-0.254054 158:-0.311981 159:0.0137274 160:-0.147727 161:-0.0749292 162:-0.137213 163:-0.0978698 164:-0.307634 165:-0.327997 166:-0.299262 167:-0.0639366 168:0.0110223 169:-0.0151228 170:-0.553535 171:-0.270392 172:-0.223285 173:-0.087086 174:-0.135503 175:-0.161408 176:-0.117079 177:-0.2301 178:-0.364838 179:-0.0743826 180:-0.104452 181:-0.12671 182:-0.077024 183:0.00755242 184:-0.0863997 185:-0.108298 186:0.063655 
1 0:-0.0540541 1:0.522013 2:-0.245283 3:-0.0608696 4:0.216327 5:-0.444444 6:0.104895 7:-0.0839695 8:-0.0041841 9:-0.272727 10:0.256039 11:-0.218182 12:0.540373 13:-0.300699 14:0.162791 15:0.222222 16:0.016129 17:-0.418803 18:-0.0921986 19:-0.0816327 20:-0.0545455 21:0.0573248 22:-0.340314 23:-0.531034 24:0.302857 25:0.317365 26:0.104478 27:0.1875 28:-0.25 29:-0.105691 30:0.0769231 31:0.412587 32:-0.190476 33:-0.097561 34:0.652695 35:0.917355 36:0.00826446 37:0.364486 38:-0.548387 39:-0.252033 40:-0.193548 41:-0.140845 42:0.203008 43:0.503546 44:0.482993 45:-0.165829 46:-0.0707071 47:-0.2 48:0.298507 49:0.356164 50:0.288462 51:-0.144654 52:0.124088 53:-0.219512 54:-0.541284 55:-0.377778 56:-0.0322581 57:-0.15847 58:-0.186441 59:-0.256757 60:-0.433824 61:-0.864259 62:-0.978518 63:-0.911717 64:-0.92733 65:-0.965024 66:-0.966767 67:-0.956138 68:-0.944548 69:-0.994467 70:-0.533403 71:-0.910506 72:-0.986816 73:-0.915167 74:-0.971166 75:-0.85011 76:-0.982229 77:-0.3682 78:-0.972248 79:-0.975337 80:-0.930219 81:-0.86521 82:-0.990137 83:-0.911067 84:-0.683825 85:-0.989465 86:-0.984148 87:-0.0579223 88:-0.978314 89:-0.972686 90:-0.888133 91:-0.914558 92:-0.979654 93:-0.790025 94:-0.649036 95:-0.979466 96:-0.985188 97:-0.924173 98:-0.981142 99:-0.952199 100:-0.972294 101:-0.911045 102:-0.910217 103:-0.979853 104:-0.862852 105:-0.991157 106:-0.858883 107:-0.981339 108:-0.98245 109:-0.97395 110:-0.890684 111:-0.800863 112:-0.975334 113:-0.920719 114:-0.991921 115:-0.907733 116:-0.984302 117:-0.928193 118:-0.914996 119:-0.953113 120:-0.9977 121:-0.64874 122:-0.410633 123:-0.703089 124:0.00654229 125:0.24947 126:0.0989394 127:0.245955 128:0.295198 129:0.248636 130:0.143857 131:-0.028544 132:-0.0550946 133:-0.0142918 134:-0.00571837 135:-0.453839 136:-0.425581 137:-0.564565 138:-0.500046 139:-0.575877 140:-0.366248 141:-0.389319 142:-0.261115 143:-0.615699 144:-0.627957 145:-0.674459 146:-0.823107 147:-0.665229 148:-0.842206 149:-0.937457 150:-0.80425 151:-0.627274 152:-0.495016 153:-0.563822 154:-0.716516 155:-0.642681 156:-0.715959 157:-0.566632 158:-0.51109 159:-0.336953 160:-0.106511 161:0.243976 162:0.198238 163:0.230123 164:0.141478 165:0.119758 166:0.118041 167:0.124319 168:0.299715 169:0.50099 170:0.55027 171:0.626846 172:0.544669 173:0.560742 174:0.608486 175:1 176:0.946237 177:0.818852 178:0.592054 179:0.754652 180:0.672437 181:0.565149 182:0.649865 183:0.758398 184:0.817731 185:0.705168 186:0.446479 
1 0:0.121622 1:0.18239 2:-0.496855 3:-0.147826 4:0.208163 5:-0.0493827 6:0.230769 7:-0.0992366 8:0.0460251 9:-0.207273 10:0.15942 11:0.0363636 12:0.689441 13:-0.0909091 14:-0.0387597 15:-0.0925926 16:-0.16129 17:-0.512821 18:-0.0638298 19:0.367347 20:0.0545455 21:-0.044586 22:-0.319372 23:-0.496552 24:0.28 25:0.293413 26:0.0597015 27:0.375 28:-0.117647 29:0.0731707 30:-0.00854701 31:0.286713 32:0.460317 33:-0.170732 34:0.149701 35:-0.0909091 36:0.239669 37:0.102804 38:-0.0537634 39:-0.219512 40:-0.209677 41:-0.0704225 42:0.203008 43:0.148936 44:-0.102041 45:-0.417085 46:0.161616 47:-0.28 48:0.0447761 49:0.0821918 50:-0.134615 51:-0.484277 52:0.080292 53:0.268293 54:-0.211009 55:-0.177778 56:0.0709677 57:-0.0382514 58:-0.271186 59:-0.0675676 60:-0.242647 61:-0.968973 62:-0.508505 63:-0.964404 64:-0.989571 65:-0.956749 66:-0.971265 67:-0.966792 68:-0.435285 69:-0.992296 70:-0.999854 71:0.332633 72:-0.976649 73:-0.98688 74:-0.426975 75:-0.992974 76:-0.923284 77:-0.871129 78:-0.853624 79:-0.789645 80:-0.985365 81:-0.96841 82:-0.993109 83:-0.522426 84:-0.957926 85:-0.940045 86:-0.874697 87:-0.595319 88:-0.953605 89:-0.958107 90:-0.946093 91:-0.911812 92:-0.991976 93:-0.997596 94:-0.315496 95:-0.96412 96:-0.972328 97:-0.975763 98:-0.970063 99:-0.881411 100:-0.939331 101:-0.92317 102:-0.973104 103:-0.913739 104:-0.963292 105:-0.987239 106:-0.840429 107:-0.991781 108:-0.981629 109:-0.964093 110:-0.956617 111:-0.100597 112:-0.989291 113:-0.89848 114:-0.992043 115:-0.868327 116:-0.95825 117:-0.990097 118:-0.977962 119:-0.821202 120:-0.989154 121:-0.328706 122:-0.301803 123:-0.823073 124:-0.395304 125:-0.0474339 126:0.452905 127:0.521668 128:0.477251 129:0.417998 130:0.31227 131:0.368501 132:0.451221 133:0.374014 134:0.427591 135:0.230609 136:0.0401046 137:-0.05141 138:0.128167 139:0.025016 140:0.137086 141:0.0357705 142:0.0756063 143:-0.124865 144:-0.180665 145:-0.0896813 146:-0.143349 147:-0.0781083 148:-0.118137 149:-0.530151 150:-0.498027 151:-0.239686 152:-0.153015 153:-0.110214 154:-0.0348098 155:0.0973579 156:-0.0123405 157:-0.0411123 158:0.0332412 159:0.220409 160:0.165864 161:0.0211387 162:0.0371186 163:-0.0374437 164:-0.00312642 165:-0.0210465 166:-0.0250844 167:0.00674905 168:0.189914 169:0.216058 170:-0.0455491 171:-0.166538 172:-0.0983474 173:-0.0152587 174:-0.0464264 175:0.0975495 176:0.0711687 177:0.00733041 178:-0.178626 179:0.0124746 180:-0.0605187 181:-0.0180862 182:0.0483482 183:0.0494477 184:-0.065882 185:-0.0780437 186:-0.18815 
1 0:0.0810811 1:0.18239 2:-0.245283 3:-0.0956522 4:0.273469 5:-0.0864198 6:0.174825 7:-0.0992366 8:-0.146444 9:-0.0836364 10:0.15942 11:0.145455 12:0.552795 13:-0.160839 14:0.147287 15:-0.296296 17:-0.34188 18:-0.0638298 19:0.163265 20:0.0727273 21:0.0573248 22:-0.340314 23:-0.496552 24:0.222857 25:0.293413 26:-0.0746269 27:0.1875 28:0.220588 29:-0.512195 30:-0.00854701 31:0.538462 32:-0.0793651 33:-0.219512 34:0.245509 35:-0.0909091 36:0.0413223 37:0.102804 38:0.204301 39:0.0406504 40:-0.419355 41:-0.0704225 42:0.0225564 43:0.262411 44:-0.0748299 45:-0.386935 46:0.10101 47:-0.28 48:-0.119403 49:0.0958904 50:-0.0192308 51:-0.295597 52:0.255474 53:0.252033 54:-0.229358 55:-0.1 56:-0.187097 57:-0.114754 58:-0.271186 59:-0.324324 60:-0.169118 61:-0.87777 62:-0.963143 63:-0.948297 64:-0.983579 65:-0.640883 66:-0.983745 67:-0.972133 68:-0.981068 69:-0.897957 70:-0.9327 71:-0.713231 72:-0.965251 73:-0.969538 74:-0.852947 75:-0.971706 76:-0.894365 77:-0.942786 78:-0.95134 79:-0.826999 80:-1 81:-0.447728 82:-0.749666 83:-0.941357 84:-0.952906 85:-0.973081 86:-0.623184 87:-0.922373 88:-0.927477 89:-0.966478 90:-1 91:1 92:-0.971083 93:-0.897574 94:-0.96576 95:-0.959285 96:-0.958744 97:-0.950128 98:-0.897145 99:-0.987387 100:-0.972596 101:-0.94306 102:-0.980888 103:-0.922848 104:-0.986778 105:-0.95587 106:-0.739071 107:-0.967889 108:-0.984627 109:-0.996763 110:-0.915143 111:-0.77964 112:-0.9417 113:-0.983292 114:-0.816582 115:-0.917186 116:-0.935686 117:-0.979259 118:-0.997329 119:-0.825277 120:-0.944537 121:-0.0668679 122:-0.258402 123:-0.338578 124:-0.371669 125:0.0395668 126:0.376833 127:0.460897 128:0.495278 129:0.471142 130:0.432886 131:0.413344 132:0.428212 133:0.391099 134:0.336764 135:0.17942 136:0.0639696 137:0.00564004 138:0.0836651 139:0.120421 140:0.298543 141:0.12992 142:0.156919 143:-0.0925897 144:-0.139879 145:-0.0761118 146:-0.201138 147:-0.0752331 148:-0.247188 149:-0.598908 150:-0.562467 151:-0.273664 152:-0.252443 153:-0.300244 154:-0.183534 155:-0.23943 156:-0.347118 157:-0.124116 158:-0.0331283 159:0.15569 160:0.0206392 161:-0.00937402 162:-0.0426549 163:-0.0868887 164:0.05236 165:0.0589362 166:-0.0277117 167:0.0040103 168:0.0844103 169:0.100468 170:-0.0305048 171:-0.127039 172:-0.0970427 173:-0.0141422 174:-0.118121 175:0.0243166 176:0.0479257 177:0.056117 178:-0.0779543 179:0.0559878 180:0.0705145 181:0.0861671 182:0.130725 183:0.193207 184:0.0827471 185:0.0285968 186:-0.0151355 
0.9764420826834511 0:0.878378 1:0.119497 2:-0.371069 3:-0.6 4:0.395918 5:-0.0246914 6:0.034965 7:-0.572519 8:-0.313808 9:-0.374545 10:0.0628019 11:0.781818 12:0.416149 13:0.188811 14:0.131783 15:-0.0925926 16:-0.177419 17:-0.435897 18:0.347518 19:-0.0408163 20:0.0727273 21:0.0573248 22:-0.39267 23:-0.358621 24:0.28 25:0.173653 27:0.00892857 28:-0.176471 29:0.0894309 30:-0.00854701 31:0.174825 32:-0.15873 33:0.0853659 34:0.185629 35:-0.421488 36:0.123967 37:0.476636 38:-0.139785 39:-0.382114 40:0.16129 41:-0.0704225 42:0.0225564 43:0.262411 44:-0.142857 45:-0.487437 46:0.252525 47:-0.28 48:0.0447761 49:0.0958904 50:-0.115385 51:-0.232704 52:0.0948905 53:0.252033 54:-0.229358 55:-0.333333 56:-0.122581 57:-0.344262 58:0.0677966 59:0.135135 61:-0.923935 62:-0.929309 63:-0.924169 64:-0.985883 65:-0.910958 66:-0.891242 67:-0.987689 68:-0.951955 69:-0.942095 70:-0.928272 71:-0.921388 72:-0.973342 73:-0.98338 74:-0.851864 75:-0.984647 76:-0.939782 77:-0.148548 78:-0.936862 79:-0.979447 80:-0.902952 81:-0.935562 82:-0.993284 83:-0.853638 84:-0.684453 85:-0.980757 86:-0.975772 87:-0.643259 88:-0.95416 89:-0.988725 90:-0.963397 91:-0.843672 92:-0.979666 93:-0.720543 94:-0.914359 95:-0.990864 96:-0.990706 97:-0.555245 98:-0.998259 99:-0.925589 100:-0.905453 101:-0.968589 102:-0.856364 103:-0.987419 104:-0.839776 105:-0.997699 106:-0.587055 107:-0.982925 108:-0.945186 109:-0.994444 110:-0.923178 111:-0.691826 112:-0.982813 113:-0.979608 114:-0.872216 115:-0.892573 116:-0.999198 117:-0.4748 118:-0.872774 119:-0.860114 120:-0.997193 121:-0.372211 122:-0.0767091 123:-0.450278 124:-0.617742 125:0.140136 126:0.492884 127:0.597302 128:0.619313 129:0.457414 130:0.475076 131:0.503595 132:0.452564 133:0.374014 134:0.273767 135:-0.16806 136:-0.270651 137:-0.161553 138:-0.0632349 139:0.0311423 140:0.267124 141:0.103533 142:0.132014 143:-0.124865 144:-0.0112613 145:0.0180392 146:0.0796297 147:0.110767 148:-0.149796 149:-0.416428 150:-0.386376 151:-0.0629837 152:-0.0234876 153:-0.185992 154:-0.151721 155:-0.0631395 156:-0.160068 157:-0.260031 158:-0.206219 159:0.0874541 160:-0.0104447 161:-0.164014 162:-0.164014 163:-0.143834 164:-0.133829 165:-0.130636 166:-0.120168 167:-0.0283982 168:0.0494066 169:-0.0240532 170:-0.159054 171:-0.256005 172:-0.12792 173:-0.0927216 174:-0.141389 175:-0.00204473 176:-0.0017537 177:0.0387642 178:-0.133453 179:0.0606394 180:0.0504827 181:0.0336496 182:0.0943216 183:0.0779665 184:0.10101 185:0.14017 186:0.0904816 
1 0:0.310811 1:0.194969 2:-0.295597 3:-0.165217 4:0.314286 5:-0.308642 6:0.174825 7:-0.206107 8:-0.0376569 9:-0.0690909 10:0.0724638 11:0.290909 12:0.416149 13:-0.328671 14:-0.286822 15:-0.0925926 16:-0.241935 17:-0.401709 18:-0.0070922 19:-0.0204082 20:0.236364 21:-0.10828 22:-0.382199 23:-0.496552 24:0.28 25:0.245509 26:0.134328 27:0.0357143 28:-0.117647 29:0.0243902 30:0.0598291 31:0.118881 32:0.0634921 33:-0.268293 34:0.185629 35:-0.0909091 36:0.272727 37:0.0280374 38:0.0537634 39:-0.0731707 40:-0.16129 41:-0.197183 42:0.0827068 43:0.319149 44:-0.142857 45:-0.256281 46:0.242424 47:-0.28 48:-0.0149254 49:0.0410959 50:-0.115385 51:-0.232704 52:0.0948905 53:0.186992 54:-0.155963 55:-0.222222 56:-0.367742 57:-0.333333 58:0.0169492 59:-0.135135 60:-0.139706 61:-0.924113 62:-0.876698 63:-0.966574 64:-0.970806 65:-0.929195 66:-0.974617 67:-0.970337 68:-0.800761 69:-0.992633 70:-0.939826 71:-0.824464 72:-0.986299 73:-0.865454 74:-0.944762 75:-0.983072 76:-0.900646 77:-0.859731 78:-0.907126 79:-0.982478 80:-0.757003 81:-0.96534 82:-0.985084 83:-0.95575 84:0.962814 85:-0.980605 86:-0.983884 87:-0.383553 88:-0.969344 89:-0.981049 90:-0.984574 91:-0.912715 92:-0.963128 93:-0.898436 94:-0.754795 95:-0.995646 96:-0.911506 97:-0.957273 98:-0.989343 99:-0.839403 100:-0.977539 101:-0.793482 102:-0.985984 103:-0.938392 104:-0.976015 105:-0.982293 106:-0.841102 107:-0.986964 108:-0.967455 109:-0.971763 110:-0.921546 111:-0.850952 112:-0.947666 113:-0.974741 114:-0.988163 115:-0.349274 116:-0.995093 117:-0.90904 118:-0.930324 119:-0.779682 120:-0.996705 121:-0.0324455 122:0.700738 123:-0.509312 124:-0.881825 125:-0.0383451 126:0.392289 127:0.454168 128:0.472083 129:0.429105 130:0.387099 131:0.305487 132:0.37262 133:0.356317 134:0.408053 135:0.292309 136:0.131991 137:0.113598 138:0.190384 139:0.0934907 140:0.204918 141:0.103344 142:0.106217 143:-0.125096 144:-0.201317 145:-0.171356 146:-0.0625576 147:-0.106344 148:-0.114221 149:-0.528064 150:-0.481822 151:-0.213909 152:-0.105151 153:-0.261186 154:-0.224436 155:-0.0995953 156:-0.226044 157:-0.288825 158:-0.133585 159:0.0193417 160:-0.0450935 161:-0.102548 162:-0.0484429 163:-0.0924092 164:-0.0556989 165:-0.024446 166:-0.0396597 167:-0.036484 168:0.0406733 169:0.120687 170:-0.131718 171:-0.145665 172:-0.0821322 173:-0.00138232 174:-0.0699173 175:0.0789267 176:0.0656197 177:0.0920649 178:-0.0851264 179:0.0968792 180:0.0801878 181:0.0793803 182:0.105168 183:0.126324 184:0.104031 185:0.10032 186:0.0728622 
1 0:0.5 1:0.157233 2:-0.157233 3:-0.0956522 4:0.428571 5:0.148148 6:0.314685 7:-0.221374 8:-0.263598 9:-0.0618182 10:0.0241546 12:0.503106 13:-0.188811 14:-0.131783 15:-0.611111 16:0.322581 17:-0.615385 18:0.035461 19:0.102041 20:0.254545 21:0.0955414 22:-0.612565 23:-0.496552 24:-0.0742857 25:0.329341 26:0.522388 27:0.160714 28:-0.485294 29:-0.138211 30:-0.00854701 31:0.370629 32:-0.111111 33:0.0121951 34:0.844311 35:-0.0413223 36:-0.157025 37:0.046729 38:0.0752688 39:0.170732 40:0.177419 41:-0.0704225 42:-0.18797 43:0.0212766 44:-0.047619 45:-0.356784 46:-0.020202 47:-0.664 48:0.0447761 49:0.0958904 50:-0.307692 51:0.194969 52:0.0948905 53:0.0894309 54:-0.229358 55:-0.222222 56:-0.290323 57:-0.26776 58:-0.271186 59:-0.162162 60:1 61:-0.970118 62:-0.912437 63:-0.973929 64:-0.983542 65:0.857551 66:-0.977593 67:-0.972693 68:-0.951768 69:-0.982189 70:-0.918928 71:-0.894715 72:-0.968955 73:-0.980979 74:-0.838182 75:-0.940166 76:-0.907666 77:-0.966868 78:-0.736484 79:-0.992009 80:-0.80076 81:-0.935596 82:-0.980475 83:-0.295623 84:-0.980423 85:-0.981176 86:-0.955969 87:-0.967334 88:-0.904752 89:-0.859928 90:-0.979638 91:-0.924764 92:-0.965536 93:-0.83544 94:-0.856468 95:-0.995827 96:-0.972263 97:-0.975492 98:-0.817609 99:-0.86804 100:-0.873297 101:-0.969866 102:-0.967416 103:-0.976304 104:-0.963556 105:-0.992781 106:-0.62579 107:-0.99227 108:-0.988303 109:-0.993714 110:-0.790407 111:-0.758621 112:-0.847224 113:-0.998099 114:-0.966802 115:-0.897862 116:-0.926233 117:-0.939124 118:-0.961632 119:-0.804815 120:-0.968004 121:-0.441106 122:-0.412548 123:-0.118597 124:-0.747139 125:0.0857328 126:0.41071 127:0.511918 128:0.446827 129:0.368359 130:0.385282 131:0.464636 132:0.501007 133:0.529776 134:0.467239 135:0.379015 136:0.216731 137:0.115783 138:0.187359 139:0.227632 140:0.294307 141:0.0407456 142:0.256776 143:-0.122169 144:-0.176664 145:-0.0582977 146:0.0163107 147:0.124774 148:-0.11822 149:-0.606543 150:-0.679507 151:-0.458822 152:-0.234827 153:-0.309385 154:-0.391866 155:-0.329188 156:-0.542475 157:-0.470166 158:-0.417857 159:-0.158713 160:0.0810557 161:-0.121799 162:-0.230009 163:-0.244944 164:-0.194354 165:-0.0434218 166:0.118791 167:0.134296 168:0.128147 169:0.00787733 170:-0.0907461 171:-0.121195 172:-0.165321 173:-0.164017 174:-0.21586 175:-0.0864135 176:-0.0359377 177:0.154228 178:0.00998836 179:0.1494 180:0.0955442 181:0.144938 182:0.158372 183:0.169798 184:0.0785534 185:0.0719158 186:0.572564 
